2004 100
<UNK> 0.19075674 -0.49666142 0.615935 0.014633558 0.8701975 -0.17741637 -0.26090252 -0.020411575 0.28182468 -0.15452766 0.94320726 0.14166382 -0.5034703 -0.030920725 -0.2651965 0.16894569 0.44703665 -0.23003756 -0.34876612 0.400586 0.72682524 -0.41191864 1.2727609 -0.00096883805 -0.5002559 -0.6781135 0.4181665 0.44075698 -0.8917214 0.35315898 0.32084867 -0.094880536 0.11663718 0.80749416 0.3210837 0.3680316 0.61972964 -0.4490987 0.15238859 -0.33683336 0.2062524 -0.059998382 0.4650051 -0.5679897 0.003805487 0.39551 0.54786015 1.0507228 -0.46443695 0.7357117 0.83224016 0.08700061 -0.47075698 0.37868425 -1.4116626 0.40254283 -0.49768037 -0.3033954 0.16174601 -0.23319688 0.43974102 -0.17582743 0.028626831 0.705361 -0.2229476 0.35284725 1.0715826 -0.28392953 -0.12358672 0.81033146 0.18976267 -0.9648531 0.71605164 -0.63679224 -0.16315594 1.3337955 0.04413307 0.4205752 0.20660439 -0.6592452 -0.8017898 0.16254272 -1.0004702 0.13938715 0.07308182 0.4353889 -0.13937166 -0.16371985 -0.10691339 0.35492373 -0.34121493 0.5546778 -1.1982402 0.7514488 0.4692373 -0.5168124 0.6020691 0.5801727 0.29199624 0.18141949
A_1 0.16082604 0.24796923 0.03914407 2.2888577 0.20884986 -1.7008401 -0.2894421 -0.0869141 -0.51716083 0.52833945 0.07067478 1.3812306 0.2579661 1.1761596 -0.30497634 -0.46576563 0.94183385 -0.3785935 -0.8713788 -0.565619 0.09136443 1.3718776 0.7015507 -0.16527663 0.30737785 -0.8917918 0.4513613 -0.8563339 0.40626013 0.9157937 -0.16403285 0.37447286 -0.36569637 -0.8317739 0.46687797 0.094896466 -0.31089503 -0.011849852 0.1890943 0.6008079 1.8486664 -0.331679 0.20857902 -0.46355423 -0.13673848 -0.8194266 -1.4986204 1.8621918 -0.58498436 -0.2710063 0.6994866 0.20000586 -0.46103832 -0.22800827 0.71544486 0.2306993 0.950141 -0.027585866 0.57963514 -0.040111035 0.18814489 -0.45313773 0.89679503 -0.7411608 -0.26772007 0.4966856 0.560846 -0.567087 -0.6162068 0.70832795 1.0080287 -1.1662967 -0.35072476 -0.2150677 0.99693555 -0.9402706 0.61008275 -0.87848216 -0.74255234 -0.6646586 0.13085881 0.12595421 0.6630958 0.92275923 1.7407775 0.5905373 -0.5432187 -0.5442203 -1.1592002 -0.4470871 0.5917474 -0.25678968 0.413284 0.9064283 -0.19102567 -0.067314826 -0.38444957 1.1947851 0.19012304 -0.17883666
A_1978 0.37600052 1.153737 1.1385347 0.23263684 1.2161217 0.7557666 0.6689777 0.16470215 1.3219146 -0.77067053 1.5193639 1.120329 -2.2266676 -0.32505816 -0.5676791 0.7581341 0.92235667 -0.59285355 1.0892625 0.9832324 1.356641 -0.53376013 -0.26996577 0.16717981 0.9013351 -0.45318556 -1.0076545 -0.3229925 -1.2908388 -0.67751443 -1.2573626 -0.8560429 0.74304396 -0.18505096 0.056011777 0.72124344 0.72097164 -0.09944374 1.342485 -0.08037866 0.7564174 0.5838951 0.67351925 -0.7452011 -0.48537058 0.84136003 0.6292079 0.47430274 -0.15032929 -1.8552009 1.2107972 1.7114117 0.6348378 -1.2275566 0.14103383 -0.9680835 -0.6880365 -1.915983 -0.30558157 0.9378553 -0.7523945 -0.058593363 -0.61314297 0.14034688 0.5303821 -0.18915813 -0.7209057 -0.12769437 1.671073 1.2823682 -0.067279 0.10404687 -0.85755396 -1.4572191 -1.5016577 1.1491019 -0.9248485 0.415452 -0.45632672 0.2709759 -0.21397935 -0.50922453 -0.8698584 0.65432537 0.97252715 1.0941743 -0.22477971 0.12705258 0.5873143 0.42007452 0.41867045 0.4014038 -0.81002885 0.7625644 -0.36633152 1.1300191 -0.99614155 -0.84260154 -1.0920776 0.53587943
A_1656 -0.12960738 0.2697938 0.43889531 1.2750857 -0.16191058 -0.17772304 -0.6497255 0.2414343 0.35191736 -0.22752482 0.8605582 0.96357834 -0.78072405 1.0234574 -0.40644366 1.1413975 0.09580472 0.08752906 0.124841005 -0.6095477 0.34939384 0.27675927 -0.46306393 0.7516407 -0.33594477 -0.86011386 0.10261495 -0.4285091 -1.2563503 -0.7192187 -0.67476183 -0.3592002 0.14616871 0.13198979 -0.21833012 -0.6085847 -0.11564205 0.12815467 0.7984124 -0.015361196 -0.30616346 -0.01829021 0.21230577 -0.28148785 0.7101547 0.34961277 -0.78933066 0.6652153 -0.6161371 -0.9735849 1.9090439 1.4404235 -0.45417973 0.5359911 -0.21557583 -0.7132425 -1.7009754 -1.6099885 -0.07175355 1.046293 -0.33503252 0.56127477 0.5949272 0.7377827 0.10953355 0.25933993 -0.0076161996 -1.0125875 0.8348802 0.65186405 -0.38460755 -1.0940604 -0.9207638 -1.6071231 -0.051691346 0.8524955 -0.08349168 0.47637466 0.28027314 -1.081825 -0.44822836 0.47019345 -0.021428218 -0.62386435 -0.40566504 0.13613436 0.43812147 0.29282784 -0.4742342 0.4291655 0.4550025 -0.15154466 0.5498644 -0.070417166 0.29627156 -0.65143406 -0.44594923 0.21202417 0.7033849 0.7115809
A_2001 0.9309205 -0.24129678 0.6193619 0.04267019 1.719557 -1.3420641 0.3987688 -1.1561409 -0.84102637 1.3244318 0.8435892 0.16118212 0.97344273 0.9024064 -0.14510062 -0.116167836 0.6895271 1.2914001 1.4837197 -0.8033399 -0.20832917 0.63866574 0.6864236 -1.3370453 0.46856233 -0.09135502 0.6297022 1.1679271 -0.55857074 0.39396513 1.6405326 -1.7053885 0.52509147 0.22564295 -0.48917428 0.08287063 -1.0207505 0.118624255 -0.9397965 -0.35302636 -0.9377763 -0.77754974 -0.7325655 -0.74478 -0.043799635 1.0589477 -0.54647404 2.038317 -0.70970577 0.016315514 0.12300103 1.093692 0.73467547 -1.8558248 1.1845908 -0.4775949 0.42793348 -0.0885926 0.8592079 -0.7760344 0.6156411 0.5715292 1.7502563 0.44826272 -0.59862596 0.55453837 -0.0005655876 0.094387986 0.47794038 0.32411236 1.3458704 0.030712375 -0.2717319 -1.2725586 0.2446758 1.4036783 -0.19886959 0.86596423 -0.4258957 -0.47152442 0.30597296 -0.5255445 0.14357467 1.8083599 -0.19448017 1.2280244 -0.5139111 0.29122934 -0.44464272 0.32137892 0.16645284 -1.722594 0.5436683 -0.2751734 0.89958364 -0.05024131 0.07696986 -0.59835005 0.53260124 -1.295622
A_1257 -0.24331869 0.7668858 1.3141183 1.2323639 0.8609941 0.54540354 0.5852145 -1.7562952 -1.2896113 1.3535368 1.8048844 0.09894554 -1.5333122 1.5665073 -0.08007566 -1.8574992 0.55646676 0.29718828 0.048454683 -0.044261765 1.0840915 0.14961204 -1.3456777 -0.76024896 0.16650303 0.9007367 0.6490588 -1.8265789 1.6323926 -0.1751839 -0.46190035 -0.19533594 1.5066625 -1.5419222 -1.1456444 -0.20874277 1.1477398 -0.00230426 2.0027544 -0.9448633 -0.8224077 -0.5118177 -0.6546951 -1.0190809 0.6066532 0.81240034 -1.6130146 -1.1586044 0.092503965 -0.34056902 0.8775495 -0.019411959 0.12094347 -1.0136274 1.4525063 0.23504435 0.5737145 -0.3173216 -0.20188473 1.457849 1.302929 0.20238899 1.6180061 -1.2279418 -0.0055643767 0.30606565 -1.1798444 0.7382406 -1.2535077 0.233457 2.5314038 -0.9680781 0.3899973 -0.030187206 0.58840275 0.19773729 -0.9371819 -0.6964372 0.5245968 0.09828853 -1.9850827 0.79903144 -0.82035065 0.8963989 1.5846668 1.7528678 -1.4584414 1.0078615 -0.8307414 0.015812807 0.26526105 0.034635983 1.2107482 1.0289425 -0.7493635 1.3770794 0.562037 -0.5685469 -0.5218918 -0.14457345
A_545 0.85576284 0.08282957 0.793417 -0.75220734 -0.4435964 1.71302 2.0397909 0.02585086 -1.4425324 -0.9103597 0.48070267 -0.21237285 -0.469267 -0.5938873 0.37550375 0.5088284 0.38772404 -0.0947155 0.94672936 -1.1729654 1.4011703 -0.3746918 -1.2044299 -0.6584655 0.4259102 0.5089749 -0.42488277 -1.4178057 -0.50241375 0.65813786 -0.81390995 -0.75877297 1.3255982 -1.3005939 0.50515944 0.85916686 0.23300289 1.547628 0.6216887 0.582593 0.14503266 -0.82777745 0.22008511 0.24226888 -0.8659961 -0.05340717 0.08492859 0.012498756 0.63085216 -1.151537 -0.5446887 1.590019 1.3925047 0.19213271 -0.33970916 0.2158393 -0.06345363 -0.9410475 -0.37101167 0.2473023 0.006603641 0.8758559 0.62480146 0.23695774 0.4195575 -0.36494058 -0.30498844 0.9291557 0.61699796 -1.387665 0.34002215 -0.37103656 -1.5560902 0.5278512 -0.13238993 -2.924582 1.1599498 0.4597107 -0.28581128 1.129966 -0.32926354 -0.020394415 -1.3043921 -1.4096736 -1.7779033 -0.8909666 -1.3353639 0.4170642 -0.3997295 -0.32594636 1.972314 1.8642524 -1.3716652 0.118766256 -0.103894405 1.056589 0.62350583 0.4904531 -2.0383098 -0.37052307
A_1191 -1.1777276 0.51045054 1.1541734 -0.028123723 2.2205982 -2.4406497 2.670225 1.0162195 -0.24957104 -0.90956396 1.0159607 2.007421 0.71306527 0.44982657 0.82906795 0.239669 0.01775766 0.5846833 -0.82764405 0.24441391 -1.297909 0.47349864 2.2041242 0.032267895 1.235775 1.1077883 -1.4619403 -0.8115869 -0.5180887 0.79673535 0.008655496 0.55180067 0.6533689 -1.0541891 0.72696674 1.5803475 1.5625776 1.021263 1.1993843 0.3064671 0.63503045 0.6919532 -0.9878351 -0.70246375 0.05015223 0.013108167 -1.1008157 0.65573967 -0.81257945 -1.6656262 0.63991046 1.3654658 0.5226462 0.0012881489 1.1552011 0.014931103 0.1785628 0.8813132 1.1726657 2.0874481 -1.5670371 0.87577724 1.623292 -0.65714616 -0.83694005 -0.9241225 1.2635049 0.626932 1.4059321 -0.19955611 0.4456971 2.395612 -2.0220141 0.038405463 -0.84676737 -0.2442604 -0.01381781 -0.63776976 0.5559581 -1.0642022 -0.4452249 -0.810425 0.9243841 1.6352144 -0.07332128 2.3897831 -1.1078722 0.120941624 -1.9645636 -0.27692428 0.9639361 -0.9920709 -0.41964245 -1.3832088 0.26830274 1.2701588 0.19382001 0.8418962 1.6613203 0.67218345
A_338 0.36735016 0.27676085 0.8314269 1.3021394 -0.03174366 0.57657564 0.05827673 -0.006106722 -0.23927484 0.29713002 0.2892774 1.169107 -0.031800944 0.28877816 -0.040183466 0.007233542 -0.24225453 -0.81408465 1.2624661 -0.3616055 -0.38396165 0.41656074 -0.74161243 -0.2187012 0.2070793 -0.5230743 -0.30086577 -0.6525929 0.38240656 0.2813265 -0.6556419 -0.1191722 0.62783414 -0.9596356 0.4442029 -0.5277228 -0.9307898 -0.36893174 0.91105056 0.87731427 1.151994 -0.006636389 -0.5829703 -0.55685383 0.2565184 0.14894658 -1.1806691 0.19824581 1.4837568 -0.8661276 -0.20073359 0.6323381 0.36536708 0.37270477 0.6249448 0.4920702 0.029144352 -0.38032585 0.6632995 0.64929307 -0.7618214 0.50790066 0.26343217 -0.07973241 -0.3574738 0.5203091 0.45102915 0.7042174 0.2978102 -0.092969544 0.6430084 -0.02609179 -0.74878925 -0.7338422 0.3168782 -1.3946239 -0.2599277 -1.7635967 -0.9019154 -0.36865714 -0.84797525 -0.3716362 -0.082691245 0.35966036 -0.16729127 -0.36956835 -1.2102312 0.87933725 -0.5387232 -0.5182814 0.124746256 -0.33207282 0.42018497 0.15000544 -0.25666264 1.1412659 -1.1854905 -0.09894394 -0.8555714 1.0144067
A_759 0.04328861 -1.1291485 1.0549409 -0.43968967 -0.3267606 1.5866942 -1.3034128 -0.77489716 -0.7540578 -0.8581108 1.1066331 -0.070306316 0.9576059 -0.5533996 -1.6182047 -2.0763159 -0.93479997 -1.8365136 -0.8072582 -1.5138323 0.59701717 1.1250521 0.10208784 0.09641328 0.4460434 2.0797226 0.03545623 -0.25371608 1.1259924 -0.7081237 0.54429334 0.76678103 1.1661015 -0.94975674 0.26722142 -0.8142567 -0.36900225 -0.15043812 -0.5927579 0.79385436 -0.17553525 0.43504316 1.2646972 0.013941731 -1.2689697 0.1648693 0.0745043 -0.11216089 3.3586698 -1.1371098 0.37138948 1.1498545 1.0911776 0.5758833 0.023630846 0.059117526 1.4987305 -2.1600583 -0.3107481 0.42400724 -1.4369314 -0.49630246 -0.34024474 -0.44732612 -1.030449 -0.39043212 -1.0554129 -0.35950482 1.5441313 -1.0365692 -1.0735106 1.374886 -1.2280463 -0.47852787 0.72296447 -2.867053 -1.0900735 -1.0991365 -1.594016 0.38996676 0.21384862 -0.7733614 -2.2252254 -0.65908587 -1.4745786 -0.79739994 1.3867267 0.1946231 0.13695969 -0.8405992 1.2795106 1.3695233 0.43482307 0.3398322 0.09417614 1.0005504 -0.09040919 0.16331369 1.5981814 0.035118446
A_645 -0.14761704 0.3867836 0.45411256 0.8373278 0.22081599 -0.21889514 -0.26212606 -1.0116589 0.74144167 0.47976258 -0.18088828 -0.42069778 -0.3604651 1.029711 0.73424405 0.279685 0.45806786 -0.14716884 0.016011812 -0.40020677 0.08673192 0.49121028 -1.4006977 0.11305416 -0.17379473 -0.8064223 0.09096798 -0.39417535 -0.6166554 -0.5587962 -0.15643264 0.40308642 0.93262213 -0.8708549 0.56486785 -0.2632039 -0.43843004 0.5996667 0.45579454 1.2764535 0.704561 0.6361683 0.5890841 -0.579929 0.59354293 -0.64675885 -0.519016 1.2204688 1.7819953 -0.20096175 0.94131064 0.6985114 0.0139978165 -0.010549014 -0.654161 -0.13899285 -0.29501247 -0.6913118 0.56672436 -0.18081138 -0.6737433 -0.5275389 0.1729797 0.78233415 -0.13007823 -0.103198566 0.61442256 0.22674362 0.38051113 0.22210142 0.70708245 -0.085394815 -0.020632328 -0.08622419 -0.63909674 -1.2462759 0.5989272 -0.9076779 -1.4027693 0.008173455 -0.27359897 -0.7064378 -0.7022505 0.14602564 0.32647628 0.44619486 0.38362703 0.3971196 -0.7958549 -0.44784978 1.0312674 -0.118557535 -1.0256321 0.7813677 -0.16395086 0.46431014 -0.022286132 1.0698949 -0.10685356 -0.07080518
A_785 -1.1583805 -0.6632925 0.139138 -2.1170108 -0.8413412 1.581133 -0.042231813 -0.79259646 0.84477466 1.2069117 0.49528643 0.2894625 -0.44914797 -0.77600026 -0.5225088 -0.43991497 -1.9534348 -0.7628602 -0.2788568 -1.3442222 -0.057960033 0.98302567 -0.5456218 0.86583847 1.4533947 -1.0815786 0.8520268 -0.117420256 1.6197871 0.701421 0.4468489 -2.1691077 1.1275152 -2.3375292 1.6089472 0.091951795 0.26457372 1.1836711 1.664307 0.22164704 0.71833223 -1.2266182 -0.13068415 0.30401862 -1.3927646 -1.0607232 -0.5993542 -1.3996282 2.6125638 -1.522352 0.82048994 1.0466444 0.63498217 1.0094725 -1.5020591 0.15151338 -1.1576612 -0.01729192 -0.25867003 -0.24625653 -0.3643337 0.62381786 1.0578172 0.6457074 0.18467931 0.5102045 -1.7509077 0.26057938 0.3836116 -0.19729947 -0.4181452 2.2265697 -0.8974906 -0.047341883 0.9103147 -2.4507174 0.958616 0.6964976 -1.8688034 -0.006989192 0.8959633 -1.0545862 -1.3052319 1.1239933 -0.019797279 -1.7551675 1.0243031 1.150729 0.5775504 -1.1112963 0.65990347 1.4814563 0.52741224 -1.095327 -0.07796186 0.8607694 -0.35154212 0.80120075 -1.3663398 0.45751032
A_791 0.05586532 -0.2793636 -1.3074323 0.90487117 -0.59763676 2.5051854 1.0472333 -0.03317865 0.88650703 -1.5440643 -0.5060205 0.52710706 0.80394244 0.75825214 0.4424643 -0.5961244 -0.97606343 -0.42873308 0.12539783 -1.0322711 -0.5986715 -0.8909974 -1.5443859 0.54319865 -1.3385433 -0.7441977 -0.6629046 -0.31193972 -1.1234853 0.71950984 -0.08273033 -1.2172698 1.6812378 -1.2504358 2.395771 -1.3868334 0.0576268 0.17017062 1.006059 -0.45367122 0.82985497 -0.40114203 0.5201512 -0.6629541 -2.1125376 -1.2124588 -0.96598184 0.058623165 3.8521686 -0.78482455 -1.0185256 2.5770972 1.0085243 0.9615369 0.3486214 -0.4205115 0.49120906 0.08940953 -0.59448594 0.76618725 1.0075979 1.2827426 -0.6721504 -0.91879505 0.4758073 -0.079173006 -1.8543559 -0.9631974 0.5482981 -1.9739261 0.97189575 1.8451412 -0.80148065 0.9160706 0.71137065 -1.6224924 -1.5291795 -2.40205 -0.42605072 0.13045919 1.4154017 -0.47824404 -1.3100914 -1.4367919 -0.56246173 -1.3970377 1.3719479 1.1402673 -0.14504932 -1.1476667 1.0256997 1.1923611 -0.17858404 0.5021093 2.0631568 0.9654133 0.7691269 0.30513558 0.06710986 -1.325708
A_764 -0.36007252 0.036722194 -0.69678277 -0.29606968 0.10754838 0.7564973 0.55071425 -1.4428416 -0.010949031 -0.8265971 -0.10069714 -0.20950282 -0.956402 -1.8167038 0.5948112 -1.4501127 -1.2334523 1.3341938 0.41743585 -0.75108767 -0.36345994 0.78853554 0.2941962 0.47335324 1.1005611 1.1350142 -0.8245361 0.2178012 -1.239745 -0.08518669 -0.24011625 0.039438054 2.204065 -1.1024381 1.001679 0.6867892 -2.2177625 1.0883163 1.3082579 -0.42203006 1.5891366 -0.3960304 0.9811493 1.6759145 -1.6468685 0.053894795 -1.6897863 -0.0075983196 2.866441 -1.1086079 -0.45582917 -0.96944577 1.2364148 0.8655789 -0.92016596 0.48997518 -0.43086368 -1.1781424 -1.4097035 0.564262 -1.3112983 -0.17719634 -0.81355715 1.0144656 1.4450144 0.94413716 -1.3395804 0.17688124 0.3575561 0.08613788 1.27263 -0.64353573 0.71348566 0.51016134 1.0963404 -2.6317258 -0.5782989 -0.35561734 -1.4924133 -1.0560347 0.5015522 -0.6062522 -1.6721072 -1.1679543 -1.4660378 -0.87426853 -0.09351539 2.8923926 1.2608792 -1.3276664 1.8130118 0.24017325 0.8004761 -1.3369968 2.37643 0.77101976 0.26547402 0.24801669 0.01594269 -0.843525
A_794 -0.6303177 1.4646933 0.46524748 1.0145504 -0.6020291 3.1638994 0.23939669 -1.1575706 -0.8507022 0.25774226 1.0298612 -0.20953485 -0.09568261 -0.87854797 0.473534 -3.1077824 -0.76060504 -1.5262338 -1.778813 -0.6288014 -1.6491013 0.9019754 -0.8718002 0.6857662 0.24649858 -1.2948492 -1.5919906 1.8896029 1.2823639 0.20110568 -0.6876893 -0.5530676 0.9707117 -1.1110909 0.42819953 1.2014378 -2.0111167 1.5965466 0.3954391 1.4150877 0.166218 0.53862834 -1.1111498 0.73943746 -0.96032405 -1.5007298 0.065074 1.188928 2.4841342 -0.31716615 -0.42488122 0.8679179 -1.0067714 0.99418336 -0.3861039 -0.253083 -0.42850396 -0.95680285 -0.7355794 -0.2626018 -1.0903839 2.0209806 -0.34926435 1.0126301 0.43309137 0.4472588 -0.78976667 0.21615665 1.4113475 -0.69109803 -0.16483025 1.4797434 -1.0797522 0.40421036 1.6450623 -2.453556 1.291917 -0.1816321 0.15958722 -0.027103605 0.473992 -0.7384884 -2.006408 -1.1286639 -1.4907908 -0.14638542 -0.4046523 1.6574613 1.135006 0.14347145 2.6621382 1.0039262 0.20361465 -0.8295301 -0.766757 0.99488884 0.3664633 -1.0641016 -0.65624833 0.4678352
A_1884 0.9190428 0.888889 2.6008162 1.90573 0.3017874 -0.66640264 0.058284074 -0.3472897 0.44433796 -0.39396122 0.23574977 2.2384367 0.46763635 3.271001 -0.21128824 0.889681 0.418933 0.8915204 -1.9836364 0.32575658 -0.5168355 -0.38302037 -0.46092743 1.4177022 0.42742857 -0.84536 0.52447313 -1.2123808 -0.98318464 -0.50265604 0.7097391 -1.6609323 0.2851655 0.82173526 -0.618195 -0.9772413 -0.089293756 0.21755143 -0.23391028 -2.0814335 -0.2054893 -0.34146366 -0.71916425 0.50727165 1.8228053 2.0135133 -2.4396968 0.16943294 -2.2847252 -0.42863628 1.2339773 -0.09798202 0.68739295 1.2220025 1.0576471 -0.80594915 -0.5991185 -0.8191176 0.22576587 0.75081563 -0.1413727 0.40316406 0.779428 -0.58321434 -0.17536427 0.7905862 -1.1811756 0.8691795 0.88484 -0.6626895 -0.84065413 -1.9340267 -1.2148814 0.4769536 2.4440958 1.0783257 -0.42021438 0.0615457 -0.12754633 -0.5608907 -0.26156658 1.1976528 0.9494373 1.2094977 -2.1802547 -0.83908916 -0.73608166 -0.54215276 0.26265013 -1.506562 0.44820946 -1.1170703 2.062717 -0.6893034 -0.95599824 -1.355976 -0.39629498 0.06841472 1.3017077 2.7139716
A_765 -0.6050038 0.55604297 -0.9491839 -0.96763855 -2.6148527 3.2006185 0.10040424 1.4147807 -0.8535736 -0.08729991 0.21367832 0.25697526 1.447842 -1.8232521 -0.5958318 -1.1321371 -0.4849273 -0.39510983 -0.54922616 -0.1901354 1.004502 1.386015 -1.6590246 0.25944114 0.29431802 0.9422188 1.1964996 -0.35165802 0.038297426 0.2998054 1.0314834 -0.3871364 1.8559875 -1.7977382 -1.2732913 -0.21315745 -0.7295424 1.2080572 1.2761115 1.4262342 1.7798887 -0.27026913 0.5953484 -1.4924015 -0.3278812 -0.6597741 -0.027527189 0.65128833 2.3539414 0.5416448 0.6497352 1.8983611 1.5000013 0.9375589 -0.16963288 0.028533159 -0.56947476 -0.00867423 0.11964639 -0.010313598 0.34091482 1.1648977 -0.0904995 0.3751137 -0.91395986 -0.17070377 -2.001424 0.110469654 -0.16691843 -0.28550798 -0.7157563 1.7861699 -1.4678901 0.2606444 -0.72162145 -1.267972 0.16103932 -2.1952271 -1.009514 0.2512487 1.4832408 -2.1129918 -1.4509548 0.1356673 -1.1593035 0.53763425 -1.3432827 0.9955637 0.40790632 -0.96215874 1.0088717 1.1670898 -0.21011014 -0.25349993 0.26682332 -0.7807573 1.7210613 -0.47974265 -0.01654369 1.6039932
A_876 0.6536677 -1.9982951 -0.2507009 -2.413638 -1.1103586 1.8964713 0.71725136 -0.3396657 -1.0435956 -1.171523 -1.027029 0.7069004 0.36909312 -1.1900457 0.8246867 -1.6206642 -0.49333036 -0.45535615 -1.3763123 0.23181415 0.24339323 0.069424644 -0.32481974 -0.23846039 0.20808378 0.9085183 1.5689054 1.9489945 -0.41663992 2.1990502 0.1955252 -0.29240465 0.30342075 1.4484278 -0.86185414 1.5766362 -0.82033324 0.8569297 0.5828022 -0.6590056 -1.0787033 -0.89373684 0.7160819 0.25621453 -1.110988 0.59997433 0.57120574 0.21076342 0.22382441 1.5319011 -1.3181926 0.5900845 0.9065696 0.32702768 -0.08237272 -0.4440239 0.19960149 0.16689175 -0.43208447 0.39497575 0.2622043 0.73476714 0.006249839 0.49329358 1.1603276 -0.3245773 -1.1285278 0.11900897 0.86397594 -1.9277432 -1.1052423 1.6325791 -1.0681257 -1.299896 1.7990638 -1.878812 0.6018291 -1.07066 -1.5070685 0.022435084 -1.2366657 1.4955888 -1.5440191 0.24431133 1.0085102 -1.7256167 1.3208058 0.7790088 0.8357711 -1.0153474 0.39310327 1.03096 0.8786659 -0.61773616 1.7705264 -0.7912477 0.71065 -0.8967939 0.28260472 0.045033567
A_793 -0.014420564 0.09700764 -0.5014976 -0.3610634 -0.40812516 2.0457895 -0.53227955 -0.7131557 -0.5879655 -1.104759 0.3836632 0.72029346 1.3025346 0.17879303 0.5014491 -1.6338642 0.24392371 -0.31285086 0.6197006 -1.1828308 1.436023 0.4340476 -1.3390813 1.3091305 1.3108611 0.6585539 -0.11370103 -1.1897802 -0.77783644 1.5388311 0.97350836 0.6696817 1.0968922 -1.0494683 -0.71087515 0.5742971 -1.6601752 1.2374041 0.54204035 0.85978687 1.6514705 -1.8744762 -0.30291554 -0.25787833 -1.0060124 -0.44105288 0.74194413 -1.9043798 2.9746144 -0.8501009 -0.39829633 0.3098344 1.6386205 1.8497539 -1.2233033 -0.2930438 -1.9484618 -1.3108913 -1.1123245 0.2663564 -0.97018284 0.22093672 0.3182773 -0.15067281 0.36762315 0.55820966 -0.29384437 1.0101277 -0.23080193 -1.4927808 -0.34987342 1.5188407 1.3704147 -0.84810853 0.47686228 -2.785267 0.10070072 -0.8463258 -2.8038757 -0.123041004 1.4984059 -0.9230287 -0.7755887 -0.9981085 -0.41241187 -0.9397962 0.9382466 0.8155808 -0.98367286 1.3108448 1.3636748 -0.71038246 0.6811045 -0.30827758 0.13195737 2.3314552 0.5382265 -0.7685858 0.40291476 0.6875951
A_783 -0.04571316 -0.2042145 0.54721195 0.056701735 -2.1245704 2.1096053 0.111472465 -2.8491232 -0.38434756 -0.4547102 0.32720432 0.8230718 -0.13125587 -0.89815617 -0.7211855 -0.1366536 -0.14351657 -1.6594008 -1.8046873 -1.8379625 -0.22472034 -0.43641156 -0.54465395 0.4894082 0.349594 2.3723538 -0.52210116 0.6254799 1.1033258 1.9403951 0.83718175 -1.5303415 0.4058642 -0.8587867 0.15812123 0.5044328 -0.78294164 2.6048546 1.0028555 -0.17809665 1.8844109 -0.3252827 -0.36094293 -0.08790339 -0.9022415 0.04817408 -0.47001898 -0.50753677 2.1770692 -0.9577554 1.1686667 1.7179192 1.5188582 0.9135756 0.9244059 0.4237676 0.4530099 -2.7592156 0.5748199 0.48176748 -0.77252454 0.33851498 -0.985263 -0.3613057 0.58580905 -1.6549703 0.32427472 1.3629051 0.18258 -1.4857961 -0.4413335 1.6483254 -0.031038929 0.12993273 -0.5022916 -0.7442637 -0.3831664 -1.3863834 -2.0174 -0.2908374 -0.08908813 -1.0650165 -0.46305606 -0.8030449 -0.85681444 -1.1569035 -0.70346975 1.6035905 -0.74484336 -0.5131687 2.4056444 0.92208946 0.6344779 -0.06961479 1.4995703 1.6570684 0.7331647 -0.47447726 -1.9452591 -0.4477483
A_1129 0.21496356 -1.4664814 -2.7726138 -1.038105 -0.9441345 0.8069371 0.9318802 0.301792 -0.6628108 -0.9006026 -0.196462 -0.27961418 0.93203104 0.2200321 -1.0282426 -3.1137311 -0.44718495 0.4152689 -1.6445445 -0.8362887 1.3553668 -0.10241582 -0.22001165 0.513941 -0.8415946 -0.49914545 0.98292255 -0.2508401 -0.057264056 1.8390685 0.5930762 -1.282355 0.24700502 -0.6352199 -0.7432893 0.7257391 -1.2549304 0.5995442 1.0147811 -2.715644 -0.47042894 1.1673939 -0.40524232 -1.026017 -0.6222642 -0.5669068 0.8415657 0.629732 0.9574407 -0.8883842 -1.2264309 -0.75173146 0.31134704 2.4967804 0.81071717 0.7405249 0.87536603 -1.2216731 -0.31648993 -0.36320585 0.8431569 -0.9673944 0.096603744 0.5084232 -0.40587687 -1.1334696 -1.4081814 1.3141925 -0.8134644 0.693356 -1.8801142 1.2230126 -0.77464753 -1.2476519 0.8542084 -1.5133492 -0.29327613 0.5864641 0.18187082 0.6208655 0.24552977 -0.5397825 -0.28992498 -0.8082264 -0.536554 -2.376043 -0.16533232 2.242533 1.1867334 -0.4588564 -0.021936594 0.44121864 -1.2813601 -1.1373739 0.20102632 0.76924556 -0.3537836 -2.2089043 -0.34047657 -1.0470558
A_767 1.0960423 0.20419395 0.4119722 0.18978514 -0.031325504 1.8760178 -0.37848032 -2.1345634 0.31240356 0.25485408 0.61815375 0.92427844 1.1904594 -0.7604788 -0.20705761 -2.6543658 -1.1964879 -0.6508843 0.7979176 -1.4540669 -0.49699327 -0.13577655 -0.7654218 1.3195224 -0.42834976 0.91880625 -0.75715303 1.4915706 -1.0230032 0.3342868 -0.19111969 1.080757 2.6566875 -1.2569792 0.8734634 0.51411724 -0.29147595 0.7925347 1.166752 0.07718693 0.3859741 -0.46259522 -0.09081178 0.28380677 0.4656901 -2.5809588 0.9988451 -0.011421767 2.693663 -0.7478491 1.1709207 1.1871058 2.6118305 2.234307 0.90627915 0.5586445 -2.4438183 -0.36052153 0.45872545 0.7057224 -0.38527188 0.3522833 0.06452706 -1.1928194 1.0096858 0.97148424 -0.034600146 0.43395883 -0.009350196 -0.6240071 -0.15425627 1.0044699 0.13919131 -0.5610803 1.0201443 -3.6958818 0.30831704 -1.31403 -0.33389273 1.8681905 0.921033 -1.5041974 -0.7085442 -0.30056906 -0.6115028 -1.6051224 -0.116092645 0.9417882 1.3040516 -0.2924535 0.64202064 0.82108814 0.722461 0.33784255 -0.24652316 -0.12511784 0.29353473 0.8897057 -0.4209214 -0.25765225
A_762 0.73917216 0.08569257 0.26793647 0.5011581 -0.6636597 2.6618152 2.4824219 -0.54110914 0.8395081 0.65443796 0.44714105 0.39492276 0.8331045 0.80995244 -0.12487266 -0.0040985825 -0.7514413 -1.7687017 0.3313465 -0.9408089 -0.1732552 0.13008532 -0.86691976 1.6691475 1.208451 -0.20572191 1.4736522 -1.3046077 -0.6838694 0.26161304 0.023297332 1.4264374 1.4670575 0.17874137 0.33071786 0.32140875 -0.9085237 0.4814615 0.6652634 -0.32644236 -0.19504932 -1.0058218 -0.3419541 -1.1288921 -2.1415484 -1.7148452 0.35655254 -0.43861717 2.3598678 -0.34558448 0.62154675 -0.8988945 0.036636773 1.4470897 0.7488812 0.21646783 1.676023 -1.974347 0.52126086 0.5567225 -0.28161347 1.7551593 -0.70103425 -0.29541817 1.2402779 -0.5552064 -0.70751965 -0.4680552 1.7677016 -2.1753082 -1.0004828 2.3405066 1.1821169 -0.99363697 2.027873 -2.712661 0.41884044 1.0967051 -1.589732 0.20082588 0.98698443 -0.657668 -0.3643105 0.43348962 -0.44515195 -0.39451 -0.17584373 1.6103855 1.1086494 -0.92125905 1.3198982 0.7379832 -0.1958241 0.1230548 -0.22012864 0.76260716 1.2754859 -0.777916 -0.6507406 -0.24090172
A_769 -1.2771318 -1.1593955 2.0090094 1.7445043 -0.58830225 2.1288934 -1.0763918 0.59513324 -0.9223761 -2.060023 -0.31276542 -1.0961738 1.3321503 0.04836258 -0.11187246 -1.6841115 -0.7733456 -0.5928787 0.871977 -1.2426634 -0.13019395 1.7959374 -0.92699224 0.0043925806 -1.1024059 0.06695536 1.9366034 1.218735 -1.1006716 -0.68179375 -1.5312897 -2.0356388 1.3034513 -1.3582584 -0.19532713 0.67547965 -1.2255359 1.1070623 1.6771804 0.67921394 1.227765 -1.1458175 0.20738211 -0.2999013 -2.199047 -0.91561157 -0.21707055 -1.5042187 2.42799 -0.71628785 0.58849317 -0.3607301 2.7432544 1.4954952 -0.41406956 -0.34378764 1.0061237 -0.501807 0.5331725 1.3076924 -0.6517046 1.6259388 -0.3964327 0.8908341 0.98667043 -0.4810606 0.1426087 0.85915303 0.62689686 -0.47606963 0.92400306 2.069365 -1.3785698 0.8885763 0.36459756 -3.0674818 0.649508 -0.9176076 -1.1669495 0.17590263 0.92898864 -1.0697405 1.2312988 -0.940501 0.66060704 -1.6080179 -0.091551304 1.8353243 1.7789905 -0.84628904 2.2826228 1.0059649 0.41376668 0.4127363 0.13905685 1.8851329 0.09708906 -0.414918 -0.07667882 0.45534772
A_786 0.4419087 -2.1580653 0.37266293 -0.43879515 -1.6544456 1.5236945 -0.53190637 -0.29789877 -1.8334138 -0.63415074 -0.1267799 -0.14837538 -1.1680955 -1.0250889 0.040145665 -0.33088306 -0.4567882 -1.3352245 0.4851832 -0.87774205 -1.6455965 0.2744225 -1.0144259 0.9040259 0.66589326 0.4020627 -0.119315274 -0.41037852 -1.5513562 0.53707486 -0.24641077 -0.2624462 1.9748538 -2.1497028 1.0612252 0.2746451 -1.1082412 1.2345579 0.68181384 0.056803685 -1.1481408 -0.15345159 0.818466 -1.4848375 -0.6443405 0.3659507 -1.9273797 1.0615934 1.7286443 0.34269696 0.5481123 -0.30424583 1.8815612 2.5362134 -0.44653755 0.8737803 0.5308445 -1.2751348 -1.2270762 -0.83542913 -0.9952431 -0.31708628 0.6331795 -1.5957261 0.89537877 0.14028905 -1.5638547 -0.14084813 1.2094423 0.66569936 0.07544069 2.5690563 -0.76539016 -0.06732275 -0.39087978 -2.4395592 0.5987783 -0.8742175 -0.79150885 0.3424443 0.62640357 -1.9384289 -1.0680745 -1.1700871 -0.20611252 -0.7796695 0.808565 1.6572148 -0.09601373 -0.8047142 0.8149786 1.320956 0.85578346 -0.043011896 -0.35899997 1.3046659 0.7749555 -1.3449502 -1.5163338 0.89911413
A_760 0.099599 0.39564648 -1.4958239 0.85896206 -1.2369586 2.3287423 1.5271331 -0.8959622 -0.52049685 -1.3651128 0.823206 -0.31221431 -0.228103 -1.2651901 0.08091076 -1.1843224 -0.67378134 -0.9615336 0.26134387 0.5191282 -0.6065423 1.3760056 -1.7001346 0.47545907 -0.7546647 0.288399 0.8090526 0.009513247 0.07812052 1.4681076 -1.3198285 -1.2517045 0.88591343 -1.6710817 -0.51359284 0.3921032 -0.61428005 1.2628933 0.4164 -1.2084649 0.15864822 -0.20490527 1.0718676 0.26664183 0.22592174 0.17791386 -0.58191824 -0.09358083 3.7567635 -0.52517354 -0.21726787 1.051924 0.7825066 0.806793 0.2814452 1.9682046 -1.5953113 -0.16030324 1.002999 -0.71370614 -1.3936881 1.4870844 -1.5785222 -0.48571047 1.0280541 -0.11406129 0.5824898 -0.7319732 0.20633154 -0.020242218 0.55861247 1.9673042 0.28583676 -0.48876914 -0.4041634 -2.8285651 0.9626452 0.8821578 -1.4022988 0.3234191 1.2237495 -1.0159916 -1.0495571 -0.9684595 -0.8003941 -0.80086017 0.22682329 0.9523397 0.14382166 -1.1273469 1.2708821 0.11752294 1.1517715 -0.57003653 0.5431394 0.99149835 -0.051106945 0.5618709 -0.22323821 0.04346967
A_772 1.2433769 0.11932046 -0.3364666 -0.91063637 -0.08594234 1.5750129 1.5997777 -0.91828644 0.4577541 -1.1250279 1.900442 1.132993 0.36968967 -0.4064858 0.04760513 -1.2607814 -0.7564941 -2.263498 -0.43387967 -0.77015805 0.77143365 0.17733529 -1.7715513 -0.42824322 0.9528936 -0.19443713 -0.060202535 1.0179063 0.14893441 0.55440474 -1.5279883 0.9685168 1.3994697 -3.3396933 0.62045014 -0.5956581 -2.3641706 1.9626422 2.7897654 0.91162527 1.2775768 -0.46196023 0.20352829 0.9603664 -0.9732968 -0.230037 -1.5457684 -0.7707667 2.2197928 0.089518465 0.6140093 0.31630713 -0.0113865025 -0.019503795 1.2768631 0.7333739 -0.45592755 -1.3763779 0.9104356 0.71444595 -0.19160244 -0.6657464 0.46930674 -0.52595 -0.6771702 0.15217528 -0.21380335 -1.7335854 0.070945695 -1.700622 0.13568453 2.1566832 0.13108389 1.0100831 -0.5383718 -2.8601286 0.3178984 0.059208553 -1.937123 -0.60456806 -0.06516222 -0.15632197 -2.1630013 -0.784068 -2.8739352 -2.9653766 1.215142 1.5468506 0.3511677 -0.5034674 1.086349 -0.48985898 -0.09610291 -0.55007493 -0.25364283 -0.21104144 0.7573817 -1.7467326 0.08745617 0.41519687
A_93 0.12329812 -1.5846573 1.4368201 0.24899003 -0.3405876 -1.047632 2.1570766 -1.0886084 1.6659378 0.70237094 0.18893628 -0.32159412 0.24954972 0.7876006 0.14090751 0.1804498 1.1357056 -0.5541319 -0.29571572 -3.0943203 1.8634545 1.4949324 -0.89300233 1.198843 -0.79462874 1.2045856 -3.6320653 0.28649953 -0.3055337 0.61524564 -0.9196002 -1.675387 -1.3044469 0.80545497 0.464721 -0.44370595 -0.8522334 0.0041275565 -2.2341173 1.6061996 -0.34336102 -1.3166801 -0.3687521 2.117377 0.66753644 0.56874603 0.3076788 -0.414273 -1.9398324 0.442983 0.39639193 -1.9301472 -1.7099773 -0.61948967 -0.63498974 0.43405044 0.45218253 1.1110668 0.04746091 1.3538677 0.39608502 0.56148404 2.7629652 -3.1395988 -1.4825661 -1.4707744 0.30231124 -0.5893119 -0.27484313 -1.3858371 0.4126758 -2.332255 2.7563558 0.8378148 -0.30750358 0.041077826 -0.09562235 0.48193964 -0.5312534 0.5492284 0.089824595 -0.3668417 1.204373 -0.8338773 -0.19016695 0.21826237 -0.8599089 -0.639081 0.14005119 -0.112507045 0.96576405 -0.6925227 -0.42341092 -0.59985095 0.82427037 -1.8630168 -1.5760634 -0.3754922 -0.0029787358 0.67986816
A_770 0.26821393 0.68601817 -0.85175556 -0.21617551 0.23537426 3.039405 0.5779034 0.4659554 -0.26185372 0.2519281 1.2382665 -0.044462916 -0.7670456 -0.26109874 1.0508565 0.013752905 -1.2717049 -0.45463887 -0.4418261 0.9407942 0.041286957 2.1926773 -1.5684854 -1.6767416 0.06494657 0.4883579 0.64281005 0.31848827 1.4717749 1.3467797 0.2635942 1.2350743 1.7937783 -2.8741236 0.43064353 -0.21065821 -2.133495 -0.2508832 -1.2740512 -0.8471259 -0.037781153 0.050301194 1.4577107 -0.053674914 -1.5397066 -1.6494597 -0.46423638 0.24112564 2.1298265 -2.1356134 -0.1916778 1.2209464 0.8959441 3.7479396 0.09034368 0.04531934 -0.96575695 -2.5421946 -0.5591267 -0.2530976 -0.596231 0.069394484 0.3310709 -1.1672089 0.5028942 1.2164036 0.09317559 1.7346475 1.3931319 -1.2656549 0.88473094 2.0869586 -1.682048 -1.2026889 0.3048631 -1.3766731 -0.48303273 -2.2448869 -1.9596623 1.6685641 1.5250738 -0.47590172 -0.8727099 -0.0069442275 -0.4712559 -0.5115723 -0.3362428 1.7271426 0.21016854 -0.67097676 1.7785438 1.539358 0.70717317 -0.6297852 1.5700766 1.1496841 0.6144118 0.5063635 -0.34470853 -0.0344081
A_57 -1.4996738 -2.004846 0.08969115 0.96350247 -0.31964117 -0.35265508 2.193905 0.9536898 -0.97420424 1.032012 0.4927603 -0.31543693 0.32576343 -0.457131 -1.7910275 1.2108407 0.7856949 0.8713547 0.5031589 0.25373873 0.2887538 0.05283016 -0.8323699 -0.27310026 1.2028446 0.41750804 -0.40083805 0.64999545 -0.34281635 0.73505247 -1.8621334 -1.6547898 0.10061421 0.9107874 -1.5925368 -0.6797502 -0.42425388 -0.21447867 -0.4689335 0.3300035 -2.3268003 0.088236794 1.362132 -0.0843796 2.1771226 -1.1233686 -0.05724631 -1.4334917 -1.2689186 1.9760824 -0.3058342 -0.40904167 -1.4707197 0.017643297 0.48371804 1.2849523 0.76945174 0.2986945 -0.51652247 2.38118 0.5329473 -2.0043175 0.994437 -1.8465855 -3.30929 -0.8666317 0.9993372 0.38018623 -0.6365209 0.38615742 1.8065498 -2.3501642 1.2062384 1.1887199 -0.62192667 1.1013784 1.5041381 -2.2416894 0.17814963 -0.7948118 2.1152198 -1.6745441 -0.103808396 2.1704714 -1.3093134 -0.62703586 0.23300819 -1.6745337 -1.0066571 0.34893054 -1.2338991 -1.6209081 -0.04376894 -0.64376736 -0.7902925 -2.214355 1.0153643 0.98683363 -0.63549274 1.512769
A_58 0.30514967 -1.1666211 0.57206047 1.3626299 0.8543551 0.10914164 1.731471 0.1632763 0.2775148 0.8301619 0.39816022 -1.4098471 -2.2036994 0.4496062 1.3021387 -0.8601945 -0.8593154 1.1175982 -1.028856 1.553352 2.1458125 1.50338 -0.6789396 0.7873121 1.7669305 -0.8778915 -1.7591262 -0.43197167 -0.3406385 0.10641316 -0.06492786 -1.6968746 -1.2427722 -1.122169 -0.5029626 0.86933136 -1.1267372 -1.7257099 -3.8208606 0.26430216 -1.1791478 -1.481567 0.47152284 0.894924 2.4556508 -0.46008632 -0.7826158 -0.23905048 -1.0346259 0.80140144 -1.4940171 0.27290884 -0.7869601 -0.7914106 -0.75800794 -0.46034747 0.61258096 0.8755067 -0.8014313 2.062254 0.60798097 0.33436176 0.37590393 -0.48856992 0.7994866 1.4005668 0.9592007 1.0159737 0.86541414 0.7529192 0.30409044 -0.80481976 2.727962 1.4684536 -0.07152565 0.8034284 -0.39768264 -0.9845172 1.5627475 -0.29079205 0.5027594 -1.3382819 2.0769005 1.8978758 0.71583635 -0.52826947 0.08325597 -0.3508826 -1.3193084 0.48358634 -1.0577909 1.7537292 0.79190016 -1.6549056 1.4483439 -0.9687309 -1.4668094 0.2958964 1.158566 -0.012544757
A_1737 -0.22697145 0.36145806 -1.1161629 -1.367131 1.3948324 -1.0203234 -1.4754533 0.10110882 0.46645477 1.1098322 -0.067759804 0.6081243 -1.5819722 -0.90101284 -0.67633796 0.08169573 -0.8645564 -0.67243177 0.9807578 -1.0034758 0.48645616 -1.1752112 0.26476654 -0.81444573 -0.29026672 0.17876239 0.20550598 -0.12315672 -2.787032 -0.2371807 -1.3549166 -1.3834592 0.06972172 1.149061 0.86035705 1.0373358 -0.428616 0.7956178 0.6516312 -1.2682482 1.3069507 1.1496716 0.7777726 -0.95030606 1.7968786 -0.31109 0.6183309 0.695982 -0.68026483 -0.5617817 0.258428 0.7933387 -1.7396171 -1.6874002 -0.8167381 -0.90147704 -1.1517051 -0.4644918 0.49087214 -0.251269 0.13676223 -0.037458137 1.8408686 1.8886603 -1.2046204 -1.1432521 -0.7099661 1.7359319 0.32334578 0.95186275 0.98717 0.019809354 -0.67163557 -1.1700153 1.254196 1.5449545 -0.060136855 0.6383388 -1.0964394 0.61047053 0.63929164 1.7779926 -0.36462438 0.9558444 0.4295646 2.9924855 -0.26088905 0.11651717 -2.3036273 1.0562897 -0.9023901 1.0819207 -2.4789455 1.5475513 -1.9736224 -0.4390113 -0.9186133 -0.2685466 2.1657484 -1.7398751
A_784 1.4593389 1.7773509 -0.2303806 -1.210889 -0.19859286 2.5350018 -0.14631745 0.7731327 0.25136635 -0.92555743 0.9824499 0.3540247 0.63785577 -1.0435969 -0.6531052 -1.5526855 0.6474679 -1.698512 -0.6117792 -1.0867708 0.5474304 0.1782085 -1.4056042 0.9112603 -0.15875898 0.8472389 -0.07278225 0.74179035 0.60482556 0.08793615 0.4910294 0.03066469 1.8961245 -0.91751504 1.6131463 -0.16215207 -0.2565435 0.0250573 0.7871404 -0.09211043 -0.949576 -0.93450147 0.2776466 -1.1691883 -0.13156171 -0.45213425 -0.72131974 -0.19169818 1.4359378 -0.7001389 -1.1763289 0.44113502 0.9024666 1.6869882 0.14848728 -0.18759067 0.36582997 0.30332264 1.4733527 1.5229138 -1.6598086 0.118943945 -0.55629486 0.8100903 0.5070626 0.62134486 -1.0621257 -0.4147927 0.53400993 1.0228186 0.709167 1.3568324 -0.8932707 -1.2494136 0.82579744 -3.2776732 0.6980123 -0.8260183 -1.5467701 -0.6803717 0.9127723 -0.9584456 0.26153305 -1.3059865 -0.6974218 -0.844668 0.68999285 1.4112395 -0.2324078 -1.4138415 2.4342027 0.87460154 0.11850766 -0.10562786 0.714475 1.2323365 0.68095344 -0.8447042 -0.49780497 -1.1123353
A_737 1.1509641 1.0387187 0.31824094 -0.09576193 -0.12738614 2.3213036 0.59843016 -0.81468797 0.5797844 1.8726201 1.742824 1.6443146 -1.7138948 0.73641956 -2.186578 -1.341924 -0.74792963 0.64695776 0.46106923 0.372847 -0.4042148 0.17806633 -0.100877956 -0.67276525 2.6293385 -1.0137671 0.87951314 -0.39719605 -0.4108008 0.31830978 1.0895907 -0.70022005 -0.06916636 -1.8371371 -0.039881226 0.21113347 2.1120193 1.1888376 1.5627745 0.38898197 0.9186375 -1.2435985 0.14250672 0.020764181 0.08471428 -1.6863413 -0.74407417 -0.7102741 -0.1729073 -1.3224386 -2.1733632 -0.5676565 3.0889702 1.2586559 0.89344966 1.3480369 2.3218412 0.038304083 -1.1908517 1.9740456 -1.8644282 1.5988169 0.82540244 -0.5165466 -0.69119555 -0.9588955 0.5234956 0.5268502 0.4120594 -0.47019064 0.74477136 1.5669247 -1.5395888 0.91940075 -2.135826 -2.6336403 -0.6761961 -0.84008706 -0.25992864 -0.58802897 -1.621325 -0.6623652 -1.5273583 -1.4791026 0.5008573 1.0052522 -1.4219654 0.5276322 -0.51093876 -0.8672803 1.7723612 -0.12710735 0.3478964 1.1401733 1.0631196 1.3735999 0.031206539 -2.0345042 -0.3650569 -0.84395206
A_781 0.5688975 -0.7419645 -0.6412482 -0.3891738 -0.34779283 2.0232043 0.68089616 -0.5243688 0.27088344 -0.5839478 -0.5855948 1.1326114 0.8874874 -0.256372 0.105766095 -1.3893584 -1.5093906 -0.82324725 -0.50975895 -0.58958024 -0.3577045 0.42695504 -1.1986059 -0.02661503 1.107601 0.5092024 1.2711983 0.8546389 -0.42388806 -0.035610262 1.238761 0.119701095 1.4574138 -1.4531565 -0.9276891 -0.62672496 -1.4165395 -0.35146374 2.7397377 -0.29698247 -0.3345735 0.20008822 1.0084815 1.253799 -1.4872308 -1.6023908 0.37734768 -0.30942252 3.3097186 -0.39782292 0.8639391 3.0547976 0.87511057 1.6746677 0.525409 1.2885859 1.0083466 -0.38938168 0.00051909505 2.1620474 -0.62950516 0.07524212 -0.92284614 0.03658147 0.36888835 -0.14328383 -0.6142489 0.23885831 0.20075159 -0.40427023 1.3653232 -0.31440106 -0.6900281 0.045032773 0.6866235 -1.555154 1.9502727 -0.10105791 -2.7481508 0.7724193 1.1312544 0.2607478 -1.0710763 -0.7692378 -2.10152 -0.50340074 -0.90215564 0.15857452 0.6376862 -0.77813756 1.0660838 0.9127673 0.45392066 -0.9011664 -0.21023686 1.2658455 -1.2400974 0.35433924 -1.481559 0.50233966
A_771 0.1986143 -1.5581243 0.8444202 0.33642727 -2.0870745 2.266079 1.5711604 -0.71406 0.9743924 -0.6843447 1.7258073 0.27314764 1.5289148 -0.5474107 -0.7079516 -1.7323335 -0.48454207 -1.0460634 0.06898713 -1.2591816 -1.2505922 -0.084390104 -0.67137194 1.8516065 2.0293674 0.73131925 0.18952918 -0.60282636 -0.50519043 -0.5503581 -1.4209317 -0.51470375 2.3601935 -1.2426368 -0.10900655 -0.6820943 -1.5201875 2.202577 0.6022536 0.007216457 1.0215192 -0.1218112 0.6672223 -1.056303 -0.10421531 -0.54426724 -0.98645335 1.1367188 3.183274 -1.1370116 0.466393 1.0032724 0.47568366 0.5291948 0.97460306 -0.17360587 -0.3145118 0.8639023 -1.386208 0.139871 -1.6157774 0.69997245 -0.6761591 1.0505805 0.039312053 0.2534942 -0.7372738 0.35709482 -1.882964 -0.9764638 -0.4001611 0.5533068 -1.0165184 -1.3353395 1.380282 -3.578123 -0.86938447 -0.9598027 -1.5877395 0.81836355 0.743612 0.45319834 -0.6448842 -1.0463634 -0.6553949 0.12113053 0.49991322 0.023598582 -0.1760558 -1.0873656 0.84989065 1.503484 0.09370623 -2.245304 0.83287877 2.1350558 0.6582158 -0.7280179 -2.358323 0.867518
A_777 0.35968313 0.57895726 0.26883787 -0.41798815 -0.3842639 1.657094 0.14694713 0.37001354 -0.80148464 0.20466468 0.09169 -0.67155117 -0.06240133 -0.55764455 0.86832273 -1.4080219 -1.3872881 -0.96361315 0.16912104 -1.9047074 0.17126848 1.5536897 -0.60664505 1.5220925 -0.4973299 0.69881266 1.2681006 -1.1413113 0.27739826 0.8151651 -0.34033227 -0.07715101 2.0593293 -1.5237261 -0.39979556 -0.44604883 -0.751621 2.639732 1.3258895 -0.75820047 0.6295307 0.7081976 -0.7935815 -0.75545484 -0.49855843 -2.0575602 0.54423857 1.3400667 1.3768837 -0.69284385 -0.46361884 0.88987565 1.4605494 0.19637224 -1.0423114 -0.5025936 -0.70850444 -1.6714572 -0.44693872 1.016121 -1.7972466 0.07020247 -2.0329916 -0.572963 0.59470326 1.3982321 -1.0111991 -0.9278194 -0.6485537 -2.604514 0.06136162 1.4933684 -0.64537895 0.35249865 0.31073135 -1.5011209 0.08801469 -0.82857794 -1.7986866 -0.6398831 0.39780807 -0.3964574 -2.0603213 0.23890825 -0.6797042 -1.6849214 0.3275419 0.9838983 1.5169803 -0.41727042 1.5038185 1.409669 0.87498266 -0.435926 1.613204 1.810074 -0.6777206 -0.44487983 0.32997504 0.07676188
A_768 -1.2586387 -0.4892529 0.019166423 -0.5838329 -0.96337533 2.053189 1.3493351 -0.1819129 -2.3221114 -0.2553849 -0.45986566 0.52945286 0.17400585 -0.19802967 -0.11069228 -1.513045 -2.0591214 -2.3548813 -1.0244845 -0.21999303 -0.9772541 0.8656366 -1.6905895 -0.67836666 1.5763644 -0.9712007 -0.31932792 0.34391814 -0.45465612 -0.67840695 0.024317129 0.009286376 0.8005421 -2.0302455 -0.8699287 0.16929169 -0.8689927 0.24286021 0.7800008 -0.15665394 1.8249564 -0.28155664 0.4918955 -1.6038244 -0.16402662 -0.30708227 -0.49712718 -0.020699004 2.5314167 -0.96184605 0.31032634 0.03830172 2.282455 0.55753946 0.41036963 -0.837849 -0.07005191 -0.82841814 0.15388775 1.7436208 -0.062745176 0.060671136 -1.4649293 -0.19241436 0.24501616 1.925751 -0.76887316 0.50151813 0.36385468 -0.51606697 0.7355851 1.1835085 0.6816327 -0.28747308 0.7675525 -2.3005764 1.291569 0.091595195 -0.7095565 1.5971321 0.7727042 -1.0150808 -1.1759 -0.94807285 -2.4275925 -1.5555851 2.1395407 1.6012819 0.9018492 -0.51432073 1.4319367 0.529926 -0.646844 0.31484967 2.523202 1.8082601 0.83081406 -0.118206404 -1.3406504 0.4462459
A_1890 -0.7072761 1.3523111 1.5305984 0.6721835 1.0033076 -1.0770074 -0.68005145 1.1403381 1.846265 1.1607146 0.48459312 -0.5672521 -0.7466253 1.1571767 0.7746628 -1.6627954 1.2277695 1.1228753 -0.09360753 0.20227563 0.62740445 0.73633 -1.2623572 -0.80485564 1.6566348 1.5761411 0.0028489446 -0.030697135 -3.224835 -1.6636865 -1.1651725 -0.840665 -0.5717906 -2.1835675 0.18929702 0.27078184 -2.1757166 -0.17109147 0.9637427 -0.36258548 0.5407223 0.942344 0.04638214 -1.3248528 -0.59085447 0.39070728 0.34881702 1.0748578 0.4442993 1.632667 0.9612268 0.70956206 0.27069613 0.8385378 0.03223759 0.06861112 -0.6338767 0.4994932 0.7444553 -1.3344984 0.785618 0.81551135 0.19008897 0.73047686 -0.50222516 -0.8061769 1.7092673 -1.2380952 1.0159205 -0.60710627 -0.26896265 -0.4978563 0.44147003 -1.945876 0.6097984 1.3623916 0.51226586 0.453403 -1.1246005 0.38826934 -0.88553894 -1.831949 -2.4555635 -0.16072921 -0.732411 0.4333203 -0.20210753 0.7010354 -0.81653076 -0.36377668 -0.49188757 0.5685073 0.5230341 1.2049761 -0.4216699 0.16437428 -1.1128904 3.5827694 -0.50680286 -1.141616
A_83 -0.36577263 -1.0421028 -0.3264136 0.00038930756 0.50513256 -0.9342777 0.97306126 0.13424948 2.341944 1.0647098 0.61228603 -0.46975154 0.5045674 0.81356084 -1.1208937 -0.3145049 1.6209565 0.0378791 -1.5783732 0.6965395 0.42713794 1.9403702 -0.60104185 1.0634984 -0.78461117 -0.6722646 -0.9722012 1.568681 0.5665392 0.15405461 0.46035305 0.19394761 0.7299015 0.36016607 0.5701129 0.09122121 0.8227405 -2.153551 -2.439692 -0.40440857 -3.104471 -0.84793186 0.52160543 -0.5854313 0.45296144 0.13008003 -0.9825009 0.1429951 -0.36948198 2.0806882 -2.573021 -0.711747 -2.6324081 0.48023677 -0.6467382 -1.2368754 -1.6234157 -1.1329381 1.2086334 1.4632789 0.638327 0.26472867 0.5902397 -2.7468655 -1.1200684 -1.9970663 -0.35141957 -0.60118 1.7131467 0.2846044 1.2854444 -1.3490429 1.4242963 1.1901662 -0.98935133 2.3962145 -2.0728197 -1.7138175 0.919984 -0.66880286 1.8062031 -0.83530426 2.3268168 2.022029 -0.4060296 0.34285244 -1.0233562 -1.5739037 0.65239185 -1.1793975 0.68567914 0.038813382 0.46328223 1.0339104 1.0668274 -0.26768652 -1.3928195 1.1417496 -0.9388347 0.2632992
A_809 -0.42630503 -0.5996724 -1.2234342 0.30904686 -1.2350757 1.737825 0.35236183 0.47136888 -1.8656064 -0.5488328 1.3505801 -0.67225796 -0.604147 -0.59898096 -0.2701317 -2.3378482 1.0320262 -1.339716 -0.41091537 0.744215 -0.3898824 -0.71495724 -2.2532506 0.7048909 0.6451392 -0.39014858 0.051135503 0.13734506 0.6350645 0.64042604 -0.259346 -0.12936908 1.877616 0.23359866 0.86813504 -0.05109113 -1.5643504 0.8272776 1.0866737 1.4294217 0.05301229 0.01845654 0.1263918 0.58415073 -2.5193596 -1.207886 -0.38485453 0.16710216 1.7775145 -1.2158573 0.44842905 0.11563295 1.8307511 2.560725 0.89420825 -0.032578006 -0.34644407 -0.5989999 0.9964693 1.0987895 -1.9018767 0.50596374 -0.27904812 1.2625917 -0.7224768 0.15420724 -0.6518629 0.97018373 -0.3892254 -1.805682 0.9902415 1.5344795 -0.38825998 0.092021696 -0.34546116 -2.4904838 -1.1501116 -0.006205276 0.21559373 0.9798057 1.5400538 0.27966854 -2.0068996 1.1277392 -0.96431863 -1.3491374 1.4925187 0.9934071 -1.0276049 -0.89716077 0.14944315 1.2761959 0.8809404 -0.30989316 1.728717 1.3885766 -0.4050606 0.82212836 -0.94850075 0.8574001
A_885 -0.121289186 -0.71407235 0.20178026 1.8585289 1.2848866 1.4996529 0.36832443 -0.3543137 -0.17938527 -0.6964771 0.47996116 0.027227215 -1.1985161 0.9242558 -0.50839674 -0.34525064 -0.9910955 -0.26813567 1.1115652 0.06949556 -0.90670705 2.4222836 -2.7708719 0.066990055 0.8623669 0.30934605 0.119941905 0.58054537 -0.29265228 -0.35057 -0.880409 -0.033871345 1.5317976 -1.8291382 0.16963638 -0.89942974 -1.219509 -0.05375367 0.5868904 1.7677163 2.3846087 -0.41696876 0.0013049941 -0.19767797 -0.29518622 -1.6468716 -0.80446666 -0.17013043 2.7410533 -0.38494933 0.25697625 1.3144892 0.17996463 -0.467386 1.0296763 -0.8294239 -0.18906622 -0.74269843 0.8802167 -0.57382786 -1.7960223 -1.0665437 0.9970747 -0.059143826 0.9462233 -0.031406447 0.18047245 0.966371 -0.4428543 -1.3383172 -0.96686393 0.8072234 -0.50591874 -0.48734298 -1.014245 -1.9148617 0.8738367 -0.87219745 -0.21112213 -0.079839565 0.15741012 -0.43982786 -0.5612036 -0.73989767 -0.6236956 -0.77775437 0.8343317 1.2270323 -0.87191355 -1.3294554 1.4314816 0.3174432 0.6562873 -0.15622462 0.3587484 0.98934466 -0.3236555 0.0050544804 -1.7458519 -0.13034806
A_727 1.799764 -0.26646754 -0.1349957 -1.4960796 -1.5446489 1.0142008 0.51689154 -0.42212474 -0.53792727 0.4176707 1.8086787 1.5301343 -0.9867852 0.9026568 -0.40333042 -0.9391913 0.41499716 -0.82129055 0.3312458 -0.6890598 0.32034564 1.4766368 -0.8671192 -0.3703943 1.1564089 -1.2906468 -0.023995467 1.1074264 -0.13888998 0.22084413 -0.48022297 -0.3265365 3.4864204 -1.9514506 0.55442375 -0.5979723 -2.5305405 0.29340282 1.2758278 1.2689462 1.4197116 -0.39430326 -0.36884138 -1.6179837 -0.94284016 -0.21684612 0.7686314 0.3565554 3.2878795 -1.9195005 0.99883795 0.07230255 0.090545654 0.1478648 0.28663078 0.24351862 0.19476885 0.38133067 -0.2657504 1.8757048 -1.4359807 0.19947569 -1.509686 -0.9242717 1.3878909 -0.37381366 -0.8546871 0.9767546 0.25441596 -0.4915396 0.17897499 2.4332166 -1.5255151 0.9118112 0.40305144 -1.2221565 0.0024587787 -0.77136856 -0.7812261 0.6860648 -0.30169973 -0.2838104 0.71739084 -1.1315885 -0.92049 -0.054038685 -1.1008694 1.4808106 -0.52918553 0.0507629 1.1926496 0.7143099 0.67467326 0.13737482 0.353411 1.9933145 0.3119453 0.60475665 0.23597221 0.2534299
A_2030 -0.35725808 -0.60813177 1.6310332 1.1200202 -1.7490549 -1.1632209 -0.5940687 -1.338296 0.21679327 1.3086095 0.035779703 -1.074587 -0.17972134 -1.1086411 0.17777096 0.6191969 1.0627625 -1.3971403 0.6843304 0.61069256 -0.012282045 0.44859225 -1.3207815 -0.8730944 -1.4139732 0.5989081 0.34067556 -2.1711998 -1.2187616 -0.14815493 -2.4407685 -1.0679826 1.0783161 -1.8472699 2.903603 0.73803765 -0.77644306 -0.4730569 0.13672931 1.7484058 0.75078213 1.2900491 1.0721736 -0.40460983 0.51481754 -2.144465 0.4984533 -0.31116802 1.3065884 -0.38444456 -0.6208656 0.3171513 -0.3241808 0.519418 -0.3548035 -2.1295576 -0.5749409 0.0021092808 1.9890821 0.75452447 -0.78625715 -0.24209444 0.0021488096 -0.8344229 1.8126262 0.88604176 -0.14873394 0.54694766 0.09748884 0.29434758 -0.8114486 -0.14336978 -0.63705695 -0.088997185 0.3438242 3.2346382 1.0331305 1.139629 -1.0655996 -1.4586352 -0.93639493 1.3027803 -1.141323 0.113573 -1.6702145 1.9396367 -0.009762284 -1.5277532 -0.32183275 0.42794833 0.87626314 -0.2889646 -0.23789021 0.26009756 0.06953017 -1.0719 -1.0482321 0.4279191 1.0003345 0.8764113
A_796 0.5469224 -0.3165872 0.771808 -0.7949105 -0.86775976 2.6671736 0.34776032 -0.6437193 0.3984546 -0.6893685 -0.13083293 0.4002439 -0.26508245 -0.6948157 -0.76930624 -1.2670298 -0.16859818 0.74440295 -0.19053672 -0.7084666 -0.51289225 -0.34071854 0.09051126 1.158934 0.114026956 0.6671517 0.040844046 0.053967677 0.35335732 0.90411836 -0.5306965 -0.18447968 0.17447333 -0.3066277 -1.3841255 -0.32907903 -1.735005 0.7351772 1.1068312 0.10489904 0.8063352 0.3336578 0.8683179 1.0279583 -0.46945664 -0.8728537 0.097363845 0.2890882 2.139661 -0.73490435 -0.35559565 -0.2039164 1.2263865 0.60069346 -0.12914105 -1.1160574 0.2584834 -1.4463716 0.22191642 0.21289676 0.79236335 -0.03223538 -0.1432742 -0.7685099 -0.065951824 1.1053714 -0.5340988 0.13516371 -0.22153588 -0.25887004 0.73426205 3.2376707 -1.2438412 -0.16579245 1.4621241 -4.144751 -0.23403415 0.14467694 -1.8853679 -0.44299024 1.6133304 -0.7411835 -1.5109236 -0.966867 -1.9122093 -0.66978276 -0.19622031 1.9341018 0.616484 -0.3284782 0.17253841 1.4544288 0.050486773 0.8773918 1.0584849 1.413334 2.403403 1.632491 -0.85525614 0.09351144
A_1128 0.040187757 0.3852571 -2.4973059 -1.564361 1.232243 4.2400537 0.38158888 0.5454787 -0.0029620489 0.8920186 1.1782402 2.0006418 -0.58597803 -1.4385684 0.076430246 0.042931795 -1.3254793 -0.13436641 1.3221222 2.7253504 -0.8260207 -1.1823348 0.27073225 0.6718526 0.48996547 1.801731 -0.6650761 -2.2813144 0.6452061 -0.23126118 1.7916191 0.15210924 0.4577187 0.34123972 2.283264 1.2617452 1.9101712 2.6972752 0.046716858 0.353422 -1.4592627 -0.73037386 0.47100878 0.45466506 0.05126362 0.95728064 0.5356273 0.6244001 -0.93732375 -1.0449902 0.13261479 0.80090153 0.3405105 0.3987019 1.7803345 0.21470799 3.5194993 0.65578485 -4.6567574 0.8716972 1.4981185 0.24442483 0.99627715 0.10147651 -1.4505746 -2.2665226 1.2698091 0.7503234 -1.1556369 0.58152705 1.227443 1.019142 -0.09481933 3.4423027 -0.2809064 -1.4846082 -0.8557294 0.55759823 0.94274557 -0.9273888 -0.6969079 0.630161 2.9662254 1.2002131 -0.5807988 -0.039231442 0.05907362 1.3265196 1.4325349 0.44870788 2.2775102 -1.277533 2.2988899 3.3897533 -2.034119 3.3974388 -2.1217773 -0.86182636 1.1413339 0.62124294
A_1111 1.1415279 0.07414402 0.29305878 -1.7983167 1.0067408 -0.630556 2.1746812 -1.0817491 -0.59711206 0.4217437 1.0367627 0.01138513 -0.10567279 0.15571862 0.94092673 -1.2699431 -0.93589824 0.9255472 0.038983997 -0.39041385 0.8913412 -0.67737883 0.09248126 -2.7354848 1.0476185 0.2233561 -0.73340935 -1.9104925 0.5906845 -0.90753627 0.27346623 -0.3479346 0.1015082 0.09084181 0.48448732 1.2032496 0.048133798 0.06180664 2.533122 1.4874897 1.0890926 -1.28222 0.085829295 -0.74540335 2.1715398 0.5735679 0.2837453 0.19388458 -0.8706541 0.09422343 1.26793 1.8202816 0.022331912 1.1230433 0.5790106 0.7394336 1.6806048 -0.79530996 -1.6384333 -0.4340333 -1.7844036 1.5998396 -0.947293 -0.73500806 -1.4751338 0.9167662 0.47801566 0.85713464 -0.53349936 0.0055982326 1.2389523 1.701915 -1.425319 -0.49605328 -1.0647371 0.11658725 -1.0881376 0.7794363 1.5275689 -0.54964715 0.962075 0.27489004 0.35009232 0.59904677 1.7644761 0.51018065 -0.12945414 0.3210445 0.2026221 -0.74384916 1.3166107 0.6012754 0.8462785 1.9451516 -0.16840814 0.57145184 -0.05111495 -1.3301195 -0.3173139 -1.9933429
A_1937 -1.0511593 -0.92031634 0.5430859 0.9193639 0.013378906 0.5685511 0.036432352 -0.2454215 0.45160225 0.21425441 0.62876594 -1.1443864 -0.6085537 0.4320644 0.80531985 -2.1950662 -1.4263334 -0.5525926 -0.17440832 0.11985525 -1.4153392 0.5392051 -2.1543617 -0.059473217 1.3241761 2.4165795 0.67119926 0.2661639 -0.47742358 -0.2675948 -0.98905385 1.6045957 0.9361476 -1.5089309 0.42691705 -0.048691202 -2.113358 0.5474783 1.317051 0.46976808 0.030156923 -2.1682117 2.7545965 -1.8223915 -0.2567691 -1.1430227 -0.23266456 0.40304738 2.1570835 -0.29109412 0.6987095 1.0097455 -0.6117656 0.03305926 1.6000868 -1.8126478 -2.9912539 0.28969845 0.16931742 -1.449221 -1.3412653 1.9810714 -0.52183574 -0.53736323 0.22491707 0.6149328 -0.16808428 0.70346445 0.027890302 -0.2044912 0.9263874 0.7429942 -0.62817574 1.137405 0.82434744 -0.44608656 0.09431909 0.024113292 -3.3013651 0.48776057 0.9784015 -1.7253566 0.4203949 0.19933757 -3.2800524 -1.5898476 -0.22461255 1.5394922 -0.3455302 -0.9444503 1.8733345 1.4443674 -2.0547307 2.7803657 1.2182316 2.2577364 -1.1809444 0.11988755 -1.2058129 1.0973084
A_2002 -0.48566166 1.6471182 -2.0007923 0.9934978 0.98193085 0.6046702 -1.2815394 0.102249004 0.32327092 0.11401636 1.1489098 -0.83107436 0.64741856 0.43779862 -0.74886197 2.7874658 0.61421156 1.0751033 -0.87973243 0.17112584 -1.6112157 -0.4051523 -2.0805295 -0.075699665 0.39337838 0.5726005 -0.00071699877 1.3928691 -0.16215993 -1.3267841 -1.6908057 -0.5348602 -2.0363061 -1.2694322 0.058270343 -1.4038973 0.6584051 -2.0502193 0.40514046 0.67792296 1.017061 -1.4933332 -0.7501579 -0.017041609 0.43051285 0.97974 0.19539016 0.34476215 1.3997852 1.1638005 2.0337915 -0.93018126 0.64791924 0.039155487 -0.5139458 2.473877 -1.3282548 -1.1092869 -0.69974333 0.48877817 -1.7906966 -0.18282904 0.6623242 0.77744627 -0.6012794 1.0687776 1.309615 -2.3480074 -0.30548978 -1.6002347 0.20190205 0.5861921 -0.1815179 1.7924775 0.310817 -1.638584 -0.91168875 -0.95009494 0.82247597 1.03249 -1.9165752 0.9632476 2.371419 -0.07156355 -0.67120296 -0.08944379 0.8611184 0.29518738 -0.41482326 0.5960502 1.3752458 0.6288637 0.15309437 -0.25456926 0.47170523 0.8614658 -0.39893645 0.876958 -1.297882 0.08577657
A_1979 0.2983214 0.61967486 0.6427312 0.9603502 0.39039838 -0.71965474 -0.07111928 -0.13624802 -0.42355517 1.020676 0.14475961 0.6610706 0.16759546 0.31424537 -0.19366243 0.7391669 0.17927723 0.4364842 0.9169041 -0.41474965 0.10563014 0.27620286 -0.71023375 -0.06604628 -0.5788476 -0.42558864 0.28813922 0.31198102 -0.44212115 -1.0366938 0.025673464 0.13727002 -0.65655845 -0.5989724 0.38928252 0.019261302 -0.02147045 0.12356058 -0.35866758 0.78278166 0.8592092 -0.0053699273 0.46046296 -0.50620246 -0.15670532 -0.2279504 -0.7250065 0.54304224 0.4316584 -0.16285774 0.54893595 1.2814109 -0.870605 -0.022631561 -0.05535652 -0.81021214 -0.13479392 -0.36844897 0.84418285 -0.38035792 -0.783501 0.21252857 0.8453925 -0.06827272 0.18373156 -0.14741744 0.46513504 0.33990216 -0.3270434 0.50533015 0.6555987 -0.9929048 0.42852098 -0.045387596 -0.05476772 -0.35619026 0.6316581 -0.16832933 -0.1958587 -0.077593885 -0.15608191 -0.22385448 -0.13015887 -0.012613862 -0.17000514 0.67715675 0.15726197 0.52312803 -0.6486123 -0.50031483 0.10412303 0.27885735 0.53760767 -0.36686417 0.072897956 0.026500931 -0.17276497 0.026164135 0.037924092 0.19534528
A_802 0.4522176 -0.8013832 0.8691465 -1.1022638 0.049895164 2.1772263 -0.41285735 -1.9890032 -0.25909922 -1.7877508 0.68070936 -0.015938621 1.4895833 -2.4841764 0.19648236 -1.0838809 1.5227693 -0.36338767 0.3232217 -0.45893356 1.2742827 -0.69667995 -1.3050168 0.42613465 1.0029589 -0.053846285 0.739262 1.3390989 -0.040728472 -0.29225212 0.76037437 0.5160243 1.7631202 -2.1173372 -1.3364941 0.53156173 -0.5082903 0.11520087 1.2011797 -0.6895901 0.07936429 0.9996154 0.57049185 -0.6763603 0.46815148 -2.4789777 -0.425565 0.46512315 1.2851796 0.13029341 0.13605613 0.23881806 0.7901606 1.2554436 -1.235761 -0.60132426 -0.51078206 -1.6206849 0.3673688 -0.5871428 -0.13992068 2.5557098 -0.1500117 0.019335313 0.7567308 -0.6964878 -1.1834637 -0.9120376 0.9957809 -0.95293826 1.0700449 2.1131268 0.36500165 1.4191273 0.8307033 -0.75352216 -0.1284119 -0.111522675 -2.1198528 0.14804457 0.3575515 -0.9313821 -1.0977126 -1.2398297 -0.86048496 0.2454746 1.2339392 1.9251245 -0.2993242 -0.55020297 1.1834131 0.69371235 -0.30780855 -1.9320565 0.109316766 0.8485718 -1.2199578 1.2894667 -0.24498588 -0.40165773
A_1020 0.65686125 -1.0109402 0.6067334 -1.0438937 -0.65810144 2.3626344 1.0439277 0.70580596 0.3635388 -0.32452983 0.748582 -0.97079796 -0.8816578 0.9245763 -1.3253645 -0.62622637 -0.61018103 -1.6594304 -0.05564254 0.95370615 2.275213 -0.75951844 1.2944071 0.13162692 1.4240605 2.3237164 -2.0336945 0.82281864 0.34038156 0.6375349 2.6591165 -1.0228989 0.4261097 -0.6314053 1.435866 0.5447104 0.3775546 1.6125851 2.1404889 -0.02238588 -1.1473523 -0.36201286 -2.18 0.49122345 -1.1017829 1.228335 -1.7131462 0.21931155 1.4666708 0.04419096 -2.6200151 0.112046696 1.5247695 2.6202886 0.45621485 1.627437 1.0897549 -0.6400174 -1.6381868 0.7575368 -0.09353799 0.82406664 -1.467067 -0.14675365 -0.6913315 -1.4396852 -1.4820038 0.6335374 -2.3307078 -0.37532985 -0.09437877 3.0760303 -2.5340369 0.50798345 2.9792616 -1.5729525 1.5882357 0.65748304 -0.31405374 -0.13335732 -0.32176995 -0.3566248 0.33142626 -0.57028604 1.699076 -1.2778131 -1.4480605 0.96091473 1.395362 0.6238206 -1.1645625 -0.84549665 1.8235198 -0.8038721 1.2642045 0.6320087 2.5581486 -0.5561641 1.7154499 -0.9302274
A_644 1.6747651 0.68339384 -1.0122453 1.82599 0.31825683 -1.164877 -0.49362224 0.74179626 1.023401 -0.6070019 -0.4769184 1.4004318 -1.2892491 -1.6578689 -0.44720617 -0.40875348 0.5218974 -0.016683927 2.6265311 -1.5227484 -0.11806729 -0.2822312 0.2964989 -1.9994286 -0.34016156 -1.3183566 -0.70893717 -0.078016706 0.5985136 -1.3520433 1.2354734 1.976648 -1.2037487 -1.0916708 -1.0522809 -0.19010939 2.8836563 -0.21197063 -0.54640687 -0.988779 0.9613961 -0.86821663 -0.22006376 0.16600701 0.9882772 0.022806846 -0.46003473 -0.14938992 -2.6498897 2.495709 1.647418 1.0205477 -1.2045072 -2.1009808 0.17760532 1.6002343 2.1401746 -0.02357397 -0.89063495 0.6965516 -0.30899292 -0.062393893 0.26533026 1.2249553 -0.330882 -1.1578044 -0.8153163 0.6507893 -1.1372193 0.41908637 -0.6200464 1.5588828 -0.4091219 0.10674074 -1.5572237 -1.0941255 -1.2596775 -0.37155962 2.9729652 0.59402174 -0.47621337 0.98581004 0.089854814 1.1102223 0.110172346 -0.5262314 -0.6968435 0.4777338 0.05877442 -1.4469875 1.3460864 -1.5167146 1.109108 -1.5759234 -1.5598505 4.2686114 1.5078641 1.281231 -1.0712222 0.9909722
A_1158 -0.517163 -1.9946512 1.1884904 1.7669066 2.4429064 -1.649181 -0.12259994 0.068751864 -0.7656072 3.2725601 0.20333503 -0.92629135 2.7041547 2.0888488 0.31091675 -3.3555162 -0.8172599 0.31899837 0.63811636 -1.8743083 -0.45180556 0.07409478 -1.5396014 -1.9447882 1.6565057 2.4096367 -0.2960052 -2.4972851 -0.2142933 0.62633026 0.16995542 -2.6520271 -0.16726267 -1.1926531 -0.7974168 -0.9140033 0.31085977 1.5160631 -0.20100819 -0.885774 0.54883474 -4.489642 1.1872622 1.1923058 -0.48640922 -1.1705602 0.9405986 3.4697013 -0.0151933 0.10686352 -0.9874848 -1.5308642 -2.3558838 0.68471766 2.5491054 0.076805644 -1.6684946 -1.5881277 1.5014186 0.33631012 0.99244183 1.6296827 -2.3263228 -1.8761774 -0.8356154 1.9155047 -1.0089574 0.7484993 1.2365298 1.5616797 3.0100038 1.4450114 -0.7038573 -1.0910974 -0.818794 -0.57936674 0.33566394 -1.3646843 0.81509155 -0.7280693 -1.0668868 0.14512827 1.7269204 -0.30985248 -1.0203006 0.52840066 0.93589735 2.4668016 -1.556844 -2.5528646 0.28306848 -0.2789487 0.772613 -2.0688562 -0.19567053 -2.6129858 -0.025554273 1.0069586 -1.4542295 1.165599
A_778 -0.90848 -1.1392763 -0.78125507 -0.1348621 -2.0733163 1.1684471 -0.045684654 0.006620629 0.8540738 0.08951633 0.38969836 -0.1463898 1.0330883 -0.17158397 0.67656434 -2.4400957 0.39525548 -0.57042575 0.75512105 1.1684371 0.56676215 0.6665241 -0.4416518 1.4601852 1.3629178 0.81379277 0.032848686 0.6941281 0.4902395 0.5486762 0.19854745 -0.14947042 1.4666268 -2.5562468 0.8045905 1.150341 -1.9327631 -0.12002419 -0.2941952 0.8764181 0.9320774 -2.0738184 -0.17059876 1.2304634 -0.81084925 -0.98077685 -0.5184026 -0.7507094 2.6001608 1.2625489 0.6930448 2.1709511 1.4509144 0.6862906 0.2622151 -0.097293794 0.8014278 -1.4176807 1.4459676 0.3760508 -0.1853088 0.33958775 0.5758274 1.5042231 2.2466702 0.72142804 0.154277 0.3757326 1.7039093 0.07975826 0.615904 1.8272058 -0.32612592 -0.6432904 0.93415046 -1.827316 -1.5796442 -0.9687017 -0.5720697 1.3209082 0.7998203 0.6082548 -0.50755 -1.8116672 -2.1942737 -0.78064877 0.8603261 0.8731041 0.6881025 -2.0420985 0.8178566 0.836661 -0.59473795 0.68227774 -0.21830238 1.0640633 0.76602226 -0.5989074 -0.78790075 -0.029810542
A_719 -0.29672098 -0.01497542 0.5898162 1.31 0.0039894525 -0.50637394 -0.8367935 -0.44352898 -0.4717764 1.0393261 -0.015760573 0.5780283 0.6616073 1.4117478 -0.20756939 -0.06991389 0.7715142 1.052914 -0.6084539 0.7430723 0.45862618 -0.11475067 -0.23765011 0.1289073 0.9390622 -0.23659122 -0.012050276 -0.82020193 0.16213734 -0.15042889 -0.14671311 0.16164407 0.6969879 -1.0016415 1.1281295 0.16156599 -1.2116464 0.5886194 -0.7742476 0.79673904 0.9374175 0.017851269 -0.4942032 -0.3196754 -0.1391029 -0.9587548 -1.4169469 1.1080371 0.2500268 0.08038508 0.40864158 1.044177 -0.14686307 -0.948806 0.020059524 0.120756716 -0.29416835 0.39887 0.5812107 0.8106351 -0.6358838 0.61328006 0.24990678 -0.88896525 0.4894387 -0.45995438 0.30401656 -0.43749315 0.23345234 0.05820354 0.9875025 -1.0928279 -0.42720786 -0.7118586 -0.029688362 -0.81191814 0.4471426 0.30550703 -0.9735215 -0.24050818 0.17679584 -1.076373 -0.16792727 0.77510095 0.39987358 0.18942606 0.091402225 0.8969616 -0.028125565 -0.08086787 0.9344657 -0.62874085 -0.3085323 0.9572523 -0.45623288 -0.78895587 -0.36159095 0.9546002 -0.42369145 0.13636246
A_1121 -0.93319875 -0.27780074 0.83550906 -1.5139036 -0.8139391 2.014016 0.27944157 1.2327347 0.9014445 -0.7705452 -0.50452936 -0.30496606 1.0541958 -2.6521008 -0.5451468 -2.5601661 0.76631624 -1.3011307 -0.83847094 -1.3650086 -1.2430512 -0.06350318 0.71788454 -1.6773281 1.3114333 0.8720658 -0.22162586 -0.71974075 0.98516047 2.461764 0.2386364 -0.28242904 2.3253276 2.1389399 -1.4059689 -0.7989686 -2.5083675 -0.31396407 -0.056068666 -2.587012 -0.77989674 -1.0003837 -0.23939855 2.1253004 -1.6039512 -0.41864395 -0.57559806 -0.70221114 1.5508996 0.35885143 1.1292361 0.89756835 1.0144818 1.1904852 -1.8777778 0.7596254 -0.37299332 -0.2257283 -0.13733679 -0.884126 0.4156403 -0.20458736 -0.39096844 -1.5183553 0.73937243 0.48950776 1.1054053 -0.63850784 -0.48307768 -1.6340511 -0.23342212 1.532233 -0.7808647 1.4364562 1.5112631 -0.8735126 1.1238635 0.40258172 0.9370441 1.7466403 -0.48120108 -0.02145484 0.16646168 0.3027129 0.8258462 0.38235754 1.9750261 1.7245531 0.25545105 -1.939085 -0.226989 0.13869804 -1.6998081 0.05388295 1.5926073 -0.50730014 1.2688241 -3.56889 0.52188885 -0.10821395
A_1138 -1.794778 0.14101055 0.6125216 0.18814477 0.5012343 2.047104 1.1988056 0.3505197 -0.8846584 0.29572913 3.447937 0.47693336 -2.2669764 1.5902932 0.63061786 -3.2165098 0.31630036 0.19965987 2.1151378 -0.79598373 -0.18707052 -0.444323 -0.94271535 -1.0185493 0.802022 3.0572286 -0.24882285 0.8291186 0.9792231 -1.2050397 0.5558358 1.593928 -0.12427033 -1.3615707 -0.37323222 0.40267685 0.75054616 1.0174314 0.93083256 -3.5369296 0.02687932 -1.2475953 -1.3959162 -0.44748536 -1.299457 -1.323958 -0.39767256 1.2072341 -0.1432389 -2.046078 -0.89773226 -0.15099397 3.085649 -2.9964287 -0.15872595 1.4789152 -0.24780017 0.32704452 -0.56330746 0.42356858 0.61651385 0.60063916 1.1369314 -0.81701237 -0.29002467 -1.4777794 0.008181218 -0.9686636 1.8571539 0.8379889 -0.18339032 -0.98142797 -1.3671594 0.8719694 -0.5983649 0.593752 -0.5781134 -0.34143832 -0.97283685 -0.57755077 -0.47198185 0.051165085 1.0091302 2.1587522 -0.4166868 1.5716809 0.28346714 -1.0369384 -0.61441064 -0.82482535 0.03748782 -1.4501606 -1.3398931 0.02849771 -0.3303715 1.2766098 1.6315217 0.14212702 -1.7241694 -1.3471696
A_178 2.0344837 2.5324032 -0.2621095 -2.102116 -0.73627365 -0.6968252 -0.124887615 0.87082124 0.5908488 -0.14598192 -0.5597107 -1.3763787 0.21148236 1.9280053 -0.6035207 -0.19364585 -0.32840514 1.1077539 2.8768723 -0.313041 -0.5432274 -1.103585 -0.17934722 -0.6958599 0.7192874 0.0007010224 0.79867655 1.3370173 2.380793 -0.77476054 -3.4692466 1.0050967 -0.7233176 -1.714695 0.16893852 -1.1878124 1.6523051 -1.1522235 0.31844887 -0.1270358 0.086137 0.23695943 1.5876021 1.224779 2.565298 1.135033 0.51977897 0.19713482 -1.8084856 1.8407927 1.7282244 0.57626534 -0.1482128 0.43445283 -0.3281295 -1.7513224 -0.07649144 0.21933916 2.4938734 -1.2718813 -1.8211821 1.1510384 0.83487636 -0.3757104 1.9662132 0.29535443 -1.108598 1.3611662 0.5720381 -0.2494483 0.10145717 -2.5059304 2.033769 1.1031215 -0.7858608 1.7224904 3.0101998 -1.0610988 1.3903121 -0.094757795 1.3003433 -1.6870849 2.5584862 -0.3079854 -0.8612728 -0.66479224 -1.3630636 -0.24780357 -2.8072133 1.2938834 -0.31997517 -2.059195 0.17261656 0.84545094 1.15671 0.34931132 -1.1683643 1.235399 -0.059276916 -0.46409923
A_1213 -0.005159009 -0.60989565 -0.6684823 -1.896345 -0.6095307 0.74779254 1.0090305 0.56663364 -0.29063383 -1.4133736 0.44941017 -0.87213945 -0.059192598 -0.48101705 0.7884349 -2.6268268 -0.1933234 -1.6559075 -0.56931084 0.5228459 -0.48607996 1.3702271 0.61830693 0.3686597 0.91158175 2.0200543 -0.17032094 0.95778364 -0.35304984 1.1516774 1.7764134 -0.22886895 -0.72778386 1.0269482 -0.77621055 -1.9479285 0.8326013 -0.015379736 1.422155 -1.3123423 -0.027655404 1.4951775 -1.153553 1.0982069 -0.74207777 0.4852609 0.7824807 -0.45589063 -0.38420182 0.15563221 0.06873946 -0.9429789 0.37313655 2.0817893 -0.67249763 1.8372729 0.0865375 0.24797097 -0.7220388 0.1902442 2.191169 -1.2049152 -1.0764474 0.62098885 0.61408293 0.1996142 0.49467018 1.1615466 -0.5901666 -0.33796924 -0.0071333097 2.8789551 -0.002651702 0.29205582 1.8379542 -2.236305 -2.7598386 0.7788172 -0.40752977 0.7097891 1.1044017 0.76286215 -0.88052756 -0.35139972 1.3579684 -1.3038166 0.41607204 0.5182783 1.7102637 -0.6015014 2.531686 0.007848882 -0.9875969 -0.9352981 0.69646925 -1.9464334 0.85365623 -1.8607929 -0.7124139 0.9964231
A_1120 1.0580827 -1.2713273 0.1593766 -3.0348716 -1.8320327 2.7289243 2.8533192 -2.2276928 -0.53102994 -0.1230202 -1.8955103 -1.30426 0.17572859 0.57427096 0.14961742 -2.9853046 -1.5319387 -1.3920873 0.16273104 2.0797508 0.116591774 0.18757111 -0.70096815 -0.07799268 -0.89146346 3.0181062 2.3257947 0.84368044 -0.15310359 1.0461314 0.31074622 1.7349517 -0.92089564 -0.539519 0.8092793 0.12575352 -0.89222604 1.260561 0.21190986 -0.7564706 -0.8119178 0.08630198 0.05904932 -1.0897629 -2.1578302 -0.56645703 1.2796317 0.7062415 0.6441034 -0.28701004 -0.7664474 -0.9795665 0.70211285 0.50281477 -1.2385325 0.90052116 0.3814465 -0.27023107 0.15363424 0.0595471 0.3671347 0.57740587 0.23738408 0.6901962 -0.92791206 0.4849215 0.14793395 0.6137711 -0.609416 0.7321691 0.08549427 1.2654932 0.58067334 0.54500717 1.4575714 -0.20692852 -1.3370516 -0.32223853 1.3531475 -1.2201625 1.5122598 0.012549521 -0.6154873 -1.204907 -0.077477284 -2.3905566 1.1469848 -1.5838634 0.7588349 0.36376312 1.0128182 0.57593215 0.6678084 -2.3789728 -0.23201168 0.7263446 1.9841934 1.2297996 0.6524817 1.6535374
A_1286 -0.5734606 -0.905338 1.6918461 0.35149062 -1.065579 -0.21391189 1.142851 -0.28046602 -1.2892677 -0.38131973 -1.263874 -1.5608189 -1.392926 1.803261 -0.22723916 -1.8907994 0.7390412 1.7387434 -0.8169514 -1.5163059 -2.3659947 0.47538066 -1.375946 -0.27670038 0.56866425 2.647647 1.868126 1.5717543 0.86800015 -0.73217404 -1.500764 0.09196535 2.5628781 -0.22463587 0.1778058 1.4058995 -2.7793097 -2.0303934 -0.6464684 1.3483882 3.4400046 -2.7186375 -1.837693 -2.4792068 1.2487793 -2.2365406 -2.0216322 -0.96794605 -2.146338 1.371441 -0.16427359 1.7830454 -0.80956304 1.8689402 1.7876383 0.63393235 -0.970069 -0.77389795 -1.7824495 0.25373593 2.2562885 1.7465155 0.8522957 -2.3060741 -1.7326138 2.9468246 0.31470564 -1.3581781 0.34750462 0.51046807 1.2069044 -0.5966956 -1.0523173 0.011283465 0.05695288 -1.2841072 -2.3856006 2.158749 -2.2682068 1.7420696 0.74768823 -2.6144462 -0.80567604 1.9127355 -0.4086047 0.18548524 -1.5809679 -0.7333649 -0.9435634 -1.9689584 0.4496629 -0.5837126 -0.81728745 -1.5558201 0.5836671 1.3165431 -0.75781465 -0.9801476 1.1983577 -1.7800401
A_877 0.054324996 -0.07982115 -0.22135296 -1.2176888 -2.0144067 1.1274956 1.2366323 0.3017954 -0.9705276 -0.8372095 -0.28808185 1.1400446 2.2844188 -1.1170354 1.732228 -2.156078 -0.49889728 -0.49196547 -2.7855797 1.6497087 1.9935716 -0.67297655 1.152374 -0.03128567 -0.664638 0.87279564 2.1568193 1.5444149 0.1698433 1.5961338 -0.24294445 0.5250277 0.6075136 -0.08800183 -0.5123289 -1.353514 0.45006016 0.3100349 0.55136704 -1.4137623 -1.0743041 -1.4053715 0.07321631 0.48233458 -1.7937175 -0.94663227 -0.12284589 -1.2208878 1.7897861 0.6035544 -1.8353415 0.5380609 0.9716348 -0.029770987 -1.199156 0.16631135 1.2440466 -0.93993366 -1.7391511 -1.3979841 0.0010298513 -1.5727326 -0.9716049 -0.3386118 0.46451786 0.7376508 -0.10723525 0.038637873 -0.73714405 -1.5951438 -0.18332835 1.9824895 0.33483145 -1.7721221 0.6059938 -0.7692234 -0.29045343 1.5438687 0.6256671 1.0602312 -0.011240914 -2.599051 -0.095125854 -0.75893235 -0.6228784 0.16792168 1.0541142 1.0102252 2.3310483 -2.116623 0.51953864 -0.4806898 -0.24885707 -1.3930153 -0.3344873 0.38748822 0.6680875 -0.7280337 -1.0860602 -0.3705589
A_797 -0.3551549 0.9406793 0.8874137 0.21064194 -2.1064618 2.928795 0.92049265 -0.5857484 -0.20866704 -0.117388666 0.81133187 -0.30304903 1.7191591 -0.5846296 -0.8070248 -2.0154135 -1.0638059 -0.08700066 -0.124401376 -1.7948439 0.6128746 0.5722876 -0.85769826 -0.20950371 -0.21041079 0.7984114 0.019468162 1.1587098 -0.5294652 1.5906878 0.33583474 0.35400006 2.299663 -2.2526624 1.0177938 -0.13289663 -0.92657393 1.0482646 1.2060533 1.2379649 -0.36212802 0.14771637 -0.25194666 -0.52856934 -1.5459155 -1.4276073 -0.6123978 -0.6619838 1.3019762 0.36834434 0.88788354 -0.5529926 1.1029774 0.6177362 0.5959167 -0.11603236 -0.26981583 -1.6166459 -0.5337922 -1.3716217 -0.93580115 0.27929467 -1.4220684 0.54120326 1.0109904 1.1539286 -0.36947656 0.2697361 0.5137986 0.03702516 -0.46797636 1.8830006 -0.09702395 -0.31295696 0.12172772 -2.5854645 0.23765972 -0.4698509 -1.8433936 0.55255896 2.1901753 0.4746911 -1.4401425 -0.5969734 -1.418943 -1.4357278 0.5381377 1.5012149 -0.5989145 -1.4972315 0.66866976 0.3660756 -0.51154584 -0.1896023 2.4484477 0.9815302 -1.4843531 0.7382893 0.14249879 0.94616765
A_757 -1.4831401 -0.28635654 0.26590368 0.027122317 -0.3957433 1.5579741 0.58342063 -0.7899744 -0.78472036 -0.50695366 0.5363919 0.06653808 -0.8310539 -0.0566817 -0.38747662 -2.4410734 -1.6703029 -0.60279214 -1.3775462 -1.9179392 0.9098711 -0.60762376 -0.4447013 -0.45911145 -0.08010507 0.5169224 -0.15243359 0.21809462 -0.9974271 0.2240353 1.0165254 -0.48456237 2.5931194 -2.0844147 -1.2814975 -0.07465511 -0.8359707 2.7831497 0.22618824 -0.03515846 0.43656474 0.104638495 0.90722436 -0.89483213 -1.1782417 -0.57758516 1.0513793 -1.5079913 2.7655687 -0.7599957 -0.6982982 2.2350907 -0.051473875 1.4711343 -0.31735507 -0.14783198 0.5283516 0.25378883 -0.3203493 -0.038361505 -1.0798155 0.85538656 0.7046172 0.34632534 1.6286932 0.72546923 -1.1763742 -1.1439263 1.2262752 -0.4529245 0.10809153 2.2428913 -0.21081002 0.41731384 1.101115 -1.5892491 -0.5824514 -0.29226208 -1.776007 -0.36001232 0.13016719 -1.3741665 -1.0872893 0.2498341 -0.45252678 -1.8282206 0.5337218 1.1417731 -0.08128529 -0.5648457 1.7389498 0.53399557 0.29876065 -0.25733393 0.708982 0.82272553 0.6385601 -0.3844015 -1.3406028 -0.115217924
A_35 -1.9565369 0.80537593 1.1119624 0.012944696 2.0430033 1.5162685 0.651405 -2.2014449 -0.014896685 0.82782835 1.8326949 -0.16510831 -1.8492955 -0.633556 -0.08429593 -0.034974806 0.6080398 -0.69545835 1.5391501 0.46496812 0.78493696 -1.8765446 -1.9019216 -2.4944494 1.0790484 -1.5508167 -1.3490251 -0.29361236 1.5783077 2.2550356 2.791456 1.5606614 -1.2170372 0.38517112 1.9745574 1.3254939 0.059711546 1.0979522 1.0858353 -0.64428216 0.23389725 -0.99404067 0.74020344 -0.9925638 1.1256676 3.1755419 -0.9910278 1.0780634 -0.14050315 -0.56923527 2.4705768 1.2777054 2.2217393 -0.27327892 -1.4972872 2.054649 1.1214514 0.96672285 -0.3527455 0.97653645 0.20014627 1.2820979 0.54835653 -0.67967594 -1.1966822 -0.059257753 -3.336151 1.9068487 0.3543311 -2.258012 -1.557932 0.51952434 -2.3208582 1.1506286 -0.80163574 -2.916296 -0.17107883 0.288229 1.0382802 -3.9521677 -0.49733916 -1.218469 1.7347054 -2.707666 1.5332687 0.60991096 -2.2734315 -2.3657215 2.51533 -1.0692527 -2.0265162 -0.8824565 -0.97622293 -0.8141652 -0.78143543 2.4197984 -0.50367624 -0.56354535 1.2661093 -1.3228651
A_800 -0.7282847 1.1610094 0.49361652 0.23206894 -1.3687025 2.498335 -0.11233559 -0.40784162 0.86906123 0.8505363 -1.1903131 1.1849227 -0.35984018 -0.2826878 1.9500973 -2.0660315 -0.9427579 -0.8914845 -1.1029357 -1.0600551 -1.1760954 0.4386131 -0.22273844 1.6227885 -1.6403341 0.7590846 -0.19436309 0.8685643 -0.6729833 -0.42068025 -1.2894789 -0.84500104 0.5025111 -1.373349 -1.4325444 -0.3660464 -1.5484158 2.8593538 1.7111176 0.6745117 -1.516134 -2.123254 0.50980437 -1.3557941 -1.8099407 0.6750151 0.3538399 0.9512279 2.2738461 -0.8448808 -0.2224617 1.6553243 0.01656104 0.9643371 -0.01068039 2.236156 0.70177287 -0.6308209 0.90213174 -0.17164563 -0.40958405 -1.913579 -0.2364662 -0.89842284 -0.43833068 1.806662 -0.11192961 1.5985389 1.929046 -1.4614435 -0.62480694 -0.6387125 -0.046417344 -1.3359722 -0.24459401 -1.9137185 -0.43879113 1.7658693 -1.9927342 -0.54272777 1.3594887 0.17716953 -1.5247374 0.44167924 -0.1721637 0.122062534 0.5421215 2.0240333 -1.2962669 -1.1582566 -0.56773347 0.72940916 -0.74271923 1.0954342 1.837826 0.44822526 1.97554 0.11319517 0.85750425 -0.24992916
A_1634 -1.3155664 0.65418303 -1.2506058 0.16698734 0.99428195 0.97067595 -0.92032474 0.882176 1.525933 -1.2017899 -1.9839802 -0.009772708 0.5011258 -0.45588297 0.7959272 0.65322375 -1.063462 0.20366448 0.18361722 0.9652007 -0.37015164 -0.46284828 -1.0091425 -0.49890026 -0.78454715 -0.7510401 1.2514867 -0.5451835 0.36019272 -0.6224721 2.0926368 -0.08308817 -1.6565788 -0.6437859 0.4352383 -1.0731184 0.45810723 -1.2274643 -0.36118028 0.5271928 0.07736001 0.5688366 -0.87868583 0.34076843 -0.49348584 1.303197 1.3741387 -1.1184874 -2.8768117 0.21425986 0.3463658 -0.69004136 -0.7259773 -2.1872962 0.39261395 1.3474985 -0.3967382 -0.3841099 -1.6665134 0.5698917 -1.0034555 -1.9332551 -0.204981 -0.685738 -0.7423931 -0.14710574 2.2055101 -0.44621342 -0.7164875 -0.009124912 -0.23007073 0.10556743 -1.7015014 0.21693407 -0.75126296 -1.2222397 -0.6179776 -0.03620845 1.3724054 -0.6045121 -1.8120958 0.5850199 1.5550237 0.66451097 1.4961746 -0.34215528 -1.0571685 -0.17224406 0.07562329 0.83136266 -1.0014254 0.56781673 0.40664476 -0.5244713 -1.8107044 0.90722525 -0.21293175 -0.48689136 -0.9541178 -1.2197444
A_2028 1.0480227 0.9164929 0.99554056 0.61930937 -0.27696723 0.56356364 1.7988807 0.41489464 0.31793714 -0.5792111 0.69220024 -0.3460499 -1.4060506 0.33205882 -0.46502966 -0.8800695 1.1068848 -0.78356135 0.6985348 1.141773 -0.1745748 -0.34638718 -1.463244 0.7517121 0.64259535 1.3840158 0.0018488929 -0.67767525 -1.2787938 -0.44234186 -0.55971384 -1.9270687 0.5108364 0.19755267 -0.2820834 1.4055952 -0.33371753 -0.54519576 1.767476 0.37824044 0.8354572 0.10918169 1.599062 -0.98514014 -0.6923966 -0.9986814 1.5283146 -1.0658634 -0.2033637 -1.223042 0.6883109 0.8978149 0.55473655 -0.6997068 0.15850845 -1.1981344 -1.3203626 -1.019026 0.6081614 -0.74862397 -1.3844151 -0.73776174 -0.64244026 -0.7808238 1.4347657 1.4563717 -1.3428348 -0.40396345 2.7710516 0.82499164 -0.056649797 0.1286243 -1.6923113 -0.5139083 0.2850622 1.11645 -0.33195654 -0.03448568 -2.2995827 0.54148036 -0.31165957 -0.46363795 -1.4696074 -0.16195191 -1.4143598 0.5737271 0.62913674 0.16675305 0.4473983 -0.09901518 0.49374816 -0.8397436 0.17022245 0.10356915 0.30005962 0.17146726 -0.6442357 -0.1617274 -0.4402848 1.0265509
A_68 1.1122857 -0.7010512 0.3836548 -0.410809 -1.3801275 -0.335746 -0.48392826 3.030303 -1.5482643 2.471718 0.7298215 -1.6118699 0.02179576 0.4323533 1.2056181 1.1397512 0.21246384 -0.19010797 0.37158933 -2.226265 0.31672588 -0.40845978 -0.2865107 0.93290806 0.13932128 0.1584438 -1.9013062 -1.2639123 -0.15570381 0.5131641 -1.2286766 -0.09225075 0.9277263 -0.6383057 -0.071188316 -1.0873992 0.96820515 -1.8855519 -0.9376265 -0.14437 0.3884697 -1.3229423 0.37159097 0.08597098 1.1336963 0.4747561 -2.3524318 -0.86111367 -1.3688817 0.59249085 -0.15740108 -1.8136091 -0.7531285 -0.89882195 0.06625536 1.1840546 -0.80425274 -0.2755269 0.7884208 -1.3192523 -1.0571365 -1.2484833 1.1218554 -2.0082026 0.036535334 0.12532295 1.3630232 1.0542119 -0.01549851 1.602875 1.1799334 -1.1411127 -0.26323417 1.194139 -0.6158768 1.765761 0.47670978 -1.8370091 0.66186744 1.1644181 1.2587215 -1.8635224 0.68804216 2.0573604 1.5122671 0.21500191 -1.6695551 -0.38763803 1.185787 -1.9844397 1.5067469 -1.1627848 0.6603633 -2.1737447 0.23433624 -1.1648263 -0.7893043 1.227661 1.0633528 0.7515176
A_1885 -0.08544353 0.2977097 1.0618498 0.7419688 1.021174 -0.92395186 -0.68805885 -0.6851406 -0.7014159 0.71109664 -0.17742676 -0.12725584 -0.38372007 0.71916395 -0.004911105 0.5533551 0.5360463 -0.3377803 1.6509229 -0.15650031 0.6502489 -0.34296963 0.2441101 0.611696 -0.72477984 -1.6048003 -0.659801 -0.59501463 0.1909527 0.1009222 0.93004316 0.023796955 0.54381394 -0.6972854 0.18526395 0.54364926 -0.35574627 0.001039872 0.16807541 -0.048201848 1.0934204 1.2586858 0.29105362 -0.5277168 0.52301705 -0.3807554 0.08958148 1.271389 -1.1233602 -0.1353332 0.04521866 1.3601375 0.15063535 0.3883097 0.6807965 -0.48537263 -0.37237722 0.2497475 1.0819521 0.10713348 -0.4574811 0.24928223 0.9576201 0.71255106 -1.0244845 0.49045485 -0.025661474 -0.6109353 1.3894117 0.8518077 -0.28114703 -1.2454431 0.9883112 0.07534901 -0.96706194 0.9223146 -0.53117806 -0.48185325 -1.6036555 -0.51324344 0.1243343 0.24247713 -0.15937315 0.63071173 -1.3590145 0.97905266 0.046719816 0.7918591 -0.10233835 -0.038188238 -0.5566565 0.4476446 -0.63312393 1.0811546 0.18593855 -0.37751916 0.28930694 1.1189927 -0.16848032 -0.18264827
A_1649 -0.7083522 -0.8946577 -0.19794229 0.57293415 1.3345861 -1.9267015 -1.3074266 -2.004204 1.4681424 0.9527583 0.6125212 0.053503595 -2.363626 -0.5580337 0.20459996 1.1900746 -0.37895036 1.3052032 -0.37156665 -0.3738294 0.59048164 -0.34842536 1.3004466 -0.33011574 0.018009406 -1.1241143 1.12308 1.4235727 -1.5743448 -0.032156307 -1.0661072 -0.7149502 -1.4874216 1.6380981 1.7175207 -1.3542229 1.0708363 -2.072992 -2.136072 0.39395526 -0.047288835 0.5129882 0.4942489 -0.5363457 0.30528507 0.77096605 -0.8497389 1.4982629 -3.2981372 0.69146216 0.72076094 0.35601687 -1.6603307 -2.0774667 -0.8589406 -1.6025635 -1.4162604 1.2477515 0.65176475 0.07604251 -1.8179114 -1.9532369 -0.5225297 1.4352679 -0.14339371 -0.7278624 2.2892218 -2.797294 -1.7131538 0.0072237873 1.0441278 -0.7681768 -0.37634224 -2.1124551 -0.59619904 1.0267223 0.31952116 -0.19153713 -0.53292906 0.53312933 -1.5141994 1.4271916 0.971858 -0.2752687 -0.20270701 0.26954752 -0.103649236 -1.2590723 0.827556 1.5269247 -1.7285484 0.79867756 -1.4506944 1.5811161 0.16143054 -0.40735644 0.66456157 0.35938504 -0.59291357 1.2904947
A_733 -0.71366215 0.51514614 -0.51075935 -2.9847412 2.8153222 2.0468009 0.29361823 1.1840281 0.41540667 0.24963212 1.0956851 -0.9130254 -0.7815811 -0.8213352 -1.4800782 -1.1268988 -0.9075894 0.48174027 0.37353608 1.0191135 0.99183303 -0.5228221 0.18011773 -0.050131764 -2.1286511 -2.0003417 -1.3782166 -1.5918297 0.77050686 -0.72233766 0.6097629 0.26736104 2.1913733 -0.03768273 0.7922005 0.75383854 2.9383159 1.4615096 1.0547022 -0.6723606 0.123614475 -0.6043928 1.1892976 0.6158171 -1.6915984 1.54587 -1.9088612 -0.60370576 -1.371168 0.9880525 1.1401334 0.5603263 0.5223728 -0.77327317 1.2138824 0.040782735 2.909097 1.5303698 -2.36464 1.4545319 -1.2556946 1.3494023 -1.1070116 -3.646841 -1.4019688 -1.5853597 2.1497483 1.8796707 -0.493848 -1.5680058 -1.6437854 1.5368358 -0.84721714 0.7751155 0.24729031 -2.4128597 -1.477323 -0.1723054 0.42229632 0.61577934 -0.4393117 0.8169908 1.3171396 0.011234355 -0.21549681 1.141041 -0.8552713 -1.5417585 -0.10946354 2.0457218 0.17934783 -2.857485 2.2051146 1.0575267 0.36527097 2.0918593 0.2919036 -1.1394207 -2.6531792 0.15721914
A_789 -0.7121892 -1.5193886 -1.1347795 -0.8688073 -1.1416993 0.22424911 -0.027803637 1.2692965 -0.8877231 0.37163112 0.3853732 -0.3836181 0.30138168 -1.9185319 0.8260507 -2.141237 -0.34647828 -0.989799 0.3791706 -0.82557446 -0.3489794 -0.4639384 -1.5875477 1.0475608 -0.0029180234 2.1473217 1.562061 1.505224 -0.2759392 1.6004422 0.07178926 -0.63794 1.7793345 -0.7095157 -0.9871616 0.1951083 -1.1465286 1.3160028 0.8603589 1.1574191 0.39206082 0.5940452 0.13805835 -0.47346917 -1.8403392 -2.1152437 -0.8046054 0.31260094 3.4857562 -1.5022434 0.047749538 0.72150224 0.6456318 1.5826272 1.7112999 -0.021899655 -1.1413153 -0.8453479 0.6541376 -0.8567202 0.06682653 1.1050994 -1.3966808 -0.48270878 1.0205446 1.2831055 -0.61343724 -0.7300952 2.2298827 -1.7900171 0.56361103 -0.6088159 1.6326619 -0.13613442 1.2721672 -0.9163229 0.6208055 -0.6279225 -1.9423131 0.34161133 1.5816121 -1.0637656 -1.4541408 -1.8851355 -0.8478694 -1.6053916 2.1999254 1.2124927 0.5661268 -2.0988433 2.3037844 1.105832 -0.88129705 0.059095666 -0.7944734 0.98066825 0.54202116 0.5047764 0.6991488 0.50706345
A_1149 1.4054619 -0.040729944 0.5579123 0.64783144 1.0901843 -0.4537603 3.4534848 -0.65545243 0.7895615 0.79827464 -1.489467 2.1254108 -0.20022948 2.3856552 0.66738075 -2.2422047 1.0564772 -0.81037295 -0.41795313 -0.9300732 -1.4336375 -0.95443565 -1.7778496 -3.548938 0.9891096 5.1036067 0.82069516 -0.85474116 0.07568403 -1.1071385 -0.05399985 -1.8556935 2.924377 -3.8458273 -2.470545 1.8140984 -1.8770831 -0.7255219 0.17632633 -0.1392944 -0.047732867 0.15221526 0.5335813 -0.105064735 -0.15650271 -3.6515553 -2.856659 -1.8190193 1.4860903 1.0790541 1.2886027 -0.10615087 1.7710446 -1.0532362 -0.5528287 -0.6461158 -2.9445155 1.8582854 -0.7610103 -2.8818216 -1.5161494 1.4713211 -0.28136626 0.38379052 -3.1253793 0.6835611 -1.4362271 1.8530716 3.5139549 -1.2912121 0.904754 0.1679599 0.18044648 0.6523778 -0.8049272 -0.8629729 -1.136035 0.82998073 -0.70329237 0.1829236 2.1368818 0.23668836 0.57169306 0.09447976 -1.3834473 -0.21707624 0.5127103 0.3810241 2.6387732 1.0418448 1.0232593 3.3615344 -0.4793723 2.7696815 1.1522723 0.63095725 -0.30876172 -0.87723184 0.09023734 -0.72789043
A_1488 1.443574 -1.0605417 -0.6006959 -1.4184617 2.056542 3.5125086 -0.10528483 -0.31360483 1.1772947 -1.0675093 1.1550713 0.03631571 -0.043418847 -1.3159475 0.54542756 0.657249 -0.47945634 -1.412982 -0.39932054 0.28697836 2.1777735 0.30108798 -0.749511 0.7894439 1.9378726 0.4456072 -0.9531164 0.085321866 0.8983366 0.25518584 1.4839922 -1.2125939 -0.5070441 0.255623 1.55935 -0.424481 1.0219623 1.7128053 0.19331335 -1.7336462 -0.5024834 0.6727606 -0.9017356 1.4773257 -0.07510033 1.986003 0.13949476 1.5713371 -0.6771917 1.6008157 -0.0152527895 0.4529463 1.4625944 0.6042432 1.127726 0.8073529 2.706151 0.44302502 -0.9272148 0.18971561 -0.48186934 -0.089396544 -0.29130644 0.56189436 -0.50779164 0.66092277 -1.6863406 1.6176211 0.69504327 -1.3118302 -1.067042 1.2316351 -0.44084966 1.3042002 -0.4616629 -1.2265143 0.95576316 -0.0654833 1.8515725 -0.42823255 -1.9941906 0.9688064 -0.15269326 0.86402106 1.5567275 -0.37039024 -1.342531 0.87296104 -0.029439501 1.6567239 -0.52547574 -1.8346914 -0.051524013 -0.6206946 -1.6938831 0.42186403 1.8103055 1.2862642 1.7435588 -2.5003395
A_734 -0.31687424 1.6633414 -2.1455054 1.0203965 1.0941135 0.93215865 0.33040732 0.57678515 -0.96906585 -0.08676691 1.4872029 2.4247868 -1.278041 1.095187 1.3449537 2.5809352 -2.1469464 -0.89334935 1.6826367 -1.0168071 1.9536151 0.14763281 0.046345625 1.0898743 0.8809552 0.5353528 1.07362 -0.72788495 3.510734 1.551352 2.539647 0.64376897 -0.06848832 -0.7346734 -0.67963094 2.0310934 1.4434972 -0.2956233 1.714203 1.1616293 -1.9271452 0.5628786 -0.10407969 2.1379595 -1.1081691 2.2419627 1.3924944 0.32087213 -1.0350822 0.55158484 1.6831484 -1.054341 1.1233981 0.13021708 0.718284 0.057798635 1.3175777 1.6755548 -3.7128341 2.0429056 -1.2242476 1.6518252 -0.6935069 -1.6109382 -0.32527906 -1.7560207 0.7660253 2.6710815 -0.7106702 0.7236505 0.81194514 0.7428131 -0.6009758 0.7815799 -0.012981983 -1.688686 -1.9383382 -0.3773293 2.7461066 -1.1371266 -1.4507583 -0.8558079 0.1732506 1.078745 -1.2161274 1.0353371 -0.48102728 -1.6837584 -0.16963711 -3.4997294 -0.10880027 -2.6610665 0.46197486 1.1836025 0.5092463 1.714402 1.1274581 -2.4068744 -0.27439117 -0.60779804
A_775 -0.16590421 0.85769814 -0.66389847 -0.46024355 -1.089388 1.4536806 -0.010677674 0.26218084 -1.3173028 0.49199697 0.121405505 1.5932066 0.35012436 0.08810726 -0.0018113871 -1.8309531 -0.63472205 -0.3343603 -1.0228359 -0.13409324 1.341014 0.66669106 -0.60497826 -0.5942932 -1.1787359 1.8616016 -0.29920927 -0.2947227 0.15589985 -0.15033363 0.40218407 0.069906786 0.77160174 1.1505511 -0.2612312 0.31037617 0.12046166 0.49448082 2.5845466 -0.073317096 0.57249326 0.33064124 0.625306 0.6352293 -1.3020716 -0.62415314 0.5129328 -0.5248871 2.6440933 -0.22777274 -0.4966335 -0.6235128 0.35598895 0.960039 0.20196804 0.4857713 -0.15233214 -0.14191516 -0.45779845 0.4795596 -2.252904 0.7716627 1.7385999 -1.7470622 0.9544647 0.958621 -0.013303262 -2.114152 1.101719 -0.10213195 -0.39993533 2.438348 -0.13363029 -0.14333579 -0.9378087 -0.9837713 -0.92605245 -0.6100122 -0.21366228 0.6472653 0.9407266 0.92315257 -1.6309004 0.11297682 0.23082867 -0.39460778 -0.31613526 0.11966493 1.5326151 -1.6010796 1.3383005 0.09708864 -0.7269509 -1.0202736 0.61395496 3.785747 0.27648082 -0.596101 -2.6230814 -0.39124843
A_710 0.10069332 -1.228483 0.9672002 1.1524312 -0.13358629 -0.53570634 -1.8686504 1.0828501 0.5777417 0.30158988 1.076134 2.4206884 -2.8991954 -0.023459407 1.400991 1.0677803 -2.113912 0.28113952 1.4665436 0.5907851 0.45273075 -0.44622493 -0.38319185 0.22700188 -0.85095835 0.079141125 -1.930632 -1.4189887 -0.46756744 -0.031410336 -2.5176623 0.3733665 0.6186419 -1.0512542 0.89121854 -0.05053025 -1.7451358 0.38509792 0.9552262 1.6756096 1.4199744 2.8043966 2.1037776 -1.7435735 2.0870678 -0.37171662 0.36860195 -0.27853316 1.404876 0.47490275 -0.4932976 -0.33252865 0.23232043 -1.5943792 -1.0452746 -0.74690235 -0.46572307 0.16803034 3.3900487 -1.3642632 -0.41886798 -0.3086771 -0.460672 1.5264678 2.1759806 -2.4210846 -0.15889926 -0.37686768 -1.1492641 0.56744564 1.8243515 0.9666435 1.8775448 -1.179617 0.64003587 0.15757695 0.18625256 1.3841373 -0.04494752 0.4049555 0.23061717 0.80582154 -0.33952102 0.55398357 -0.19382867 1.8713721 -0.08041358 -1.3440883 -0.5016456 0.9981962 0.686441 -0.003087797 0.0748238 0.114106216 0.43752512 -1.3031536 -0.32146394 1.316584 1.0830934 1.1468446
A_1492 -0.17267244 -0.03512687 -0.5660349 -0.7998133 -0.33347726 0.40687415 -0.03940861 0.06406767 1.1290915 -1.1145961 0.0043326444 -0.63326657 -0.023320226 -2.0507257 -1.0516118 0.7818518 0.8988205 -0.8599413 0.6039245 0.92056215 1.0365119 -0.061241962 -1.0317303 1.2135271 0.8765169 0.23628823 -0.5318832 0.2933033 -0.9728044 0.5601988 0.9726373 -0.54885936 -0.48801193 0.7375848 0.5826449 0.16980588 1.2539128 -0.5182793 0.9927586 -2.0036557 -1.3917195 -1.3082995 -1.507222 0.5010615 -0.8294653 1.4351091 0.7697682 -0.13453686 -0.52293247 -0.8584364 -0.8210666 -0.3454839 -0.24681084 1.1262922 0.5406723 1.0700605 2.777713 0.36163455 -1.248934 -0.671487 -0.21309194 0.39168376 0.74569297 -1.8452921 -0.32791004 -0.48416868 -1.5517687 1.239507 -1.7696881 -1.0867658 -0.33123428 2.248454 -1.7715757 0.65250957 0.95440024 0.20462602 1.2724173 0.28808755 1.4792162 -1.784783 -1.5905379 1.3442374 -0.69954884 -0.8397746 1.1157877 -1.7139653 -2.1006098 -1.048022 0.81125104 0.004218204 1.4648134 -0.4473612 1.6934268 1.0336573 0.04578492 0.5141868 1.1447859 -0.6924446 1.0285009 -1.76038
A_549 0.79511744 -0.18347952 1.3866023 0.08802022 0.13970546 -0.5665799 -0.24248917 -0.41751805 0.42255035 -0.16327147 0.46503955 0.8789651 -1.3760518 0.14415163 0.12274867 1.4362606 0.35041913 0.67065936 0.71872646 0.7022592 0.63820827 0.53425556 0.25719842 0.33791685 -0.46228257 -1.2436765 -0.7516464 0.71089256 -0.13375585 -0.05148148 0.5032268 0.03961069 0.8859837 -1.0375051 1.7600176 -0.3486128 -0.48790088 0.041543096 0.53899896 1.3698701 0.9687931 1.4294755 0.8558613 -0.40863135 -0.41714683 -0.170777 0.3252319 0.59104383 1.380434 0.007423253 0.030755801 1.2119873 0.61060864 0.6791849 -1.4681526 -0.9481451 -0.64478236 -1.1439959 1.9172513 0.27586973 -0.18412471 0.09738835 -0.39208922 0.6018874 0.26825806 -0.68847454 0.32840335 -0.079227716 -0.44746378 -0.14995304 0.15072584 -0.026274987 0.33281282 -1.3102174 -0.2812367 -0.35126346 1.0596443 -0.07869788 -0.2771257 0.13080475 -0.71234846 1.2271748 -1.0650703 0.12787901 -0.194439 0.07435147 -0.07755108 0.33323562 -0.15352729 -0.63612854 1.3233521 0.032788638 -0.11859859 2.0409603 -0.092879176 1.1186752 -0.2114145 -0.4658187 -0.14499412 1.2629994
A_1215 -0.3900136 -0.7712162 0.03877528 -1.6524581 -0.82498676 1.5552073 -0.20033832 1.144902 -1.1863291 -0.55241674 -1.0405273 0.017058972 1.2230592 -0.4065933 -0.65422076 -2.081507 -0.79566664 -1.8183185 -1.9306673 0.055476956 -0.21342716 0.026113562 0.05276036 -0.50693613 0.5145131 0.851021 0.22495644 -0.11416458 0.29417014 2.850738 0.039126478 -0.8158894 1.6801457 0.0016454677 -0.46621537 0.09018353 -2.2736707 0.8579068 -0.24382083 -1.237897 -1.382318 1.1874992 -0.08183426 -0.1209824 -2.052987 -0.031482715 1.3784096 -0.47359547 1.8063153 1.3040612 -0.6321619 -0.45150697 1.1180304 2.136128 -0.4415563 0.105084606 1.0226197 -0.12297962 -0.55365556 -0.47112235 0.7126001 0.41764438 0.4989899 0.32770434 1.0082622 0.60438246 1.2402145 -1.4537224 -1.5650102 -0.21656328 -0.6982211 1.1820929 0.8855301 -0.9021585 0.20832148 0.071923494 -1.5824174 0.87710166 0.685351 -0.08979177 0.6966383 0.34892926 -0.051869765 -0.6853567 -0.035112716 -3.0953753 -1.0139005 1.3297422 1.3756608 -0.75713354 -0.28703225 0.8746949 0.44629997 -2.4115934 0.7073305 -0.7827396 1.1439545 -0.78534317 0.9521161 -0.36451295
A_340 -0.5893396 0.5634365 -0.5315718 1.2197036 0.3171791 -0.7988879 -1.6915654 -1.1185687 0.08166786 0.92743367 0.82698065 -0.24432005 0.54015005 -0.90537643 -0.5528633 2.1637053 0.6806779 0.35208935 0.19719969 0.22762 0.4092969 0.61199325 -0.72420573 0.09971254 -0.5761951 -1.4529414 -0.371159 1.0249882 -1.0698802 0.3069171 -0.26494434 -0.72314656 -0.14264141 -1.0639826 0.54290724 -2.315321 -0.18658963 -0.58927447 0.5397605 1.736132 1.176486 0.26181227 -0.68249667 -0.78102416 0.7572044 0.07321912 -0.44473758 0.88668853 0.34068307 -0.6667628 0.3437409 0.5471652 -0.97797835 0.16871418 -0.84202564 -0.08764334 -0.46257564 -1.7239883 -0.36577502 0.32772183 -1.4093732 0.29476398 0.4792615 1.5905823 0.94768965 0.13346578 0.94939643 -1.3375945 -0.18187915 -0.20090821 -0.58767873 -2.1388462 0.576752 -1.7558469 -0.31216535 -0.41620702 1.277399 -0.073607385 -0.090326 0.4120427 -0.94330937 -0.50341094 1.2241453 -0.03983676 -0.57137877 -0.3470675 0.83123004 0.68329334 -0.11919096 0.30629995 -0.5759907 0.49943388 -0.58100206 2.0550385 -0.36247495 0.4030465 0.56517935 0.95459867 0.520101 0.57542163
A_1858 -1.1382349 -0.702526 0.6171634 0.0420688 0.85428166 -1.0276194 -1.5372349 -0.67703986 0.6714905 -3.2246027 0.85778034 -3.7952962 -1.4228826 -0.88597524 1.1720582 0.7175971 -1.1165795 -0.8776939 2.5796483 0.044784233 -0.09270575 -2.463514 1.4586354 -0.58035576 0.43007553 0.080502644 -1.2691172 -2.5866296 -0.8254372 1.109236 -0.7177397 2.0420413 -0.032688893 1.0854157 -2.7323065 -2.0504508 -0.44880924 -0.4980566 0.26270142 1.6176614 0.7726763 -0.7390994 -1.4088494 -1.8779923 0.080850974 -1.9851804 1.0905249 0.2422308 1.4110564 2.5761378 0.39402092 -0.16387951 -3.450548 -1.5071383 -1.389234 -3.7990851 -4.2464623 1.746872 0.94580734 2.3196628 0.63600737 -0.0786004 1.3995695 0.64230347 -1.7178526 -0.14506514 -0.10566167 1.9362044 -0.20117219 -0.27128407 -0.9696959 -1.5274868 0.86925584 -1.0956411 -0.59254235 2.2521539 -0.025723886 0.6681349 -1.0816691 -1.7876945 -0.09829703 1.6834246 0.5100956 0.55214614 -0.001867237 0.9450475 0.40153 -1.5213453 -0.5734024 1.6785402 -1.0213063 1.0429144 -1.268697 1.3991308 -2.9602585 -2.2429373 -2.3363168 -0.89029247 -0.3404232 -2.2619658
A_552 -1.4514722 -1.5114273 -0.25504103 0.56353325 0.6502112 -1.5483229 -1.3477341 0.63941175 -0.286304 0.5876927 0.8934898 0.8160033 -2.2727437 -0.6937305 1.4048436 3.5773149 -0.76184726 -0.95286685 0.6219617 1.0696436 0.9695976 -1.078099 -0.12794425 -1.0663172 -1.7373583 -0.98621845 -0.938858 0.88164127 -0.8404752 0.032011326 -2.575522 0.004997925 1.497736 0.25909308 1.6401721 -0.57682365 -0.11681624 -0.6284436 -0.015937388 1.7371347 1.9065912 2.8733938 0.68079567 -1.086241 0.38049507 -2.0151615 2.0330882 0.26836047 1.9828961 -0.4198172 -0.32775307 -1.2194163 1.0250067 -1.7321022 -1.1293731 -0.7720726 -1.5172654 -1.8110747 2.448783 -0.5524595 0.8972089 -1.4318547 -1.0956753 1.2728196 1.3606541 -1.2858365 -0.8000715 0.6008228 -0.4783947 0.7018452 0.53696513 0.10669677 1.5003881 -2.758386 0.99911547 2.574669 0.015299239 1.610167 0.6587452 -1.5991488 1.54545 2.3702574 0.37295425 -0.26856655 -0.8163044 1.6747622 -0.8400792 -2.8872163 -1.6970628 -0.35092998 0.19465543 -0.34691006 -0.3024834 2.4574375 -0.59296185 -0.7793058 -2.0412872 -1.3015645 1.1495807 -0.14137597
A_1577 -0.17760852 -0.28592768 -1.0750419 -1.2446356 3.1218767 1.2663176 0.7127097 2.4780145 0.55633765 0.15689668 0.7948484 1.8043305 -0.3015168 -0.18475217 -2.8605337 0.11334197 -1.4162301 -0.59678024 0.3039534 0.5521899 -0.6134151 -2.012305 -1.6379174 -0.65354073 0.497025 -0.97710013 -1.0003239 -0.434101 0.69304276 1.6191629 0.24329038 0.17360452 -1.1902239 -1.5076561 0.73149294 0.8501238 1.6898587 -0.43766466 0.46241018 0.016418481 -1.7276715 -0.032892417 -1.3810985 0.8104542 1.0507066 1.9959441 0.49526528 -0.6644541 -0.2624445 -1.7792062 1.8361633 0.119842716 1.2398916 -0.29404044 0.5087379 -0.8076132 2.7299705 0.48031783 -3.329428 -0.12171053 -1.1770644 -0.48186156 -0.53558475 -1.1178561 0.82607114 -2.1049497 1.2004182 1.2910455 -1.5723912 -0.12210402 -1.2869103 -0.25396383 -0.3066994 2.3035064 -1.3784052 -1.1606392 -0.8215238 0.069804415 -0.57071173 -1.5212536 -0.846131 0.23511232 0.03498473 0.54689074 1.6746267 0.6820467 -2.6307042 0.15102302 1.5565379 -1.1208125 0.44283718 -0.13325898 1.898252 0.39145827 -0.5653074 2.0067966 2.4935546 0.111619316 0.11482027 -0.8074326
A_241 0.3758938 0.48228118 0.41030985 -0.2764856 -1.010401 -0.78394264 0.8808245 -0.45262304 -1.3594 0.08915542 -0.70143676 -0.49307907 -0.00023690301 2.2856622 -0.6488616 0.6319236 -0.4467637 0.13534285 1.6945567 -0.06556434 -1.2975299 -1.6901706 -0.8251892 -0.2200653 0.6182113 -0.7647013 -0.2922741 -0.50092524 0.21268553 -0.950786 -3.5876286 -0.3413892 0.55568737 -0.6825517 0.3381157 -0.4052794 -1.1626529 0.6487414 -0.025309116 -0.9427558 1.5332646 -0.01849391 0.94170153 1.3015747 1.3113585 2.1792371 1.3706106 -1.2402691 -0.28695238 0.57047075 0.6545765 1.4675913 -0.39541513 0.120076016 -2.594476 -0.6509048 1.375009 0.035892133 1.0544618 -1.5425285 -0.14075202 1.0212342 1.2422304 0.8817552 1.6495216 -2.0226502 0.3810023 -0.30683345 0.2947812 -1.4589498 -0.34637648 -1.2196505 2.1190379 0.4502205 -1.5903081 -0.56651944 3.6297345 -2.9581327 0.9147504 1.1854632 1.1448728 0.07518989 0.05616842 2.0343778 -0.44070408 0.19716771 0.8586509 0.11434466 -0.8753876 -0.32608324 -0.16058153 -0.45352194 1.3505682 -0.9502537 1.5169239 0.87448233 1.2152547 -0.3156363 1.768602 -0.9362463
A_810 -0.31117964 -0.30674496 0.7457194 -0.8116189 -2.23548 2.2418513 1.1500489 0.6586054 -1.2992504 0.19091474 0.9014944 0.4578096 0.8151713 -0.41662318 1.1892215 -1.8964312 -1.3389162 -0.4941299 -2.1849158 -1.5052664 0.1418019 0.5866713 -0.7345722 0.46425006 0.47164756 0.53888285 0.7252336 0.0019621635 -1.0663768 0.26634815 0.8732296 -0.7505967 1.035316 -1.1556281 -0.41574082 1.2761925 -2.1397386 -1.2667006 0.7049391 -1.0290376 0.26755726 0.3381172 0.2738094 -0.4127533 -2.371131 -2.1775157 0.5110283 -1.0214043 1.0540538 -0.1729327 -0.34921873 1.0817202 0.36243254 1.6183366 0.05724123 0.49425977 -1.229771 -0.23361191 1.3141805 -0.930036 -0.4389505 -0.85307163 -0.4886665 -0.22208929 1.7955321 -0.14254862 -0.61743116 -0.77481824 -0.81000435 -0.9774101 1.178178 0.9967799 -1.5310297 -0.602924 -0.8668179 -1.6326536 -1.6874528 -0.12956984 -0.27999005 -0.5648641 -0.38922468 0.1578984 -1.434076 -0.477327 -1.1455833 -1.7447644 1.2072543 0.629306 1.4086542 -1.0292461 1.0933808 -1.0350181 0.8251612 0.1614601 -0.25666133 2.4164124 1.0781054 -0.18215165 -0.90725875 1.2223642
A_787 0.5139616 -0.7633942 -0.38769922 -1.1540366 -0.7724332 0.8212473 -0.88712734 -0.563986 0.3913699 -0.92063445 0.22386645 0.6865872 0.6390557 -0.82103753 1.2362516 -1.7780179 -1.2830921 -1.3576047 -0.14663373 -0.7543187 -0.24445806 1.3957828 -1.5815988 0.6425245 0.60807335 -0.1713444 -0.29754013 -0.38268018 0.71716094 -0.36086473 -0.65409607 -0.83700526 1.227678 -1.1187614 -0.48068526 0.23691808 -1.3302014 0.5143953 0.9223857 -0.013613718 0.5753846 -0.3267751 1.5948745 0.55254155 -0.19601528 -1.3803009 0.58810556 0.73835546 2.862456 -0.94609386 0.07544666 0.2567929 1.3470255 1.5472137 -0.39011315 0.39663553 0.45150912 -0.6721424 1.8131378 0.6396724 -0.5091662 1.1354694 0.44839916 0.1310496 1.0422767 0.13076745 -0.80455554 -0.9773318 -0.3260183 -1.9841565 -0.37609062 0.8195896 -0.48344734 -0.43799284 0.37137496 -1.738422 -1.6837435 0.12070074 -1.6651446 0.45865908 1.0653104 -2.2921064 -1.1313208 -0.5588558 -1.4773688 -0.34776998 -0.038914498 0.67356074 1.5069467 -0.6675636 1.8483764 0.61952883 0.2778125 -0.4613272 1.0995764 1.3490769 1.7366941 -0.3337141 -0.77938396 0.09556211
A_1657 0.87846565 -2.0066276 2.8763258 1.536846 -2.1962771 0.27074388 0.45716894 0.11917495 -0.6310837 -1.8885416 0.6837134 -0.23087728 -0.883471 0.40360618 -0.061286993 2.4343684 -0.14404993 1.4045349 0.74162793 -0.052093457 -0.736384 3.5457768 -1.9724516 0.2780289 -1.1468455 -3.9989727 -2.2918816 1.2202196 -1.008922 0.15315421 1.5045956 0.77683675 0.66635984 -0.5602126 1.1610886 -2.5528433 -0.7639987 1.754997 0.22436288 2.0224366 1.3075558 0.098883614 1.0160166 -0.09234814 0.507631 -2.5398705 -0.17943548 -0.5845597 3.5265176 -0.41968435 0.46531132 0.38550672 0.06396447 1.7074705 0.5673203 0.24682419 -1.0552125 -1.0661328 2.5979087 -0.29516628 -2.282315 0.89719766 -1.6606722 0.59820545 -0.52361804 0.65936345 -0.35217592 1.4031187 -1.3812497 0.95561904 -1.8613579 -1.4551954 -0.2091705 -0.8725532 0.29295847 -2.4986162 0.37523738 -1.7696775 -2.650552 -0.8810516 -1.8403636 0.8535192 -1.1293219 -0.055498246 -2.189576 -0.9202291 1.9183674 0.77942246 0.057892736 0.05371303 1.0679631 0.8241289 -0.06610517 1.8041583 -0.8919367 0.66190124 0.45348573 1.4864442 -0.49959043 -1.6395926
A_61 -1.4888778 -1.1837707 1.2638531 1.3314539 -0.9297983 -0.69473433 0.7432404 0.19777088 0.18213141 2.0859156 2.3748171 0.16217282 1.2569094 1.581485 -1.3874662 -0.3846233 0.4875073 -0.19018821 -0.05933344 -1.8535669 1.461339 0.43423703 -1.0460787 2.4598677 0.8428599 0.30918455 -0.22956207 1.1954124 0.33230415 1.2461327 -0.42696384 -0.43704838 -2.0198696 1.2277645 -1.2068533 0.4440002 -0.35264912 -1.6105572 -0.7809307 0.73631144 -0.3572098 0.6576946 1.271133 1.763606 1.9741594 -0.4795175 -0.0014908483 0.50082636 -1.8362606 2.257236 -2.3098109 -0.13322408 -0.92998034 0.30565813 1.0558748 -0.21341772 0.29865932 1.0586468 -1.334642 1.2072909 0.0067675645 -0.34746084 1.0876721 -1.8656492 -0.31273174 -0.38941142 0.40599886 0.28207445 0.73603994 -0.60532045 1.6250701 0.6149211 0.63427836 0.36352986 0.2062334 0.66067743 -1.497245 -0.2935513 1.5906261 -0.4542345 2.389546 -1.1172196 0.6133947 0.93356335 -0.4780343 -0.1445939 -1.3898785 -0.542362 0.5866305 -0.7940166 -0.8756928 -0.18408686 -0.58409387 0.5147 -0.037192695 0.2573099 -2.0946527 0.70361453 0.17706147 0.04477564
