2004 50
<UNK> -0.42376697 -0.8171496 0.16794176 0.9034141 -0.4540641 -0.28973734 0.62510484 0.592446 1.0073973 0.17753729 0.20373613 -0.69291055 0.12452636 -0.013336723 0.28667578 0.26289237 0.038318735 -0.12983723 0.5002847 -0.02248972 -0.3873323 -0.98107624 -0.14413871 1.1164703 -1.2971176 -1.6493738 -0.06745998 1.6692832 -1.1446 0.98512596 0.6499711 0.3453196 -0.040261954 0.6519593 0.872966 0.67511994 -0.50451994 1.1050178 0.888787 0.7719646 0.46158388 -0.23652048 0.957767 -1.2331362 -0.07046465 -0.29999727 0.3548948 0.41628098 0.13497409 -0.22619589
A_1 -0.35867465 -2.3871856 -0.43312517 0.77049446 -0.22891816 -1.8218397 0.20749256 -1.3400617 -0.6549612 0.2510906 -1.0221092 1.9591844 -0.24475315 1.2482231 -0.6425871 -0.21696414 2.0066454 0.35473177 -0.7264648 -0.01025392 -1.2706921 1.5488417 -1.71837 -0.08061266 0.049288698 -0.6482455 -1.1319182 0.013489013 0.23867741 -0.35180354 0.690008 -0.03705244 0.8823602 -0.6812195 0.77363235 0.5933603 -0.53466606 0.28506097 0.21315749 1.3338308 0.3316109 -0.41558093 0.10027627 -0.43796605 1.7183694 -0.69339806 -2.1062412 0.12402822 1.0396826 -1.6845571
A_1978 -0.24065761 0.8205341 1.2904937 -1.5950041 0.0267509 1.0983927 0.33252603 1.442208 0.44894835 0.5803692 1.4340549 -0.61979455 -1.1272804 0.8782688 0.35348934 1.0032429 -0.890368 -3.2696707 0.075342715 0.28092614 -1.3097064 -0.7712405 -2.436403 -0.29658487 -0.43725795 1.2053639 0.028806187 -0.93507034 -1.5251056 -0.59405553 0.008239517 0.6499344 0.91960686 0.5633946 0.19811746 1.4823736 1.1076577 0.6734713 1.4627235 1.9570831 0.1027385 -0.97881246 1.4231874 -1.0963496 0.6201885 -1.0175807 0.23645659 -0.925837 -0.713253 -2.09468
A_1656 0.07263329 0.034425896 1.3265173 0.25805193 0.35670063 -0.3411321 0.34126022 0.0088316975 -0.5069057 -0.012280289 -0.22210181 -0.2599168 0.7737982 -0.6102388 0.19908765 0.98062724 -0.41130584 -0.5514238 0.4803558 0.12951404 -1.8877386 0.62167394 -0.9193521 -0.6761371 -1.7145002 0.26775286 -0.57315624 -0.9822935 -2.3465474 -1.661875 -0.5405382 0.19300151 0.3247136 -0.280473 1.1604992 -0.1869245 0.05998826 0.5822405 0.5939615 2.5084221 0.31016323 -0.51700157 0.89927757 -1.4012883 0.3095724 0.25748986 -0.71363634 -0.32976207 -0.10337786 -1.2100033
A_2001 0.91153204 -1.4652228 1.7248952 0.01832012 0.4703891 -2.4365354 -0.76410997 0.2127976 -1.8523786 1.3855485 -0.43176186 0.46754715 0.23465642 0.73367417 0.77353054 -0.9559844 -0.12385994 0.4152587 1.4883988 -0.27277836 -0.13920765 -0.130935 0.30052426 -0.82860386 1.1128666 0.3119211 0.7393407 1.4335767 -0.42366776 0.9623841 0.31758803 -0.13365369 0.46105507 -1.0590028 -1.566096 2.279056 0.2907994 0.15171358 1.2101195 1.8288392 -1.36116 -1.4158354 -0.3956565 -1.3887165 -0.06197017 0.77175707 -1.5017058 2.430207 -0.521857 -0.3833366
A_1257 0.51613677 -0.832114 0.013456532 -0.085255824 1.318767 -0.6862881 -0.761046 -0.04359036 -2.0957963 -1.9880323 0.535375 0.17096348 -0.99421453 1.9444735 -0.037838444 -1.482029 0.25113332 -0.036257453 -1.1757562 -0.24066353 -0.9418307 1.5685773 -3.124533 -1.5703839 0.8262713 1.0662845 -2.8664484 -0.5408097 0.79188657 0.51286584 -0.48905063 -0.9562602 1.1214176 -1.1571667 -0.64954513 1.8497214 1.49437 1.9191668 1.4858575 0.052870203 -0.0039230655 1.4575188 -1.4277872 -1.8955147 -0.039465927 0.3631901 -1.2897022 0.7829354 -1.4708592 -1.4967881
A_545 0.39764178 2.057272 -0.1581312 -0.50126207 -1.5490083 1.9537387 0.1735203 -1.3882291 -1.1047702 0.7220789 1.3751048 1.0838583 0.51677203 -0.1567483 -1.472525 0.63496035 1.003683 -1.9496514 -1.3564681 1.3450269 0.7924593 -0.23339482 -1.015051 -1.8051947 0.060271967 0.2313172 -0.24114847 -1.4685684 -0.53251827 1.630111 -1.1595813 -0.1974022 0.23021461 -1.9505835 0.16015151 1.4005933 0.99471295 0.81451094 0.51833177 -1.3010242 0.20888425 -0.9654521 -0.82749844 -1.2809379 0.382648 -0.5976018 1.0465082 -0.5833695 0.260089 -1.1826203
A_1191 1.0613227 -0.045903448 -0.53244424 0.35890687 2.0707657 -1.5379795 1.6257945 -1.4540535 -1.8504432 -0.045773875 0.39114824 1.0939919 -0.4865445 2.543399 3.77849 0.5464658 1.163177 -0.19680485 0.45846584 2.6151922 -0.0016259021 -0.42650852 -2.1776073 -1.8275633 2.2281916 0.6477157 1.01806 -1.4116046 0.009030219 -0.26467317 -0.014875096 -0.6688282 2.393359 0.24772277 1.6405064 -0.040715497 2.439685 0.74520296 1.4238981 -0.8165171 -0.7670876 -2.992036 1.401882 -1.0530641 1.4296921 -1.4301882 -2.1962218 -0.0764273 -0.25986508 -0.07501127
A_338 0.22965509 -0.19330303 0.6096874 -0.22720823 -0.17565842 0.22503497 -0.6717207 -0.28615284 -1.9186264 -0.17371805 0.14438988 1.4345187 -0.4310402 0.95587665 -1.2390753 1.1998074 0.91559434 -0.92932343 -0.5634737 0.7858643 -0.6957779 0.76185656 -1.5088528 -0.5491445 -0.5004542 0.72828275 -0.5798464 -0.92302436 0.05238877 0.03498972 -0.10681367 -0.48323318 1.3089343 -1.5368706 0.5676748 -0.65422606 0.7800461 -0.9062169 0.21002024 0.04592083 -0.043474756 -0.88642627 0.044909786 -0.041271046 -0.366369 0.25367466 -0.31154907 -0.43649155 0.78481877 -1.1928631
A_759 1.167975 -0.18099461 -1.7316173 -0.2163218 -1.9233673 1.6918378 -0.57182294 -0.43915638 -2.3518205 0.92521024 0.558913 0.65769607 -0.75613266 -2.297845 -3.2178247 1.2633559 2.210008 -1.335156 -0.90577906 1.1474152 2.8171763 0.94299906 0.66955805 -1.7012708 0.35173574 2.7249863 1.2656091 -1.2465845 0.12263623 -0.19273609 0.06552441 1.1295592 0.2704139 1.1567099 0.79487383 0.55978346 -0.09327418 0.06780037 0.31245592 -0.64530534 -0.4488844 -0.60513115 0.20117138 1.1294149 -2.783516 -0.70881593 -0.1172497 0.32597718 1.6166807 -1.6182873
A_645 -0.8823809 -0.4607915 -0.01479391 -0.35312444 -0.81557447 -0.042727165 -0.6432656 -0.9087568 -0.4716567 0.6033171 -0.28737807 0.19341335 -0.5720583 1.3153843 -0.7365893 1.5228665 1.8174864 0.16477515 0.23254792 0.008595821 -0.29287618 0.33438212 -1.4340647 -0.8118006 -0.19440693 0.015543396 -0.57159454 -0.5817058 -1.4096663 -0.14238021 -0.8017888 0.001502747 0.37220082 -1.266012 1.1875504 0.8536462 0.16664013 -0.035887185 -0.41338897 0.07096557 0.099163614 -0.13380249 0.69635373 -0.31490955 -0.1918378 -0.5592223 0.50514585 0.24543129 1.8967212 -0.5526862
A_785 2.466304 -0.5488518 -1.2860035 -3.716723 -1.400079 2.7233858 -1.5325868 -0.3873472 -1.0508431 1.0794224 0.43394515 -0.57071275 1.5380656 -1.3166713 -1.6941255 0.26499182 1.5125614 -0.61083233 -2.422038 1.3051994 1.2733274 -0.86721075 -1.2512331 -1.7376271 -0.19853963 1.5406004 -0.97629094 -1.1327628 -0.67289424 0.6586546 0.35887468 -2.7931716 -0.10975219 -0.6869601 1.5713323 -0.64445114 0.084203295 0.17899126 -0.29514402 -1.0578443 0.47400385 -1.7577665 -0.280817 2.3217378 -1.400111 -1.1551989 0.6062066 -0.22280702 1.8271016 -0.5983268
A_791 -0.10300338 -1.6039057 0.33136886 -1.5830529 -0.4826254 2.8031278 0.30816936 -0.035344914 -1.994104 0.16017397 1.0723186 1.4586061 1.9754901 -1.5668914 -3.6042252 0.59216106 2.181039 -0.77065265 -0.5932743 0.35964346 1.9716905 1.1575328 0.069181286 0.13689393 -0.6633215 1.5878172 -0.0944176 -1.4324224 -1.8168285 -1.5550162 -2.5674505 -2.0356112 -0.42339802 -1.0241898 0.6466287 -0.6644052 2.0090773 0.73465276 0.014043407 -3.1700313 -1.9475242 -0.9238969 -0.40000725 0.7715148 -0.86796653 0.36554357 0.6607034 0.6386051 1.6638875 -1.1100746
A_764 -0.16541253 0.5789473 -0.907392 -1.8511672 -1.0072255 2.9830823 -1.3476467 -0.71432495 -1.1442304 0.345439 0.23787042 0.56860065 1.6342751 -1.5436051 -0.7248274 1.1254773 2.098735 -2.368405 -0.044306718 1.9959893 1.0560143 2.1331763 -0.35072973 -0.206588 -0.9259232 1.5518892 -0.13792647 -1.8127317 -1.5709593 0.26470163 -1.0316582 -1.0239128 1.0779028 -0.74208313 0.30868992 0.17714667 -0.7985991 -0.54579616 -0.20694728 -2.139982 1.3910711 -0.5041329 -1.5354638 0.3190306 -3.1920931 0.38204408 -1.207727 2.6754737 1.9105296 0.25440407
A_794 0.056255896 -0.30036664 0.65565723 -1.6560612 -1.3740494 1.7464043 -1.2804174 -2.5974758 -1.303338 0.88418454 0.68317926 0.9097035 0.5341395 -1.9361087 -1.1266482 0.7999054 0.65861756 -3.334684 -2.380872 1.775795 1.8830144 0.20764384 -0.2776335 -1.169719 -0.22063963 0.9341679 -0.9314643 -2.1022437 0.20288618 -0.70711505 -0.5733721 -0.8222023 0.79363054 -0.22642492 0.5034063 -1.7324666 -0.46067291 0.35055888 -1.6721305 -1.4124714 -2.085945 -1.113257 -1.2192305 -0.38397133 -1.8439822 -1.6830746 -1.4830813 -0.22395048 2.3441355 -1.329156
A_1884 1.4593915 0.18912096 2.7745335 1.1641331 2.8691287 -0.65315497 1.4334347 0.7393272 -0.76202416 -0.06501677 -1.481282 0.84700114 2.1278791 -1.2791573 0.23189215 -0.07197029 -0.7879813 0.18033351 -0.7304184 1.8457178 -3.4322932 1.3792782 -1.6944225 0.4135533 -1.2477999 0.31914547 -0.89545137 -2.6874993 -1.946492 -1.6472143 -1.2193173 0.43119738 0.7248078 -1.0019759 0.7812146 -1.0579373 -1.0784445 1.791097 0.6044995 2.0254292 0.16992308 -0.29537985 1.043496 0.1441407 1.0646951 3.5426428 -3.3403094 0.5267664 -2.4878054 0.17856881
A_765 0.38627875 -0.6602458 1.0527292 -1.8966988 -2.339686 2.1154084 -0.38996917 -1.2942575 -1.9732438 0.7630064 -0.14266208 1.914343 1.513353 -1.0370773 -2.2665696 0.29419622 -0.10238904 -0.3230757 -1.1537411 0.9053725 3.3408594 -2.7334108 0.20606738 -1.6077949 -1.5401025 1.8993901 -1.5975776 -2.5456727 -0.008387223 -0.62737453 -1.5847517 0.5765531 -0.55771905 -0.48223838 -0.17111394 0.3670178 0.85017926 -0.03785642 0.081567496 -2.0406818 0.61744165 -1.7833014 0.10628625 -0.17877923 -1.1816808 -1.3114926 -0.3022593 0.035732184 1.5434293 -0.68495893
A_876 0.9944389 -1.0496316 -0.8447215 -1.1080409 -0.22344947 3.035199 0.8728939 -0.1955193 -1.487817 -1.6763185 -1.6271933 0.054687608 1.7603699 -2.5098279 -1.5751731 -0.89472044 -1.2156677 -1.3461394 -0.6172002 0.85441005 1.0796541 -0.431613 0.4472772 -0.85681564 0.58966297 0.9936978 -0.28187808 1.7757924 0.6410312 2.7429502 -1.2305775 -1.2341352 -1.6544099 1.3259528 -1.8282841 1.3381875 0.12741758 0.046576627 -0.94260895 -1.2657386 -1.419787 -0.41635105 -1.8755276 -1.0624996 -2.7753336 -0.9573695 1.5634276 0.6904913 -0.08648266 0.01606799
A_793 0.49712014 -0.9131946 -0.61954606 -2.548914 -1.3791783 1.9926248 -1.7488515 -0.94552326 -1.3581657 -1.701015 0.42751583 0.29231858 0.7103194 -0.5411586 -1.7803103 0.54120183 2.9908595 -1.5307081 -1.0406963 1.7459332 2.185589 -0.123075426 -0.58082116 -1.7753241 -1.0998266 3.0220172 -2.0833533 -1.5898348 -0.23547259 0.52037734 -1.8404993 -0.553745 -0.29059047 -0.22414163 -0.07582063 0.24737617 -0.19989482 0.46280175 -0.7776122 -0.13353579 0.48294842 -0.7241202 0.14823289 -0.3464488 -2.6544225 0.2271215 0.866667 0.23129472 0.94988203 -0.41093758
A_783 -0.82950616 0.27225292 -0.77173007 -2.400245 -1.4724963 2.4882312 -1.0068588 -1.1747639 -1.972572 -0.90015185 1.474401 0.38563028 1.8055135 -0.46356633 -1.9496963 1.2490358 2.6608014 -2.5463445 -1.4940591 1.055673 1.5448186 0.03018979 1.0393455 -2.360709 0.27810705 1.8327557 -0.37775308 -1.6057643 0.92278147 -0.087653585 -0.52388823 -0.3678503 0.93148965 -0.74852633 0.18449335 -0.021859115 1.5362544 1.3145692 0.003838018 -0.8821686 0.49404094 -1.0157218 -1.2361873 0.8172751 -1.9338963 -1.0576347 0.60875905 -0.76489276 1.9133619 -0.2427833
A_1129 1.4563146 -0.77895844 -1.79241 -1.7381811 -2.528141 2.4380312 1.7765077 -2.4345727 0.20388559 -1.4634107 -0.9850739 0.5022417 0.55145633 -0.4605418 -1.2364452 -0.95225465 -1.4943659 -1.2679497 -1.3567877 -0.943008 1.8171121 0.66842633 0.95375323 0.13249017 -1.4407539 0.9822583 -0.9152296 -1.7668047 0.52880013 1.2938002 0.055730328 -0.49110895 -0.17168759 0.58453995 -2.6275928 -1.005825 -2.2347753 2.993853 1.7361698 -1.6475818 -0.67148644 0.15217786 -2.0945592 1.5598476 -1.6075449 0.51428634 -0.44776756 0.5261527 -1.0772644 -0.049492564
A_767 -0.16237216 1.1903601 -0.27078485 -0.97655046 -0.6125377 3.4741256 0.12199618 -1.5360614 -0.44353366 0.9947805 0.6004981 1.4147264 0.9772931 -0.25571355 -2.187741 -0.37778258 2.3173804 -0.33784348 -0.49482793 1.2567433 1.9905776 0.6153087 -0.75936073 -2.2496297 -2.9254682 2.4755237 -0.60981137 -1.621952 -0.43221468 0.2941585 -1.9416866 -0.97584176 1.9392748 0.17803663 -0.953996 -0.9193168 0.4699243 0.38215926 -1.8114974 0.09892612 -1.267052 -1.2907045 -0.33633962 0.6101758 -1.6394336 -0.79485285 0.22449261 1.2279687 2.5217826 -1.0785335
A_762 1.5116454 -0.85719836 -0.5616501 -2.1797552 -1.52055 2.4328296 -0.55109364 -1.4932897 0.9426129 0.80489653 -0.96418774 1.1564622 -0.18385224 -0.15910329 -1.6509042 1.1949846 2.7923872 -1.3194875 -1.1706585 1.4910334 2.0431468 -0.11623967 0.6200462 -1.0399271 0.39966166 1.9675221 0.16904 -0.94342387 -0.72986835 -0.18228069 -0.7874437 -0.79863864 0.4031648 -0.18819751 -0.24066404 -0.44762674 0.5177486 -1.3067478 -0.59253895 -1.5359288 -1.6132323 0.19042511 -2.1264052 0.26314503 -1.7777125 -0.6411949 1.729903 -0.9405292 0.40675354 -2.080275
A_769 -0.7773196 0.4530769 -0.5235477 -1.6089746 -1.2490191 3.7339473 0.26202998 -1.1659957 -2.9933393 0.2923094 -0.54608065 1.8513212 0.86954933 -0.8097169 -0.6461397 -0.23380104 1.1746128 -1.2740921 -0.28750005 1.5936894 3.145351 0.6327507 0.8939428 -0.09291061 0.64189035 3.246492 -1.5393044 -0.38476288 0.05465096 -0.19929148 -2.3173718 -1.3927464 0.4842006 -3.3492484 1.6678444 -0.16284315 -0.5621237 -0.5596752 0.3593838 0.28553522 0.3517497 -2.3553462 -1.6019845 1.4032524 -2.5178938 -1.0701776 -0.17843038 -1.3716526 1.4084662 -3.390144
A_786 1.151279 -0.33040026 -0.09730132 -2.3036377 -1.0465769 2.6798334 -0.06927723 -1.7049392 -0.7080695 1.0678203 0.71238905 1.6122962 1.8886396 -1.2040641 -0.6573779 1.9707584 0.24087079 -1.3956805 -0.94261515 0.83187866 1.9874766 -0.10165201 0.9454274 -2.1469717 -1.140161 1.4409599 -0.07380721 -1.3581822 0.4425036 -0.43502954 -1.6924013 -0.46812794 0.6548661 -0.72309536 -0.42781234 0.92211556 1.3001322 0.371538 0.07610948 -0.30084184 -0.0654133 -1.1986555 -1.6027007 1.2395589 -2.8891425 0.33867404 0.7161181 0.402961 2.1165593 -1.5110685
A_760 -0.26585642 0.048326146 0.85591555 -2.2785757 -0.2823069 2.09962 0.19720271 -1.3074607 -0.8083296 0.29723436 -0.2867182 0.8211034 1.2086469 -0.84981394 -1.3999676 0.80571777 0.7875095 -1.0565346 -1.3680136 1.6796312 1.53643 0.67477673 0.0686417 -1.2330083 -1.4700987 1.1232313 -0.83028895 -1.4878837 -0.7403071 -0.62677217 -1.9309443 -0.2940701 0.24836615 -0.6957995 -0.34026155 -0.37317985 -0.3312957 -0.54660827 -0.056661397 -1.0522705 -0.13730338 -0.3487026 -1.0239563 1.2543058 -1.5492084 0.17874597 0.62613803 -0.3472556 2.3204908 -0.6745687
A_772 0.5637537 -2.004472 -0.27242753 -2.873373 -0.6083737 1.1442803 -0.17404118 -0.23275077 -0.56115246 0.043478042 0.94934326 1.353528 1.1981511 1.7646598 -3.2881029 1.1075841 0.16531293 -4.1315475 -2.116381 1.6411334 2.5404115 1.4483963 0.08235376 -3.4814548 -0.12806381 1.677101 0.6483204 -1.7587324 -0.48400417 0.65670884 -1.6095036 -1.1737823 0.34109926 -1.0424099 -1.2344806 -0.7282465 -1.050757 -1.5645372 -0.10766915 -1.2550772 -0.44046715 -2.3341925 -0.074729115 0.31367275 -1.5318079 0.08463591 0.604853 1.3782188 2.412205 -0.56004375
A_93 2.061529 1.3966954 1.9519255 0.8641295 1.0238241 -4.164548 0.7484765 -0.053699292 1.6111069 -0.6992598 -0.7727775 -1.5367804 -1.7363815 2.1007407 1.0513034 -1.2186446 1.9047022 -1.1184721 -2.8656087 -2.000265 1.0147364 1.6366478 1.3100163 0.58663404 0.7700743 -0.08640536 -1.8518177 1.8932384 0.0726059 0.50854874 1.0007058 -1.9444902 -1.0678989 -1.1008712 2.5296547 -1.9061835 -2.0886903 -1.3455299 -2.554531 0.9430253 0.44489983 -2.1700711 0.8502074 1.4771427 -0.61438423 1.3375666 1.0745454 2.5229173 -3.8827455 2.2413788
A_770 1.2408092 -0.6708086 -0.25212103 -0.95061475 -2.8566833 3.1232498 -1.1877354 -0.7461122 -1.2316519 0.83967227 -1.0439221 0.111153275 1.2691982 -0.09852109 -1.0848594 1.2158378 1.6002916 -2.043337 -0.10618033 1.4995306 1.5018209 1.8088044 -1.3972955 -3.0514905 -2.6481843 2.3688111 0.5571631 -1.2040353 0.92448574 -0.75531816 -2.7250488 -0.26509237 -0.21640703 -1.9142221 -0.29476178 -0.59414667 1.0658491 0.75925267 -0.6267246 -3.516932 -0.4732612 -0.40467533 0.8149701 1.415812 -2.3437974 -1.9061629 -1.1398513 -1.8739722 0.7619644 -1.7633137
A_57 -0.37777218 -0.6413617 0.6553215 2.9598284 0.1793024 -3.337313 0.0800822 2.7636397 -2.2153115 1.3094867 -0.35964632 0.6086526 -2.5135627 2.4161432 0.06481183 1.2300866 1.4665824 -2.7110646 -0.24314177 -2.354174 0.3374076 0.28204712 0.7580904 0.14146063 -1.0956833 -0.77072036 -0.21618114 -0.34794378 1.0037982 -2.0100095 -0.9171901 -1.9870607 -2.946845 0.70423055 -1.16398 -1.2733407 -1.3501861 2.235474 -3.669205 -1.9605619 -0.58786184 0.47170186 2.5468965 -1.1624976 -0.3530093 -0.34163335 -3.550369 -0.3908491 -4.1654487 0.8896555
A_58 0.5238254 0.6937297 2.6674082 3.1532145 -0.46551272 -1.3417649 2.3570602 1.1583397 -0.8171698 0.42244768 -1.5104151 0.2657332 -2.13276 -1.3509456 2.199035 0.04557243 -0.6586636 1.0740381 -3.1975608 0.32291847 -0.37009573 0.32993335 1.2021629 -2.8682926 1.3232408 -3.2210264 -1.2988482 0.31501988 0.9698729 0.8399688 -0.037106883 -3.7124283 -3.5587602 -2.116087 -0.04577214 2.248004 -2.6045449 0.5005357 -3.1705787 0.1769716 1.2548567 -1.9003447 -0.16577461 -0.44914052 1.2123936 0.3637051 -0.37710372 -1.183769 0.3446647 0.6874513
A_1737 -2.0939126 0.61559033 -1.5183362 -0.5048769 0.30429897 -1.2169906 -2.5078008 -0.11498784 0.36872688 -0.6573531 -0.47551554 -1.8777615 -3.3702796 -2.387407 1.4195935 -0.9082201 -0.75225216 -0.05304513 2.7937038 -1.087963 -1.6978484 -2.3076956 0.092863925 1.5199404 -0.3055962 0.7131446 1.6040828 0.05887372 -2.7649994 1.6751848 -0.6794505 -0.6294007 1.3947786 -0.19341673 2.091326 1.8541344 1.3268441 1.256089 1.4480262 1.056371 1.6481708 -1.022534 -0.1479654 -1.7344078 2.0907876 -0.9749345 -0.009290756 2.2956967 -0.31327316 -1.5203778
A_784 1.5875167 -0.18538643 0.30186418 -1.4451723 -0.5089415 1.6795505 -0.35716403 -2.0246036 -1.1147872 0.5153952 0.43740028 1.4522742 1.3126118 -1.9397358 -1.2770722 1.284833 1.2046143 -1.5319297 -1.1955866 2.2215536 2.1054163 0.68144774 0.00205806 -0.80788094 -1.0686166 1.4755812 -1.1209925 -1.7662463 -0.24414432 0.6746878 -1.0897138 -0.44598085 0.18734218 -0.0045390613 -0.11200089 -0.043141827 0.51329386 -0.12559733 0.19365141 -1.2258428 -0.9803182 -1.5114043 -1.2019296 0.7941282 -1.8233712 0.5866985 0.2644362 0.63543665 0.42984006 -1.1644326
A_737 0.009210135 0.94466263 0.5409848 -1.3492059 -0.63085353 1.8807523 -0.56236243 0.104662284 0.08665954 -0.40844235 3.485521 1.7140149 -0.6615448 0.79179275 -1.4014444 1.8516682 1.0787603 0.04502611 -1.4906694 1.8766104 0.69355464 2.0473948 -0.85840327 -2.4175267 2.1173048 -0.19944753 -1.7630807 -2.375121 3.0800502 0.97050035 -0.23529492 -1.1571798 1.4848939 -0.0601702 -0.39154786 0.45279714 2.2793233 -0.19808432 4.1243997 -1.1415085 0.013275509 -2.0834289 -1.0263565 1.1587323 -1.4099497 -0.051884327 -1.6081895 -0.41442305 -1.6280534 -2.1988351
A_781 -0.13193993 0.91542774 -0.97261184 -1.9424552 -0.33788255 1.7439072 -0.18035194 -0.59175307 -1.8396783 0.37356764 -0.1293466 0.86978096 2.1070418 -1.7197843 -2.7257478 0.3579344 2.4053068 -1.2701257 -1.6858218 2.363258 1.8443664 0.63517094 -0.4515908 -1.4737991 -1.4273303 1.7986108 -0.27235276 -2.0040953 -0.53628397 0.072664306 -0.81176746 0.38909537 -0.48042727 -1.177552 -0.6242904 0.1819152 -1.2096657 -0.089756094 0.32977316 -1.0400801 -1.0768591 0.24026273 -0.9439618 1.8965522 -1.3002834 -1.301746 0.5727363 -0.39343038 1.2511097 -0.57309455
A_771 1.4199648 -0.29097024 0.27265295 -2.7060118 0.31090832 1.9842311 -0.26325017 -2.02393 -1.6560458 0.02725607 0.94689196 4.053855 1.6160096 -1.38171 -3.0012534 0.6220364 0.8602578 -0.84738004 -2.6608899 2.424849 0.23031935 1.02158 0.11253186 -2.0809724 -0.8507886 3.352592 -0.22256406 -0.92185587 -0.70268255 -1.2440116 -1.3275883 0.12895837 1.982532 -0.79395413 2.0972853 -0.9914035 0.0994773 -0.13430035 -0.6834992 -1.3276165 0.10715645 -0.46605477 -0.90233546 0.15501434 -2.476074 -0.92945313 0.2314351 0.5113514 -0.120711945 0.3271357
A_777 0.5576864 -0.1684864 -1.0455464 -1.292723 -0.64575356 2.01968 0.6791587 -0.6032035 -1.7695545 0.4205105 0.55040365 0.8116297 0.76645017 -0.98869175 -1.3985983 1.441936 0.83982676 -1.9077442 -2.3661437 1.7154217 2.3739514 0.45858127 -1.1735753 -0.7161588 -0.38486195 1.8811617 -0.805564 -1.8505117 -0.14469804 -0.16023488 -1.7354563 -0.022238817 0.35196745 0.050437223 0.4963695 0.19132705 0.28105125 0.13090912 -1.2590652 -2.18346 0.57889766 -0.07336726 -0.7460282 -0.30465293 -2.4361923 -1.4460423 2.227323 0.99273866 1.8614608 -1.3363876
A_768 0.3314793 -0.22120072 -0.534856 -2.012708 -0.5138546 1.0220321 0.03688724 -0.96750903 -2.4251003 0.40064874 -0.23464867 1.1866062 0.8580546 -0.33050323 -2.6641817 1.1093072 -0.079579175 -2.09272 -0.8185512 1.2050502 1.3993033 0.47835207 0.35196853 -1.0150076 -0.8803484 2.5995295 0.56969905 -1.8812486 -0.67487836 0.08055595 -2.0303183 -0.8832191 2.18935 -1.6725416 0.051407106 -0.010384556 -0.2627234 -0.00702001 -0.8038102 -2.1189601 0.14569838 -0.5648268 -0.2803049 1.3713875 -3.3057394 -1.2949469 0.96867436 -0.7978998 0.8702115 -1.0710515
A_1890 -1.7990419 0.72932625 0.4607635 -0.4321515 0.66578674 -2.6085434 -1.0021552 1.64754 1.6454971 2.0547724 -1.6231395 -0.24364057 -0.51464134 1.0738685 0.44342408 -0.20016633 2.761269 0.654937 -0.28880936 0.5177919 -0.028498204 -1.8920907 -1.8591031 -0.7144055 -0.31371024 -0.21972622 -0.36426306 0.35875434 -3.872088 -0.8032449 -1.8371185 -0.41643465 0.46180215 -0.906771 -0.9905544 2.6033056 -2.570388 -0.724517 2.4299111 -0.17574798 -1.0840492 0.121919595 1.4273261 -1.6218222 -2.0096517 -1.2702624 -0.66396505 -0.56274086 1.8787123 -0.62059873
A_83 1.4495881 0.21257989 2.3030531 5.4602585 -0.38487956 -0.029198209 0.834579 2.5637257 0.4990915 1.2873315 1.3319554 0.24608634 -1.0189074 0.2889085 1.375452 -3.2949102 3.8806748 0.6898725 -2.2340293 -0.5045841 -2.0501506 -1.3978411 0.9600748 -1.4420419 -0.41549474 0.016420187 -0.8871552 0.23067905 -0.0663293 -0.9042303 1.5129637 -2.3751955 -0.6355564 0.5337003 0.72618806 -0.8923346 -0.46608463 -1.146413 -4.347979 2.0254443 -3.1535099 1.6627069 1.5013906 0.7885886 -0.021572065 0.16284065 -0.2936658 0.77819926 -1.1308289 0.6108738
A_809 -0.25520048 -1.0735985 0.16280234 -1.9181967 -2.3017309 1.181313 -0.031614736 -1.4706061 -2.5880928 0.9588343 0.7452244 2.393223 1.3107563 -0.8944348 -1.6690403 0.32942355 0.0059034578 -1.7210537 -1.2595743 1.8750503 1.2403271 1.2662898 -1.5124724 -1.59012 -0.7542382 2.6461856 -0.5508115 0.0044709817 -0.40540108 0.1965563 -1.133817 -0.43478385 0.8412328 0.21701838 -0.34996614 -0.54050606 -0.14991769 -0.069511466 -0.829709 -2.1156054 -0.0022283567 -0.33384052 -0.7070359 1.5490755 -2.2614214 0.65791875 0.51094663 -1.3078198 0.89646494 -1.61675
A_885 -1.1187847 -0.044102516 0.59778476 -1.2711538 -1.0237942 1.980863 -1.6886969 0.26984847 -1.632822 0.5495198 0.291168 2.0020447 -0.36096853 0.9209516 -2.2321165 1.4804358 0.906687 -0.43941194 -0.14593245 1.2250198 -0.3170675 1.443474 -0.8351594 -2.9458475 1.2814959 1.1655449 -0.049965262 0.11018991 0.31982493 0.024631774 -2.0922098 -0.8626116 0.93303394 -3.0028207 0.29518926 -0.7110185 0.07036283 -0.90185964 -0.012787401 0.27085486 -1.0233841 -0.52863634 1.6667665 -0.17287196 -2.0908563 -0.32618332 0.37292162 -0.83666617 1.5686463 -0.719006
A_727 0.45120618 -0.8221003 -0.23488764 -2.9891534 -0.5929703 1.3430729 -0.8570573 -0.81549335 -1.7644414 0.9006817 1.1493609 1.5704497 0.62353945 0.6847259 -1.2608018 1.9296575 1.0972223 -2.0158432 -1.2822562 1.3869513 0.63994 0.49601135 -0.5023002 -1.4283731 0.10819728 2.0716949 -1.2592893 -0.93063426 0.76620966 -0.75325704 -1.4023674 -0.085619435 1.8818322 -1.9293756 0.09250926 -0.9890779 1.2410531 -0.18409947 0.62599486 -0.1638394 -0.5199534 0.0889628 0.054099664 0.49907073 -2.0560217 -0.95903903 0.17609106 -0.22552715 0.9131694 -1.234488
A_2030 -0.83480567 0.14461328 2.4775164 1.7961947 0.16101919 -0.4800761 -4.5406346 -1.7960888 -1.5424114 0.59200025 0.4537733 -0.9633414 -0.60279006 -0.8527745 1.2293739 0.47127837 1.1825546 -2.2108989 -0.15651563 0.461952 -0.41883075 -1.2665018 -0.46353462 0.10302687 1.3422576 0.046825018 -0.4791141 -0.58618134 -0.4557858 -0.29011884 -2.6482446 -0.7038258 0.4560733 -0.24365567 4.241148 -0.1674707 -2.1745393 -0.15899655 0.59131247 2.1920838 -0.90017235 2.0736027 0.83657336 -0.5170043 2.0114114 -2.8577173 1.2892729 -0.6591551 1.055008 -0.32098225
A_796 1.0998363 -1.402272 -0.011249703 -1.3412728 -1.0788896 3.5377967 0.5351667 -1.8450004 -1.0360426 0.15267885 0.01998141 0.81899774 0.50113946 -2.2096367 -1.6073893 0.37212676 1.6526945 -1.1869011 -1.0972272 2.764907 1.7506773 0.2648887 0.35576776 -0.99911267 -0.4527336 1.4470487 -0.14332317 -2.089565 0.27923363 -0.215871 -1.6168462 -0.7294509 -0.27618504 0.36206287 -0.5693293 0.63717574 -0.14181912 -0.73060775 -0.6184683 -1.193147 0.4014562 -0.64731956 0.060708757 0.6090509 -0.6746577 -1.0392635 0.5590098 0.79094046 1.100645 -1.0636071
A_1128 -0.57707965 2.88951 -2.3601322 -1.5754244 3.9682462 3.2898598 1.7356316 1.0049239 1.8667918 3.1091511 2.6229687 0.27113104 -0.616325 0.8357997 -0.88372785 -0.86987257 -0.6360988 -0.0066980156 0.90078115 0.39850292 4.0838857 3.1424508 -0.2355068 -0.24001633 0.323786 -1.9732147 -1.5148585 -4.1184583 4.1584296 1.5866852 0.1489176 0.39255917 2.3809335 0.27137268 -0.091321036 -0.87999743 4.6884356 3.3959398 -0.15911187 1.8662044 -2.438159 -0.03306547 -1.4200898 0.2948621 0.37880546 0.8086124 -1.0679616 2.4913418 -2.3428273 -0.35166487
A_1111 -0.2698922 1.3707225 -0.021600284 -0.13339303 -0.52930146 -0.3935262 1.0918732 -0.9330321 -0.08775794 0.61877334 0.9657217 -1.463136 1.2374691 1.85753 -0.3140649 -0.26443362 0.16857532 0.6530555 -0.5714371 0.032767944 1.5935645 -1.0780942 -0.7127218 -2.4504507 0.16963878 0.6746591 0.029094372 -1.4457831 2.9120476 0.6685753 0.48154342 -1.5499543 2.886553 0.18134098 0.89538616 2.534331 2.3594153 1.2235047 1.7020656 0.96360147 1.053627 -0.4427279 -1.7827137 -0.5235515 0.05046708 0.7562347 0.21723682 -0.17133985 -0.8559142 -1.7196757
A_1937 0.04952294 -0.41390285 0.39933226 -1.0721309 0.7373358 1.2136097 -0.5510299 -3.3072379 -1.2598813 1.6537312 -0.08062705 -0.8320787 -0.95948595 0.6990323 -1.9155021 -2.2804985 2.550893 -2.1327403 -1.7789167 0.055867203 1.1139761 0.4352923 -0.895585 -1.9538324 -0.9863649 2.3277266 1.131628 -1.0427731 -0.8725822 -1.2715058 -4.0953007 0.85674 2.0521517 -3.8398192 2.3990765 2.1158948 -1.6226143 -1.1640038 0.39836076 -1.2869039 -1.3286462 -0.79085743 0.35551268 0.72729117 -3.1820507 -0.43008873 1.6587428 -0.33891937 0.71452624 1.1683899
A_2002 -2.7396023 2.232698 -3.4865932 2.3292603 -1.007189 1.4357725 -0.23182118 1.8718356 0.9279871 1.2264663 0.7378392 1.4511098 1.661656 1.5813206 0.33226278 1.0075727 -1.177209 1.3098924 -0.44831097 0.45386866 -0.8184113 0.8242315 -2.029434 0.13066815 -0.69863576 0.91756856 -0.09083921 0.913537 0.92245376 -2.8590336 -1.3974742 -0.016091505 -1.6030278 -2.5162325 1.2066321 -2.0243347 1.4363275 -3.4114647 0.6811161 1.1114999 0.9925255 -1.2362086 -0.43394428 -1.1606398 -1.6886785 0.17981589 -1.4749739 1.5816752 1.8121618 0.61254084
A_1979 0.35879368 0.057314098 0.96087533 0.6344367 -0.16168618 -0.9042154 -0.68767846 -0.3652196 -1.3638184 0.13959047 -0.119006455 0.80579 -0.24431987 0.28012282 -0.324002 0.53408307 0.72922343 0.18499954 0.8723374 -0.04227451 -0.4090809 0.51495206 -0.87590384 -0.017071001 -0.4831888 -0.76987535 -0.17349373 0.51706684 -0.5711586 -0.29561827 -0.5889199 -0.117816284 0.5866689 -1.2403207 0.24259238 0.4562705 0.77999586 -0.54155314 -0.23947223 0.96110064 -0.32645887 -0.18906723 0.6906808 -0.4435022 0.18228668 0.14933878 0.16905431 0.54149157 1.0259427 -0.23532708
A_802 0.15097146 0.266308 -0.02034323 -1.9032993 -0.4654964 1.6221191 -0.48628232 -2.1558022 -1.411907 -1.0377026 0.9184581 0.19283207 0.6052274 -0.7225206 -1.0706116 -0.8284875 2.4941993 -2.663281 0.3930473 1.8745146 2.2130795 -1.6867899 -0.04511714 -1.3050638 -1.5128084 -0.25684598 -1.1901037 1.2972378 -1.077618 -1.8278065 -0.9921517 -0.72330344 0.824692 0.40486604 -1.0702105 1.711246 0.02782936 -1.3798158 0.039563566 -1.6363845 -0.7004267 -1.3902552 0.16754055 2.3354256 -2.144479 -2.6922464 0.7820554 1.8914208 1.3134066 -0.29376206
A_1020 1.0413111 0.045876887 0.19011608 -1.5589471 1.5829519 1.5193923 1.0594748 -1.6961434 1.5587001 0.98947 -0.24238323 -0.82307947 0.9209811 -1.6387789 -1.4460229 2.3405871 -1.0868559 -1.479273 -0.35299316 2.4647524 3.6375036 -0.00413871 1.5224729 -3.0767634 2.9427137 2.7096364 -3.2922623 0.5034515 1.8952159 0.0073326286 2.1486256 -1.7349592 -2.5028596 1.1412596 0.6646686 -1.0028955 1.57786 3.4340296 2.0815485 -2.434239 0.03673541 0.91306514 -1.2993516 0.8296443 -2.0398781 1.8236753 -1.9100392 -0.23618263 -0.17691685 -0.017783035
A_644 0.9620621 0.18724075 0.31458628 0.42278 -4.083396 -1.7841707 -1.1120322 0.14847021 1.1866115 -0.93405473 1.9803672 2.0066025 -0.5226382 2.1780975 0.3729957 -2.2498147 -3.6054254 0.74545795 1.1468849 -0.9175641 2.5588632 -1.5625882 -2.9136016 -0.4754805 0.29286036 -2.0940235 -2.3798559 -2.3881154 1.7171409 -1.1731491 1.0040901 0.9988446 0.41036373 -1.6255865 -2.9613934 -0.46861044 3.6869814 -0.5111837 -0.43620023 1.593366 0.2687695 -0.6137265 1.0214206 0.60568345 1.9526526 0.5727084 -3.337605 -0.84382355 -0.13347426 1.0343769
A_1158 0.9006981 -1.5116104 1.9271036 3.296017 4.665186 -2.336003 -2.5786264 -1.3103279 -4.1249247 3.178474 -2.0839307 1.5772477 1.6097226 2.0492058 0.22207895 -5.483862 1.5229373 -0.5121762 -0.7759885 0.08172414 0.6675044 2.3683522 -1.1212058 -3.0766852 -2.4792845 0.18259305 0.8963809 -2.5194602 1.3012139 -2.7637534 1.0316831 -3.273543 0.87067074 0.58903754 -1.4648759 -0.34342864 -1.4830716 -1.3081025 1.5280613 -2.7156808 2.1759126 -2.2284143 -1.3689011 -0.57571083 -0.75117826 0.2681958 2.9060183 0.7156274 0.167832 -2.1008706
A_778 0.75191325 -0.76268756 0.6330055 -1.3907199 -3.032961 1.821523 -1.7111291 -0.8212498 -0.955711 0.6524231 0.45543483 1.9366459 2.641412 -1.5837402 -0.7233065 -1.3342123 1.0225639 -1.5321975 -0.2255788 2.104697 2.615353 0.43253002 -0.22246529 -1.9707332 0.20278732 2.7236161 0.7330456 -1.0605073 -0.8454613 -0.116254926 -2.2771873 -0.6670821 1.1381797 -1.3195457 -0.81920785 -0.4344238 -0.60181296 -1.0023881 0.17554319 0.44051117 -2.217792 0.16682611 -0.0495659 1.4740822 -0.9014361 0.38367057 0.20427455 -0.8735345 1.6801265 0.0768815
A_719 -0.09203427 -1.292532 0.9756339 -0.39246824 -0.29625887 -1.014456 -0.22952946 -0.62339234 -0.8632391 1.4562305 -0.5865463 0.87389815 0.033413034 1.6367482 -0.21200898 0.88125265 1.9063025 0.2763839 -0.42692742 -0.08472084 -0.75335646 0.79837227 -1.6097984 -0.28577304 -0.11989436 -0.08398028 -0.6998809 -1.036216 -0.85757315 -0.04553688 -0.0346841 -0.09150431 0.64510626 -0.9161328 0.93464375 0.8456531 -0.74356014 -0.24542102 0.38295466 0.106519975 -0.3114759 -0.206365 -0.86501765 0.055885747 0.94215703 -0.2484902 -0.7413028 0.29180557 0.8304467 -0.3637664
A_1121 -1.0729778 -0.34318718 -2.160707 -2.542214 -1.0710689 1.4093884 2.0316556 1.6854649 2.2770512 -0.18137473 -0.39069763 1.9126493 1.4487119 -3.3591278 -0.1408408 -2.504021 0.31630072 -0.32668507 0.13137884 0.052183136 0.9293362 -0.44916162 2.2114906 -3.3964229 0.6565363 -0.6585778 0.084725484 -0.4955839 1.2722802 1.174684 -2.4999366 -2.5431652 0.24199045 2.6959786 0.55569655 0.4195036 -3.1346169 1.7455462 0.88528156 -2.4026785 -1.1806856 -0.13387011 0.53146404 -0.92700034 -3.7649393 -1.1525351 -0.20670386 0.05039172 -0.32055372 -2.0729272
A_1138 -0.6512025 1.3555803 1.7641295 -1.3310918 0.49474606 0.982351 0.7582807 -0.17529061 -0.83928967 1.7162023 3.3215728 0.4558048 -2.9795895 1.8077623 0.8667522 -3.5370831 -0.48739767 1.6834408 -1.9907578 0.41513395 1.2129649 2.3825207 -1.1294212 -1.2120651 1.27646 1.7151492 1.0445925 -0.45330054 -1.725962 -1.475773 2.4732618 1.2008171 -0.3152881 -2.0861723 -1.915794 0.99921733 1.3862206 1.5307354 2.4417388 -2.197307 0.061421614 -0.5451968 -1.0278326 -1.6328671 -1.3859087 -2.8719876 -1.9562587 1.4110636 -0.7760813 -0.79470056
A_178 0.5301461 4.0942616 2.5880802 -1.6704435 -1.342041 -1.6095409 -0.75515944 -0.6410654 0.75321656 -1.8100193 1.3352715 -2.612997 0.18400234 2.7615933 0.29985392 -3.8701806 2.8120372 1.6659214 0.8689569 0.91614944 -3.3494172 -1.3500241 1.4218318 2.36136 1.9329703 -0.9794051 0.012989639 2.2564578 0.6021789 -2.5546412 -2.5787487 -1.0809336 -1.332125 -2.5057087 -0.16488527 -0.09626989 1.5801806 -1.7821419 -1.1934482 2.8552725 1.8492779 -0.16951302 1.2036004 3.227275 1.3899873 0.59462273 0.9166259 0.63861716 0.6070864 -0.66942465
A_1213 1.3039846 -0.3779141 -1.3829638 -0.45386973 -0.008624635 1.7337092 -0.5578674 0.27577585 -0.34489638 -0.29678428 -0.5964307 1.5242316 2.958173 -1.2804341 0.104164325 -3.256087 -1.1810805 -1.8844697 1.0300584 1.5665257 2.0255406 1.0826955 1.7960846 -0.26777598 -0.32767013 1.2348272 -0.17803629 -0.35842502 1.950976 0.3246314 0.5898375 -1.1228775 -1.1700163 3.6771715 -1.4486774 -3.0064347 -0.52678424 2.079303 1.112849 -1.2687987 2.3107557 -0.14887486 -1.6206787 0.6042482 -1.0942864 -0.27449602 2.8481164 -0.94216293 0.23921868 -0.9594958
A_1120 1.9032832 0.15727277 0.6461508 -1.2291577 -2.0197363 2.7653456 2.8351266 -1.8487861 -0.023689747 -0.49267736 -0.6991797 -1.6982924 2.4330544 0.769839 -0.6424887 -3.3687885 -0.30723876 -1.0066543 -1.0968685 1.9832488 2.048916 -0.31017205 1.2319759 1.266009 0.24818003 3.6043599 1.984729 1.4994237 -0.17173864 0.7141966 2.6708562 1.6018051 -0.879271 -0.6561261 -0.7120771 -2.5532413 1.2333828 0.2161726 -1.2472056 -2.5108702 0.6830524 1.2822958 -0.2850551 -0.19816458 -2.926236 -0.13485922 1.6263111 2.207729 0.9068694 -0.5514345
A_1286 0.12439079 -1.9893359 2.615872 0.106168315 -1.8061361 0.605121 -0.5018466 1.3075787 -0.69261074 0.7762368 -1.8637267 -1.2491001 -1.1980555 1.079146 -2.0818756 -2.070421 2.987401 2.7599766 -1.4453305 1.6650163 1.1704936 0.04691304 -0.681745 -1.4245385 -1.2322865 3.1872835 2.006513 1.2047527 1.0829642 -1.7032267 -2.4788992 -2.3194413 4.141215 -1.1022143 0.785515 0.9712733 -1.8110062 -1.354409 -0.9906223 -0.26325437 1.772969 -2.424811 -4.925368 -3.0427845 -0.156629 -2.100309 -4.2169876 0.54633117 -2.3492053 2.688731
A_877 2.2125318 0.56775445 -1.0827397 -1.7321712 -1.1689407 1.1434896 3.3122756 0.67614347 -0.053657908 -2.9189498 -1.7599639 1.0936159 1.6574059 -1.1305656 2.4974298 -0.35501587 -0.16337812 -0.25865725 -0.40925488 2.8683329 3.2861366 -0.4000554 1.4405898 -1.4539803 1.0844129 0.8830245 1.5249538 -0.61189526 -1.9001073 1.5086164 -0.5398563 -0.35384434 0.6117049 1.5231743 -1.3735157 -1.8656884 -0.09288198 1.2911476 1.051166 -3.0028648 -0.96266216 -1.419251 0.08970402 0.90104675 -1.8340595 -1.2859355 0.048729133 -1.1179638 1.4583001 2.0111883
A_797 -0.25601405 -0.60720146 0.03252538 -2.084455 -2.2057188 0.8813212 0.5491329 -1.8547695 -2.5096526 1.1104662 -0.8156312 0.8660916 1.5668957 -0.8740224 -1.4016198 0.4780332 2.5907314 -1.5755329 -2.033198 2.2870777 3.8047276 0.89760023 0.10314681 -1.5968859 -1.6440715 1.736702 -0.82529014 -0.15834317 -0.8165221 -0.6712127 -2.162966 -1.076999 2.18491 0.038802773 -0.359948 -0.25576317 -0.27333775 0.081445515 -1.5799359 -0.9640732 -0.009693144 -1.2286736 -0.1211945 0.6724848 -1.1333445 -0.113158196 0.81368643 0.27459067 1.0703765 -0.22587337
A_757 0.6075217 -1.050822 -0.31296882 -1.6885657 -1.2395422 1.5580662 -0.5303391 -0.29048178 -1.3918377 -1.0153273 0.7106757 0.2990136 1.5221206 -0.9126095 -1.2621984 -0.62113255 1.1174817 -1.4214451 -2.1698084 1.2793508 2.2714915 0.815393 -1.2715504 -1.2875744 0.30501947 1.7758088 -0.8994706 -1.3320346 -0.89021474 -0.5416339 -1.7354299 -1.4880774 1.1042818 -0.14602402 0.731604 0.544378 0.11073523 1.1386089 -0.64917785 -1.6000288 -0.6354137 -1.0935513 -1.1581566 1.0771674 -2.085327 -1.1850998 1.1906453 -0.039425135 1.9625202 -1.3081608
A_35 -2.9656105 0.7994596 -0.33761355 -0.47645947 -0.37474155 3.1766942 -0.12331053 -2.447255 -0.6130941 2.273435 3.0707033 -1.2531098 -0.68372154 1.5813296 -1.6629813 -3.6293592 0.5488192 -0.46644267 0.6143019 2.7952242 -1.0465988 -1.9256047 -1.3130697 -0.8227446 1.059493 1.5466633 -1.5550163 -1.0003335 0.9044882 3.1657362 5.586922 -1.2997056 -1.3739755 2.2939532 1.1622415 2.2805154 4.2814755 0.44874546 0.113299556 -0.7399297 -1.9877938 -1.7922021 1.1868219 -0.500555 -1.6203102 3.6640882 -4.013282 -1.9656961 -0.1958303 -1.5480814
A_800 -2.6030912 -1.0732661 1.0756296 -2.3953454 -0.5804392 2.2018912 0.36644992 -2.0185993 -0.32513273 0.507757 -2.7812536 -0.47447997 1.5272468 -3.0276926 -0.8401314 1.1709461 1.07744 1.6107141 -2.274064 1.5928485 1.4616306 1.5400274 -1.3988718 -1.2797494 1.2643472 1.1039099 1.9617225 -3.1186445 -1.0869133 0.15400194 -0.9761654 0.6296107 0.34640926 -0.41284505 -1.0610735 0.5597535 -0.66502756 1.4125692 -0.6654123 -0.75970507 0.062099226 -3.1772573 0.58681333 -1.8232716 -1.9969852 0.72387844 2.0743265 0.6752843 0.90065634 -0.56401736
A_1634 -2.5669208 -1.2111706 -2.1289868 0.4583309 -0.21684135 1.1189582 1.1110513 2.2808113 2.7706873 -0.8307574 -0.3244663 1.1860471 0.9231286 0.8141544 0.096635856 0.07240747 -2.7035885 0.36937693 1.3197048 -1.7448218 0.8827341 -0.40315446 -1.320455 0.03996763 1.2064067 -1.9574437 1.9927698 -1.5450983 0.75963646 -0.42320096 3.931959 -0.4455821 -1.5504297 -1.7762638 -0.049024932 -1.670421 2.2178419 -1.0151576 1.3106525 -0.19918728 -0.074343085 0.2020001 -0.3016509 -1.0812693 0.6498597 1.2358427 0.5986216 -1.9844546 -2.2259092 1.1168946
A_2028 0.99968714 0.5272826 2.6219192 -1.2941027 0.30626273 2.0986898 0.12449431 0.7222438 -0.8520627 1.3234739 0.9337311 -0.9988233 -0.624249 -0.5853824 -0.4722622 -0.20525658 0.8331923 -3.0168178 0.4776552 1.1243594 -0.829637 -0.14790085 -2.7447724 -0.13784523 0.20339613 2.3863683 0.65169376 -0.7368708 -1.0972283 -2.443507 -1.6210972 0.021405244 0.8631514 0.4219885 -0.053218424 1.4530822 -1.5765839 -0.12584491 1.0375996 1.7301049 -0.058808852 -0.3936738 0.55887145 -0.60042524 -0.30007172 -1.5327811 1.6553844 -0.90570056 -0.5560258 -0.5876759
A_68 2.0744498 -2.2812128 1.771489 1.9455644 1.6773562 -0.31056565 1.0471061 3.5703886 -1.4380119 0.72834456 0.8137203 1.1285392 -1.0804969 2.074001 0.38835627 -1.91041 1.3665441 0.9009457 -0.29646584 -1.2645849 -0.9048341 0.65481603 1.0956849 3.1227071 1.4570528 1.1009283 -0.6622873 0.01761213 -0.9009505 -1.9943818 -2.0386543 -2.6805124 -2.7824867 -2.0527143 1.2814634 -1.165425 1.937199 -0.8594452 -1.1231993 -2.0815406 4.0503135 0.1665603 0.67006224 0.51103777 1.8305731 -0.15604347 -0.5203643 1.2203984 0.85646677 1.2862647
A_1885 -0.88739264 -0.3955943 1.8016713 1.0830257 -0.06170372 -0.69895285 0.0392154 -0.91408664 -1.2594138 0.61239314 -0.07474284 -0.9826547 -0.23347332 0.852149 -0.29768953 0.9529575 0.4197682 -0.36863717 0.9938038 0.411725 -1.1170583 0.21387307 -0.92074317 0.9214007 -0.5751557 -0.90154815 -0.07430009 -0.44659835 -1.2073171 0.39152598 0.1910838 0.5902214 0.5710953 -0.7773796 -0.56653136 1.734553 0.12827761 -0.39536825 -0.25906867 1.1781167 0.0689419 0.15937863 0.84648997 -0.62928414 0.5772293 -1.1439142 0.29315642 1.4522519 0.3574205 -0.27436796
A_1649 -1.6303858 -3.0000906 0.05526619 2.0159369 -1.5121685 -1.1439575 -0.017495643 -0.19042134 4.0006065 0.99058807 0.94950986 0.19215284 -2.4956717 0.8607087 2.119334 1.4849563 -2.9777012 0.512777 0.009389617 -1.7054528 -1.6685458 -0.13449663 -0.67551804 0.8794531 -1.7562145 -3.346079 2.4425762 2.87332 -2.4472787 0.26706454 -1.3807756 -0.6229502 -0.25480285 -0.088495485 1.9754031 0.09659851 0.28410524 -2.736851 0.40185177 2.0733416 -1.9973708 0.48121002 -0.1994229 -1.9992265 1.3609189 1.1183901 -0.8580807 -0.6650186 -1.5619972 -1.8833393
A_733 -0.08920744 -1.4796715 0.35538334 -0.818862 1.4906261 0.9582152 1.7562962 0.7289175 2.034782 -0.7139668 0.023478212 -0.52493227 -2.9662962 -0.6174764 -1.4995701 0.5213807 -2.4421866 0.0662886 0.9191381 3.801247 1.9024508 2.8495677 -0.5936136 -1.5397869 -0.104221985 -2.461967 -0.5995657 -1.3397161 3.892355 1.6685823 0.20680314 0.20398478 1.702025 0.79830575 -0.19189408 2.0125713 6.7841773 -0.969881 -1.7652667 -0.9082677 -0.008269335 0.07675029 -1.6787014 -0.47018513 -0.34995273 -0.32302234 -2.7111745 -4.4541574 -2.5691242 -0.93499553
A_789 -1.0113206 -0.8591466 -0.20635824 -1.5864388 -0.4251783 1.4849801 -0.032377567 -0.8634849 -1.5166938 0.68121094 -0.52803934 0.35171247 1.5116702 -2.3786912 -0.8442357 -0.7098091 1.7860707 -2.0205615 -1.2331944 -0.5111575 2.0364728 -1.2206157 -0.9023984 -1.2733238 -1.4890367 2.4886985 1.3202515 -0.59730023 -2.5945942 -1.0385758 -2.1438096 0.29156694 -0.096186295 -0.06796409 -0.29393122 0.35819423 -2.058881 -0.434605 -0.89892834 -1.9792197 -0.70232856 -0.38834155 -2.016698 1.8350844 -3.1556253 0.68196625 1.6118017 -0.113168254 2.8221245 -0.27746743
A_1149 -1.1308215 0.9584799 2.6989098 1.5074738 0.103642605 0.5012701 1.601993 -3.2846994 0.5582081 1.0382499 -0.41452402 -1.423478 -0.747484 -0.8024326 -1.4800075 0.5627046 1.4835023 -0.3160369 -1.172109 -1.5690298 1.6312014 -1.7095497 -3.3406777 -4.3899627 0.79913044 7.1298237 2.8208776 -0.33776835 1.6518544 -1.6867977 -1.0421408 -3.6479695 2.1416323 -5.827645 -1.8354067 2.994673 -3.0170097 1.0123041 2.4283805 -2.2668462 0.105389506 0.68841326 0.46844795 1.465308 -0.6377049 -0.7940584 0.9376566 2.950972 0.2251232 0.9665002
A_1488 -1.0705205 -0.875024 -1.5206467 0.67182994 1.503762 0.80260104 0.5012402 -0.15207312 0.65465343 1.7304147 1.164876 0.057429645 1.4806765 0.65464056 -1.7994063 1.2257214 -1.8433901 -2.3206122 -0.0021110324 1.8135743 2.2374237 -1.0452148 -0.7348552 0.12336612 2.356993 -1.9584364 -0.21972731 -0.23382615 0.63705444 2.3090556 1.0585482 -0.56090295 -2.6300263 1.5808147 -2.6290135 -0.52045596 3.3255644 2.2165961 -0.39091438 -1.79207 2.2338543 -1.9141871 -0.5841159 0.3758877 0.42863116 2.968833 -1.2987101 0.6633145 -0.31634 -0.10737017
A_734 2.324779 1.0643082 -3.0428255 -0.4597132 -0.26459038 -2.2462478 0.8523188 3.2760031 -2.1022224 3.6174698 1.8408 0.67026436 -0.1576493 -3.695413 -1.6887298 -0.33899796 -2.1057334 0.88002354 0.28291658 1.0437279 1.740302 2.8993032 -3.6096551 0.3514684 1.6379242 -0.35847113 -0.2310524 -1.3893703 2.3456962 2.7991548 4.057765 -0.5234503 1.7143581 0.09732177 -0.38965178 -0.46463594 4.824593 1.5853992 0.93415785 -1.1038803 0.34050497 1.6344445 1.3572694 1.1074891 -1.0998675 0.56544775 -1.407278 -1.4541065 -3.498673 -1.7130538
A_775 0.2082391 0.79207075 0.06291035 -0.5875686 -2.4465048 2.046544 1.1691101 0.36316815 -0.7098435 -1.136139 1.1595436 1.6245308 0.42172375 -0.75349325 -0.04729141 0.28197232 -0.4059014 -0.13567391 -2.1191914 1.7329671 2.6058326 1.0872426 -2.0059433 -1.3125979 0.8357935 1.6914384 -0.8856517 -0.9101261 -0.38079816 -1.0609906 -0.65560836 -0.6320309 1.6814247 1.378873 -0.9540171 0.7272803 1.106538 -0.16686648 0.2646893 -1.3785262 -0.33128425 1.3289174 -1.0320036 0.30384985 -1.3407303 -1.1172237 2.3193872 -0.7458865 0.8695164 -0.44871643
A_710 -1.7274283 -1.3187121 1.5788926 -2.1939888 1.059557 -2.5400732 -2.834077 -1.3383636 0.85913336 0.26481503 0.51167786 0.26823613 -2.852416 -0.2649329 1.4889327 2.72801 -0.12205726 1.2410203 -0.32825893 -0.13362055 -1.03737 -1.423745 -1.0664123 0.07944705 -1.5957103 2.7971692 -0.11068472 1.0873891 -0.78327316 2.2423165 -2.3812528 -0.8694558 -0.2324754 -0.41711265 3.1386404 0.16787213 0.6948583 0.37389553 0.057874095 2.0995421 1.46626 1.8538412 3.147526 0.45222706 1.5688853 -0.2521933 3.1554122 -2.0389748 2.6579256 -0.21700925
A_1492 1.003577 1.7496908 -1.6900791 0.69653755 0.77497745 0.6611227 -0.9171963 -0.993974 3.7001672 -1.1298912 0.6024562 -0.05302049 1.2483317 -1.8284472 -1.7099653 0.54344785 0.096104026 -1.9962467 -0.5824333 1.5747542 1.2795782 -1.6327809 0.084027864 0.30880386 3.1978142 0.43910313 -0.9009301 0.6699784 0.9478813 2.747735 1.0221089 0.046538446 -1.6730243 0.79287666 -0.24906883 -0.85250443 2.2405314 1.7421525 -0.050676424 0.90053713 -0.23777436 0.086937346 -1.6827873 1.2092847 -0.3969779 1.2536895 -1.4908656 -0.8669378 -2.4394476 0.30434182
A_549 -0.37452412 -0.5823253 0.32000968 -0.40244508 -1.0477868 0.1427565 -1.0268899 0.054910317 -0.87129587 0.43638948 0.8664972 0.024274064 -1.1309783 0.801156 0.66037506 2.5053303 0.73546356 -1.1871634 0.4472398 1.5330045 0.07544522 -0.42563593 -1.1964893 -0.16640337 -1.2156396 -0.5251708 -1.539146 0.8508423 -0.7468802 1.2559614 -0.69900423 0.5913208 0.84816444 -1.5357593 1.4309435 -0.32139796 -0.180708 0.8202574 0.5120338 1.2700098 -1.0272954 0.4748506 1.7618933 0.94023585 -0.043306813 0.028689953 1.3755004 -0.2720553 1.1036065 -1.2349819
A_1215 -0.1770453 -1.7730833 0.56323874 -1.6655126 -2.7794285 1.1629204 1.3868581 0.2827495 1.6613542 -0.98497885 -2.0330124 0.47002333 2.7177365 -0.60854113 -0.74215764 -1.4399477 -0.2596495 -0.08128685 -2.065036 0.45097518 2.658593 0.4414332 2.1973596 0.37031865 -0.23100513 1.5304532 -0.20606785 0.804863 1.2101054 3.0234313 -0.747705 -0.43404967 0.31434846 0.8068438 -0.37591487 -0.42980826 -1.6400033 1.319599 -0.3851593 -1.6059018 -0.110413864 1.6058025 -1.687007 0.95972383 -2.8299403 0.3755804 0.24706692 -0.44218585 1.0608085 0.37056777
A_340 -1.5393052 -0.59780663 -0.9350753 0.8907149 0.12367617 0.5176458 -1.0801002 -0.71017665 -0.39964974 0.65147185 -0.90059066 -0.43891332 0.5928582 1.2784233 0.15673822 2.073993 1.1516949 -1.3008535 0.042785835 -0.2762892 -0.5858034 -0.33004215 -0.7014795 -1.1398332 -1.4280444 -2.6242175 -0.07190524 1.0418748 -2.4564998 -1.0015892 -0.3301078 1.0664608 -0.89712304 -0.9942718 0.5918145 -1.4399686 1.2615019 -2.769696 -0.1527174 2.648817 0.80105364 -0.6140234 0.6075976 -0.57970214 -0.0143568115 1.3334403 0.17135139 -0.22250232 0.8761699 -1.6520649
A_1858 -2.6372685 -2.232181 -0.94978994 1.0921383 0.6748829 -0.9647848 -2.7038677 -0.46581462 0.92731977 -3.9307382 2.604785 -3.2456417 -4.692056 1.3834755 0.3444607 -0.82009274 -0.20902705 -0.21098834 2.5524054 -0.8633532 -3.6746693 -2.6769483 4.4610677 -1.7923081 0.3255885 -1.0611498 1.2912661 -3.6167252 -1.8763626 1.2528939 0.40695724 0.75956964 0.86280406 0.58358705 1.6886691 0.6470577 -4.0062513 -1.3322331 1.5886613 3.7011979 4.0448904 -0.91747 0.2366365 -1.8793631 -1.9971286 -1.2337254 1.7875292 2.780399 -0.32963005 3.0786014
A_552 -4.795536 -1.8154489 -1.0895157 -0.4761503 0.42583922 -1.1076051 -2.842214 1.1431639 -0.8623684 2.1288838 1.806741 -2.2076085 -2.2030025 -1.1955875 2.6209395 0.69388485 -1.2630975 -1.9910426 1.2800424 -0.07177646 -1.8030134 -2.0933805 0.78098 -0.57530934 -1.9191282 1.5068591 0.37829116 2.5740728 -0.5079358 2.4221792 -1.1507252 -0.37377506 0.9777373 -1.06226 2.7217243 -2.4691474 -0.3434367 2.299764 -0.72064865 3.3379395 0.6960416 2.723784 3.3216949 1.7951564 3.4120996 -1.2294214 2.5294585 0.12138021 1.9371171 0.0935477
A_1577 -0.3397125 1.7612369 -1.9416368 -1.1490922 3.166221 -0.46246377 1.9014573 3.0725532 1.6370503 -0.5050652 3.3221114 0.5622029 0.9226591 0.6089764 -1.9179122 -1.6916026 -0.731378 -0.103570886 -1.1784614 1.2753638 1.9241744 -0.94801193 -0.49130514 -0.058794957 1.6569353 -2.4962134 -1.8821329 -1.2167773 0.8097015 1.0980867 1.1423248 0.027561508 -0.6700228 -0.63354105 0.8565605 1.3620654 5.1486793 0.40863267 1.483342 -1.005963 -1.557633 0.3551828 -0.59526646 2.158637 -0.71104896 -0.3009524 -2.561813 -1.865728 -0.3988355 -0.75247705
A_241 -0.27713415 3.0321589 1.7364477 -0.41496387 0.06485206 -3.2413776 0.69750243 -1.1618416 0.054326404 -0.37330717 -0.381844 1.9371387 0.69956243 2.5985122 -1.5154066 1.1123067 2.3820179 1.4479885 -0.15695752 0.8167181 -0.885321 -3.1369781 1.2387576 0.013184408 0.29601333 -0.7422128 -0.07494941 -0.7375834 0.6685161 -1.4931966 -4.211586 0.85086316 -2.4906504 -1.785429 -1.15422 -0.84902775 1.566097 0.33681104 -1.217121 -1.2510985 1.8113248 2.552093 2.7741907 -1.2498966 0.5620593 2.442758 0.61913115 0.6084315 1.605991 -2.0599585
A_810 0.038881343 -0.2784646 0.13337651 -2.1610227 -2.2005339 1.1701974 0.33307728 0.23698963 -1.0065868 0.23720482 0.33929104 1.2647889 1.5636709 -0.43747225 -0.14592098 -0.56665117 -0.7004383 -0.9579361 -1.4643433 1.5144297 2.9991837 1.1715999 -0.481946 -0.75489414 -0.12426563 2.3415232 -0.9596551 -0.112223394 -1.054131 0.20464009 -1.7803363 0.45486927 1.3638338 0.13160156 -0.3221588 0.31873026 -0.52317446 0.763408 -0.26501974 -1.4151376 -0.8992489 0.08618643 -0.74602836 1.5961379 -2.8314025 -2.1121054 2.0903604 -0.5861498 0.37368172 0.047009993
A_787 0.42867354 -0.5604675 -0.447712 -1.5426185 -1.5674391 3.0554497 -1.4568466 -0.4730694 0.21622662 -1.0131743 0.77876836 1.9697285 0.44874087 -0.7239402 -1.1604242 -0.2736589 -0.07831451 -1.0773023 -0.90832025 2.8563232 1.443502 0.43405008 -0.6866275 -0.66628325 -0.66928935 2.1215394 0.80555415 -1.6058706 -0.4001089 -0.7789436 -1.9109719 -0.10547735 0.27394515 -0.61264616 0.41650727 0.4281 -0.76931673 -0.04463105 -0.77226377 -1.5209014 -0.4752903 -0.3522309 -0.7897695 1.7126423 -1.9200947 -1.0595475 0.6947871 0.34844008 1.9950764 -1.3734567
A_1657 -0.6100905 -1.552871 1.6790147 1.431283 -0.78092104 2.3982887 -2.695926 -2.3430657 -3.4027286 -0.47033602 0.028785614 0.5748827 -1.9106451 1.6622233 -2.984306 5.961426 1.4084294 -0.13093622 -0.037046038 2.167482 0.9675773 2.2410815 -0.659431 -1.127791 -0.5751147 -1.2520337 -3.161917 -0.33830228 -4.3772054 0.09637002 -0.32197762 1.7973776 0.44124514 -2.732904 -0.5512071 -1.8692366 -0.1399353 -0.06008417 -0.4247847 1.8087581 0.37363154 -0.83781624 1.550418 3.2359612 -2.329415 -1.8260626 1.2323099 -2.0430984 1.9713196 2.5974715
A_61 1.7473596 2.2919726 0.2715957 4.2702775 -0.3085821 -2.7886887 2.6839366 2.1171808 -1.8857847 -0.2530711 1.2726089 0.17436665 -1.6292973 0.89774275 -0.38239384 0.6436697 0.30985218 -0.30341887 -2.1889422 -1.2597672 -0.40211877 1.0601408 1.4461439 -0.08829862 -0.74826413 0.37910667 0.46536946 0.5665727 1.4635451 0.8950053 -0.013453263 -4.0226417 1.5530701 1.9449232 -0.6952274 1.2414036 -1.0669984 -0.03273563 -1.5092037 1.0057849 1.9352536 0.9854659 -0.54011804 2.1022449 0.7599684 0.053739518 -0.89093864 1.5234098 -2.4144998 1.1417001
A_81 0.668715 -0.21340798 0.38521016 3.1189287 1.3775142 0.08058276 0.69234806 3.1135242 -0.60491943 -0.25617155 2.2706113 0.32998934 -0.28866085 -0.9809168 0.5016954 -3.6921434 2.5275228 0.05624986 -1.4755845 -0.36089924 -2.5853436 1.7003791 1.6027949 -0.6352175 -1.6315699 -2.2966914 -0.9881872 -1.3844676 -0.9158355 0.33019587 0.76290977 -3.0378053 -1.0395421 1.1765398 1.9952115 0.45976526 -0.52839464 -2.113446 -2.8179255 2.6998394 -2.0217147 -0.055221025 2.2499926 0.9737296 -0.40495056 0.50194246 -1.9331372 0.023610625 -1.9318051 2.309204
A_1650 -0.94177663 -2.6762774 1.2186743 2.3993986 -0.81718975 -0.6564537 0.08406428 -1.2613381 4.0720644 0.43442684 0.6771119 -0.30268556 -1.5611033 1.8070359 1.9675164 2.296555 -2.9466188 0.9460239 0.09296203 -1.6805549 -1.2487499 -0.061047126 0.033190798 1.0179069 -2.564049 -3.9208887 2.373394 2.569208 -1.5998511 -0.09334499 -2.0594263 -0.4225584 -0.3928832 0.18698202 1.3236353 0.26975366 0.29659042 -2.758668 0.7589007 3.102534 -1.6070203 1.0055729 0.9515574 -0.3931057 2.4900374 0.4386844 -1.0424299 0.6271916 -1.7292132 -1.471844
A_756 1.643508 1.0303546 0.5240635 -0.65524274 3.2625253 1.0900769 -0.62801415 0.9762973 0.2186314 1.9534473 0.2688334 -1.1661944 -0.48032802 1.4030162 -1.2054745 0.098048106 -1.0856286 -1.3905582 -1.4303786 3.075048 2.3328393 0.34935924 -0.18940003 0.38311455 1.7169242 0.300387 -2.1284342 -3.4434843 4.408867 1.5518547 2.8558295 0.40879166 0.57845634 -0.7146452 -1.1793644 -0.26730213 5.9636755 1.0284929 1.0969659 -0.7713788 -0.52923745 0.59006286 -0.49506646 -0.9751044 -1.1549108 -1.7624495 -1.3121175 -0.8523956 0.04893261 -2.40694
A_1574 -0.708992 -0.6530839 -1.9701538 -3.1796894 -0.50552756 -2.1056898 2.1400733 0.5758312 2.8441274 -2.549833 3.1550431 0.2033482 0.11098977 0.7126827 -1.0920933 -0.48418054 -2.6933835 0.28208753 -2.1558888 0.9146106 2.3849933 1.4056029 -2.4024844 0.9941872 2.8893936 0.4849475 -0.015077777 -2.0274248 3.2251742 0.39592746 2.5606885 2.5916467 0.3914882 -2.6960793 0.87025386 -0.14037427 4.359577 -2.9204166 -2.048017 4.0578227 3.6706748 -0.49628595 1.6094935 -2.1212015 -0.725877 1.4919976 0.43630296 0.7447587 -2.3810816 2.1859396
A_1938 0.09586197 -1.5635031 -0.3707184 -0.13387673 -0.588922 1.380224 -0.1425814 -3.6751916 -1.3712534 2.727414 0.7262464 0.045987245 -0.731561 2.1208038 -0.21018258 -3.6476939 0.41869646 -1.7509724 -1.5681977 -1.9804095 0.89911145 -0.7778983 -1.0874732 -1.8062998 -0.45598933 3.820667 2.7529163 -2.3194923 -0.6131049 -1.6437258 -4.167967 0.5477391 2.4704564 -3.3263838 1.230304 1.4215488 -2.433408 -0.5886861 1.6151121 -1.545518 0.44398025 0.46172056 -0.36587462 -0.91465354 -2.351006 -0.1733577 0.3034414 0.07187325 -1.3910103 1.8017724
A_71 0.09464504 0.20302998 0.8687568 3.4194386 -0.6825659 -2.6922426 -0.08898557 0.12149712 1.3433267 2.3013039 0.40039843 2.6590483 -3.052261 -0.77614033 3.155973 -0.8654362 0.73260826 0.8372796 -0.696985 -2.5035892 -0.56468904 0.7441662 0.8355686 0.2963682 0.3369416 0.99599993 -0.8655658 -1.3998238 -0.28913578 -0.26254353 0.28331962 -0.9575211 -1.0857643 1.8515604 1.8423141 0.6505657 -2.0746355 -0.2814509 -4.123163 0.49739882 0.47827762 -1.2731217 -1.0780298 1.0513496 -3.7456934 1.9103805 -2.1252077 -0.7077014 -1.273873 0.7081456
A_1894 0.87646794 -0.588248 0.62425417 0.15711805 -0.7706566 1.0073758 2.389993 -4.5454097 -0.59632915 1.5320513 -0.20059204 -0.44985777 -0.46470946 1.0037609 -1.9345589 -2.1414905 0.056576356 -0.5468908 -2.3917103 1.6062907 -1.8008293 1.5350469 -1.3224603 -2.6698081 0.06710543 3.9187555 0.9132872 0.013828774 -0.65107286 -1.3954213 -3.6271915 -2.0805354 2.4311156 -1.2456058 -0.89908504 1.9569849 -0.19849251 -3.6143937 2.4367983 -0.57845426 1.2088076 0.24958831 0.72901064 -1.526459 -1.2829733 -2.3973405 -0.32757834 -1.6639658 1.8165448 0.050336916
A_1931 0.23212856 2.1771321 2.0953257 -1.2544389 -0.08922875 -0.45444056 0.22948903 -2.163203 -0.7809914 4.132792 2.1391246 -0.666741 0.53260607 0.940433 -0.77691543 -4.177132 0.88312376 0.21211948 -2.7895458 0.18230422 1.1529753 1.3564434 -1.6676847 -2.1212928 -1.1111765 2.6389062 3.6924186 -0.4423856 -1.0221779 1.0876404 -1.8034793 -0.90656644 1.7152029 -3.284357 0.53510714 2.3040144 -2.652812 0.9568306 -0.22549072 -1.658853 0.32851318 -1.2829905 -2.237628 0.25211957 -1.9025512 -3.2385447 0.4726688 -0.99731576 -0.029973617 0.27432454
A_19 0.09373371 1.410595 -0.88862133 -2.061031 -1.5867113 -1.1103361 -0.75935024 2.9723492 4.0256886 -2.0985677 3.8047426 -0.63481075 0.33008727 -1.148578 0.34489217 -1.3052765 0.7584114 -0.38802573 2.8551095 2.9577208 3.495803 2.8725286 -3.3761966 -1.4367893 2.3123734 -0.79026085 -0.6946966 -1.1046293 1.4160666 -1.6721888 3.803103 -5.319849 1.7882509 -1.4614844 -1.1209917 -0.2842585 4.7310467 -1.0299988 -2.168555 0.9795145 2.0262437 2.984948 -0.31097105 -1.638731 1.3190575 -0.16930898 -1.2760321 0.28025836 -0.3555807 1.6313853
A_1667 -3.3454802 0.98930347 0.74983823 -1.0118699 1.9547961 -3.0557454 0.039742935 -0.07239353 -1.1051688 -1.405634 0.27038383 -1.5746136 -2.5529504 -2.1441035 0.3177953 0.5095392 -0.7085822 -0.4305823 -0.06575639 -2.2339768 0.7537575 -1.2679148 1.9393702 -2.3797572 -0.86582154 -1.9935023 0.5729945 1.5655317 -2.5764298 1.3821644 -2.233954 0.42492962 0.4021403 1.031258 2.3106904 0.84102815 0.9964239 -0.6944298 -0.097738944 2.576501 0.12714125 3.221657 1.092779 0.57213914 3.7210884 -1.8117503 -0.2612264 -1.1123511 0.5287284 0.8586412
A_1860 1.1612725 -0.5573323 -2.450466 5.3459535 -0.21524979 -1.6036392 -0.33584446 0.9789208 -0.18952236 -0.5524217 -0.8893437 -2.397559 -4.059172 0.035911106 -0.34187788 -1.504895 -0.41602886 -0.54966396 1.7794474 1.5456767 -0.24482407 -1.7372627 -1.0465872 -1.9794149 0.64138967 0.22277328 2.8210053 -0.73940414 -2.973396 2.9628832 2.0280113 0.28806788 -1.6449171 -0.418773 1.0546049 2.2037394 -0.57707727 0.6730133 -0.5758394 -0.35596257 -0.69336665 0.31131434 -0.59366333 -1.9304516 2.6819408 -0.2988643 2.8890204 -0.38770938 -2.3219726 -1.0488361
A_181 -2.3623066 3.3549562 1.6625086 1.622725 -2.8570125 -4.1534286 -0.082589336 0.807394 -1.0191013 0.40742654 -1.0143408 -4.785302 -0.38601232 1.1963879 -1.8197395 -0.958342 1.4860725 1.4801545 1.6146575 1.385677 -0.71737 1.4745449 1.2442069 0.07638969 0.8721656 -2.5271757 1.5175334 1.5657738 2.643861 -3.5226622 -3.711145 1.8920568 -0.2941002 1.4589789 -0.82182324 1.2514037 1.2518427 2.6228726 -0.80975753 1.7385436 3.0900135 0.032043386 1.2107751 1.0698311 0.58460665 1.5066226 -0.8953783 -2.5816247 0.67212844 -0.96995586
A_639 0.5091015 -0.54652375 0.07856246 -2.1354702 -0.4105662 0.6177434 -0.12298033 -0.35069445 -1.0132501 3.0501451 1.2272035 1.3070084 2.6581202 1.815743 -1.8255241 0.51596403 0.19158094 -3.5392249 -0.6968908 1.1071225 0.029233722 1.7929652 -2.1136117 -2.8140647 -0.22786403 4.6203876 0.31986088 -0.06927043 -1.5496442 -2.6722546 -2.577494 -0.7215079 1.9280839 -2.1121538 -0.22020596 -0.23891607 0.6853131 2.1129978 0.2665846 1.2394177 1.3721535 -0.34700778 -0.07796138 -1.8258547 -1.5508566 -2.3238933 -1.3572195 -1.2485569 0.5754122 -2.7913415
A_20 -2.2400837 1.2359272 -1.0876304 -0.52540535 -0.3750588 -0.7164505 1.3639296 -0.77440774 -0.8895907 -0.7224749 1.031741 0.64087594 -2.0310526 -1.6172444 3.3373961 -2.6215906 -3.1073055 -1.6880673 2.9438891 -0.1127851 5.986858 3.3257442 -1.9070548 2.6019552 3.7058997 -1.4394284 -2.3402057 -2.8328128 1.750141 -1.8853287 2.5653772 -1.8969572 0.60408956 -3.0943193 -0.6597776 1.8228914 3.5682218 -1.0851498 -0.12780009 1.7907404 0.8233159 0.27945182 -0.32823938 0.07292222 -0.9033105 1.9940715 0.3578559 -2.8631809 -2.5417116 -1.2475917
A_755 1.8598447 1.3710872 -0.19200811 -0.5683662 1.4697385 1.14935 -0.51084465 0.083215244 -0.5870176 2.0329947 1.0897361 -0.026952522 -0.9655095 1.4205608 -1.421453 0.0768245 0.56490564 -1.4852511 -1.5480088 2.1452634 1.2892123 0.17916599 -0.7995955 -0.04474092 1.5309982 1.507437 -1.4891208 -2.4067643 2.620415 0.5536416 1.6957422 0.14544758 1.8969917 -1.4973674 -0.5506085 0.13787733 5.009878 1.6173989 1.2268783 -0.8069997 0.16876629 -0.17791241 -0.7034704 -0.8956722 -1.3560184 -0.96023744 -1.3632742 -1.0105141 0.79738975 -2.0923429
A_600 -1.148301 -0.28310037 -0.31533134 0.40995324 -0.5141736 0.9713565 -1.0507298 -1.1114825 -1.6906065 2.274796 -1.1248816 -1.1677959 -1.8763645 1.3566495 0.8111233 2.4158146 0.42469642 0.63416165 2.280339 2.969455 -0.9378514 -0.42400774 -0.6263763 2.3926256 -1.5720384 -0.9953071 -0.97747236 0.011911556 -1.4984128 -0.07746066 -0.08143967 -0.20961423 0.9437144 -0.09240481 -1.2946256 -0.03392464 -1.7333639 0.87370265 0.51228315 2.0420606 -0.75761694 0.4699237 1.1358917 0.7556574 -0.9038319 -0.26036462 3.7357066 -0.7438432 1.4828216 -1.5598601
A_779 0.0845151 -0.33609128 -0.43698716 -0.8569248 -2.1179717 2.259762 0.20999946 0.35654223 0.690029 0.60526484 0.24565095 1.4903224 1.9312344 -0.11463792 -0.7344085 -0.5329547 0.09405032 -0.8352529 -1.3013196 1.3734018 3.4362137 1.3610629 -0.64066845 -0.17294554 0.5890672 0.5104843 -0.19245659 -1.5928427 0.60727096 -0.5071212 -2.340976 0.037390396 1.4619535 -0.43493864 -0.5496268 0.62697595 -1.1595408 0.14733799 -1.28105 -0.6064397 0.067481264 1.4130446 -0.62566304 1.228471 -1.5180153 -3.2692447 3.0526066 0.6481954 1.9231293 -0.16472127
A_1640 -1.774611 -0.38852298 -1.74831 -0.9909353 0.4328822 2.388378 0.60425985 0.79694146 1.2102149 -1.2707837 -0.03642619 1.2938188 -1.619386 -0.0356753 -0.115161605 -0.37686062 -2.493663 1.5181181 0.19074215 0.63586396 0.55991554 -0.16702874 0.3262393 0.055558186 2.373024 -1.6432858 -0.09119405 -2.76708 1.2459847 0.48524606 5.0824614 -2.860363 0.10503635 -0.077096 -0.1842027 -1.3897504 1.6680499 -0.5094806 0.408712 0.50555474 0.57217413 1.539665 -0.7955414 0.245038 1.6484363 -1.0371081 0.30688775 -2.3275337 -3.2232192 -0.554699
A_230 1.9235151 4.608745 0.31799117 0.9844639 -0.9537679 -1.9096233 1.8419354 -1.0141585 1.7342937 2.9429646 0.042254295 -0.63754505 -2.5730686 1.3601247 -0.42227247 -2.2438493 0.81112015 1.4678414 -0.22310793 -0.53143656 -2.4960327 -1.4192259 2.2299483 0.9909716 2.4796028 -0.7008486 1.6583186 0.4388718 -0.85173523 -4.9162765 -2.4234064 2.6469965 2.0404465 0.75231093 -0.61753505 0.80173934 1.6450987 0.26244673 -2.0432286 3.47685 0.49072677 3.3990946 -0.5161519 1.5980268 -0.38759717 0.7340379 2.281967 -0.34554124 0.7755826 -2.4475951
A_780 -0.06768895 -1.1339824 -0.21490471 -2.7914553 -1.5296541 1.3954141 0.5356956 -0.88510734 -0.8329913 0.0030047789 0.30684415 0.8219616 1.1836277 -1.280463 -0.12864901 0.49347255 0.23432206 -0.8369342 -0.24350104 0.85858375 2.090096 0.18046612 0.85723585 -1.3801602 -0.11472593 2.6087642 -1.349529 -2.2543585 -1.074666 1.1949595 -1.3844702 0.013145965 -0.24467774 0.9497315 -0.521553 0.02736429 -0.21084473 -0.12083999 -0.6829399 -1.3388252 0.22275753 -0.038083486 -1.2141023 1.3170818 -1.4619939 -1.7421111 0.638045 0.4836913 0.8917323 -0.15931572
A_1536 0.3355617 0.23323934 -2.313618 -0.6081141 0.8820449 0.9100173 -1.5658216 -1.0258372 1.1101521 3.309208 2.1952155 -0.15165512 1.6212925 0.9026359 -1.1449386 1.4231869 0.027079448 -2.7870796 -0.11258742 2.59268 1.903863 -1.7890747 -0.23945972 -0.32948613 4.767341 -1.6607921 -3.5452886 -3.0256977 3.6686957 1.5394568 1.0655888 1.7932575 -1.9957141 1.727139 2.3495038 -0.72766066 2.3064938 2.3506365 -1.1832538 -2.0546465 0.4408624 0.8778539 -1.4646118 -0.36976126 -3.2814693 2.1489673 -3.690061 0.30075425 -2.6393766 1.3764675
A_817 1.6679925 1.2388959 2.6671214 -2.1254153 0.624015 2.2005243 -0.5391841 -2.6888113 0.13221799 -0.5270424 1.8769194 -0.26646703 -0.110299096 -1.2331595 -1.472145 0.98296154 -0.13287868 0.58562744 -1.1283183 -0.37158817 2.1785965 0.5419542 0.46375147 0.15484285 1.5147524 -1.1434528 0.49229497 -1.3567803 1.7917178 1.1628368 0.39321348 -1.64913 0.380352 2.2361655 0.8008136 1.3200608 2.114576 -0.72428244 2.0424585 -2.1644244 0.19842497 -1.3765869 -2.0275207 1.4137105 -1.7296782 -0.71332866 -0.734739 1.7476877 -0.95787454 -2.396962
A_1017 1.1588638 -2.259386 -3.0489793 -0.14283745 -0.79689425 1.1957626 0.37629864 -1.5535631 0.9363063 -0.7536612 -0.53753054 1.2597301 1.2788998 -2.5393198 1.3209865 -2.4732213 -0.50467974 -1.2175816 -1.5078543 2.732899 2.6794271 0.30155578 1.8034915 -1.6377122 0.9202617 0.13113791 -0.7583165 0.60252374 1.9452537 2.2778232 0.86669374 -0.17636539 0.07591517 -0.53581053 -0.1454329 0.15477476 1.4196383 3.227604 1.2885451 -2.5048985 0.25886196 1.2251669 -2.1020496 -1.0131015 -1.073063 1.1740904 -0.66085184 1.0686274 0.88610643 -0.17536469
A_1537 1.8363888 1.0038537 -0.56617993 -0.69326466 1.9362022 3.9576957 1.387166 -1.4212005 0.84174514 2.0081882 1.1778072 -0.3260914 -0.25629103 -0.47554243 -0.2608802 1.9286292 0.006426379 -0.89264625 0.8844004 4.0254183 1.6844511 -1.8552556 1.3375953 -0.028730396 1.2073731 0.99118763 -4.1988077 0.1100258 1.6222721 2.8807023 1.6694971 -1.1093808 -1.6789083 -0.71127677 -0.30994377 0.61155134 3.5110085 1.3859429 2.253835 0.15015718 2.0026517 -0.55641127 -0.758156 1.7093289 -0.24903502 0.71107453 -5.808496 1.0015277 -1.2566289 0.08313487
A_1630 -1.7992481 0.1545203 -2.3348145 1.1139779 -0.56780636 0.96616584 0.14056243 1.4677923 2.3272228 0.84005886 -1.7264204 2.0110824 0.825421 -0.11506443 -0.25044402 2.1827738 -0.62048227 1.9838556 0.721316 -1.5710472 -1.4850186 -2.103249 1.1786677 1.1704293 -0.6705075 -0.9534484 1.9134002 1.2743309 -0.4835594 -2.8696764 2.2242613 0.52703166 -1.5117667 -0.058845162 0.62842476 -2.13834 0.22755717 -2.32424 0.979902 0.66400856 -0.053889636 1.225955 -1.85952 -0.95785934 -1.8192168 -1.0687981 0.6459627 -0.37507817 -1.7170264 -0.3748938
A_1241 -2.7852533 1.4517324 -1.8875809 -0.27522436 0.79077774 -3.3883443 3.7629998 -1.9340928 -0.078666046 -1.1569164 2.6275222 0.15015914 -1.0918152 -0.6280819 1.7995737 -0.39037228 -1.5080069 -1.2023385 3.0034082 2.2192597 2.839869 -1.2338884 -1.8773273 -1.6881136 2.4223611 -2.0337641 0.33492926 -5.553063 1.933769 -0.7965187 2.9041598 -1.3076339 0.37126496 0.30169603 0.44632292 -0.91404873 2.3444524 -3.0143702 -2.2056284 -1.6413054 -0.86279255 1.2955521 3.2426283 -2.1292975 1.8532149 -0.2224413 -1.3938491 1.5293798 -1.2754577 0.25473642
A_592 -1.5324839 0.2917166 0.42519015 0.22506139 -0.6721524 -1.7629639 -1.9769777 -0.45900488 -1.5876713 -1.0862392 1.3298706 1.8025227 -2.1471097 1.6793627 1.6456392 2.5080786 -0.7929329 -1.0248069 -0.12049261 2.4101663 -0.94309884 -0.44177622 -0.73682415 1.3459258 -1.3545568 1.5074011 -0.6915307 0.96709526 0.43469948 1.338907 -2.7366245 0.15521616 0.3368626 -0.81163925 1.8479774 0.63403314 -2.1305294 0.64283115 -0.22809583 2.232579 -0.29825592 3.7798045 2.0350995 -0.24452904 1.1085097 0.5580091 3.0775568 -0.013824265 2.6500874 0.25575265
A_1234 0.033638217 -0.65251017 -0.44209337 -1.1687235 -0.45882082 -0.5618791 2.5823371 -3.1482868 -1.9046909 0.9649152 1.479831 0.0863773 -0.023069689 2.1247141 -0.7318355 -1.9033371 0.0097754095 -0.2389194 1.5316533 1.9874475 0.79930675 0.40883327 -1.2804388 -3.4894757 1.3899094 3.0745218 2.8714247 0.13982476 -0.6294389 -2.8135388 -3.3278313 -1.4689784 1.2156689 -1.8724341 1.1815434 -1.1833018 -2.3421092 0.6779554 -0.502618 -3.2634325 0.049592637 -0.15331715 0.072025165 -0.27614883 -1.1742785 -1.5288376 -0.78583515 0.16316561 1.0304966 -0.3792053
A_2031 1.1383164 2.8544269 3.0130343 0.5303654 -0.94094247 1.9073257 -0.16155927 0.7361394 -2.2277637 0.9694804 -1.3048779 -0.0738885 -0.3168336 4.0459356 -2.5958505 1.7025625 -0.8299108 0.061662477 1.1738418 0.2471177 0.0056542237 1.3159316 -0.7252124 0.7788706 -0.74592155 1.2496063 0.9475985 -1.6005158 -0.9409028 1.608607 -1.9193119 -0.48649964 0.04775952 -0.03103787 1.4559277 1.7283523 -1.6833032 0.44731316 -0.21300712 -0.8588093 -0.700952 1.2737695 1.6873744 4.0996847 1.5063506 -2.9845548 -0.1093067 1.2810553 1.2411021 0.08523046
A_391 0.5012302 1.1731906 -3.0475914 2.6155868 -0.7313204 -0.1947985 0.4108394 -0.768523 2.2982626 -1.8521471 0.70583045 0.5515273 -1.1396626 0.17100397 0.6681495 1.1548828 -2.8498209 0.25260434 0.8671867 1.0322725 -0.82588786 0.43687862 -1.9704627 -1.1382862 -1.9183705 -1.0965624 -1.3557978 3.5656672 -0.08976846 -0.64086825 -0.56645066 1.722527 -3.6377 0.037875473 1.4758111 0.85915303 0.19149396 -1.639278 1.5876024 2.2593832 0.68771523 -0.4405984 1.5312314 0.9141779 -0.47309184 -0.42538974 0.92399263 0.30800742 -0.66289324 -0.991924
A_362 -3.075927 -2.252951 0.004636585 1.3131396 -0.29611295 -0.33612278 0.36201242 -0.73545706 -0.4243117 0.79074466 -0.045498326 -1.7000314 0.75343907 1.1980729 2.162809 0.82591224 -0.53305846 0.15653022 1.0291446 -1.800627 0.23976356 -1.2792811 -1.4002438 0.596051 -1.4424901 -2.5524032 -0.12533538 2.6814637 -2.3328223 -1.2174441 0.20857778 0.12789452 -1.9622048 0.044119004 0.74202085 -0.19994369 0.44244313 -2.7313163 -0.16453867 3.4882295 0.4310729 -0.27999395 0.34283042 -1.1983202 0.8345834 0.3972329 0.27099174 0.6298381 -1.6400098 -2.2671013
A_788 0.20679271 -0.8307703 -0.68573534 -1.1212356 -2.2498984 1.6113564 -0.06040142 -1.0718439 -1.1723791 1.038311 -0.48800838 1.1473219 1.0777799 -1.29973 -0.5780176 0.1511282 1.2010944 -0.72191155 -1.083292 2.551052 2.4960673 0.021604389 -0.49116126 -1.1347786 -0.5517495 1.4341873 -0.5567431 -0.8419662 -0.8175824 -0.48356003 -1.2383033 -0.3117473 0.78645426 -0.4594552 -0.74016774 0.47015938 -0.95301527 0.07823511 -1.0536377 -1.2090806 -0.70713 -0.32705465 -1.0135697 0.7517751 -1.4736648 -0.51722574 1.3155924 1.0934482 0.9453384 -1.1227037
A_763 0.7494852 -0.7382905 0.0893656 -0.75961953 -1.3963542 1.0867128 0.68170273 -2.0725589 -0.2440391 -0.29339433 -0.47019747 0.90313524 1.6112707 -1.6250799 -0.16427697 -0.47629446 0.90290976 -0.9947243 -1.0522425 2.1974547 1.5590496 0.39010686 -0.79997957 -0.317661 0.27506143 1.2078946 -0.64681923 -2.0004947 -0.5537634 0.4275508 -1.3146429 0.23431467 0.51162106 1.6285174 -1.3247602 1.2986856 0.05382855 -0.554354 0.06179559 -1.6397766 -0.546831 -1.2092267 -0.5582805 1.6556512 -0.6987952 -1.1974833 1.765258 0.5758766 0.4337306 -0.7019033
A_852 1.0307335 -1.1143215 -0.10808946 -3.2268102 0.14356032 2.1416016 0.5282901 -1.5900277 -0.3998727 0.6508401 -1.2035292 0.13803065 1.8873361 -1.3059267 -1.1429275 -0.4499203 1.5046586 -0.33161062 -0.75985736 -0.66484904 2.4452636 -0.42400894 1.6704906 -0.50230443 -0.3164643 0.5071985 0.7230534 0.7252506 0.13861838 0.74431133 -0.28725004 -0.17994621 -1.1759008 1.1988822 -1.1192794 -0.6782595 -1.2619998 1.1704468 0.20752428 -0.97196466 0.75278485 0.6370699 -0.45056573 -0.35133928 -2.1978335 -1.3348856 0.32976878 1.5540798 0.8811812 0.2712086
A_1893 -0.012643388 1.3248904 -0.18918319 -0.8938506 -1.5265402 -0.3548777 -1.698531 -1.5637007 -0.7704789 3.9603846 0.6634349 0.9976742 0.77407265 1.5784214 -1.6158206 -1.0924895 1.9196075 -1.8309987 -0.26126155 0.36665154 1.0368848 0.96869737 -2.774911 -1.1689012 1.4266164 3.7493703 0.531957 1.0758519 -0.3533959 -2.1854668 -5.3377223 0.18346202 2.232615 -2.9840715 -0.90891296 -1.8834392 -1.0175953 2.3963556 1.3424692 -0.86516935 -1.3858347 -1.7058294 -1.322392 -0.9034344 -0.18172048 -1.7376065 2.4203572 -0.08126332 -0.4327064 -0.23637487
A_1141 1.4333528 -1.0512594 -2.3026175 -2.456926 0.0102846315 2.774811 0.87951547 0.7185487 0.86756086 0.52487665 -0.00061760773 -0.61437374 0.80229974 1.0116041 -1.6008854 -0.29438198 -1.6954256 -1.6141906 -0.84222126 3.5822654 1.424302 0.37140957 2.5952408 -0.5530879 1.6673715 1.094793 -2.411183 -1.4294827 3.159148 1.5330396 0.7422356 -0.8396185 -0.9242523 1.626107 1.8666812 -0.150004 2.1371293 2.2335656 1.8101596 -1.821974 0.81641114 -0.16064245 -1.2900825 0.21123444 -0.626948 1.3100263 -3.030881 0.20593497 -1.3317665 -0.048643615
A_2046 1.3149363 -1.594595 0.510158 0.5405239 1.6006083 -1.9168544 -0.73374593 1.0220841 -0.0843653 0.6461323 0.6998163 0.9078968 -1.3170946 1.2954466 0.87931406 0.4746183 -0.61804545 0.12952517 -0.20683107 1.6905138 -0.95496094 1.3927135 -2.0415728 1.0240052 0.68736905 0.09894507 -1.3946296 0.8291985 0.6776558 1.1244812 -0.4798729 -0.25097892 -0.42774448 1.2243185 1.989667 0.44828436 0.45611653 2.1793728 1.2752063 0.2966777 -0.66725075 -0.2686718 -0.6575081 -0.35561404 1.9824307 0.6215369 -0.762012 -0.8482284 -0.4277347 0.28824046
A_776 -1.0154073 -0.35883853 -0.8262472 -0.9693787 -2.59115 0.836445 1.6966377 0.8158278 0.55522585 0.60308045 0.22355321 1.8043877 1.6395558 -0.19276552 0.11333728 -0.28502113 -1.5869733 -0.61865324 -0.63171864 1.9507108 2.5826514 0.324939 -1.9923502 0.5467293 0.45180136 1.8358341 0.2802273 0.38597837 -0.0009281947 -1.3140984 -2.242497 0.28078055 2.4676857 1.1242312 -0.97878146 -0.31805268 0.860428 -0.5009539 0.01410818 -0.6978035 0.27346033 -0.08074299 -0.6031233 0.6648585 -0.90704465 -1.4323001 1.340927 -0.80027795 1.7297826 -0.4217864
A_1166 0.48983866 -0.83229786 0.09159105 -0.3172344 -0.3358582 1.1552681 1.5039512 0.13598263 1.5456783 0.3927862 -1.3477987 0.1433341 0.46711463 -1.5341235 0.2636448 -2.6027045 -0.9641528 -1.4108562 -1.3555887 0.35339195 1.565014 -0.019531125 -0.41535547 0.27450106 0.4899713 2.9159272 0.16599439 1.1724416 0.85066855 0.6631434 -0.46347883 -0.16656804 1.4569132 1.4926293 -1.125016 -0.030003512 -0.3812023 0.4186493 1.9313449 -1.9669828 -0.34621686 -0.928552 -1.86495 -0.22200231 -1.8967369 -0.8176612 -0.04072382 -0.024044825 -1.3544791 -0.012215316
A_1161 0.6500634 -1.123211 -1.2114772 -0.9706556 -1.1113857 0.8780374 1.758062 0.34435916 1.529979 -0.68774325 -0.6984375 0.54991955 0.77469456 -1.4501152 0.18144238 -2.6231582 -1.3878431 -0.7433276 -1.1526577 0.31977108 1.6544646 0.5588684 -0.014991692 0.436397 1.2784853 2.2100031 -0.14356436 1.2736318 0.41000557 1.2200347 -0.22374262 0.1847051 -0.15275636 1.8686502 -0.7012969 -0.90128356 -0.03627558 0.60874975 1.4119258 -1.7213808 -0.33222738 -0.6893199 -0.9363855 0.032459877 -1.0761467 -0.91018784 0.42106676 0.44952005 -1.1426123 0.109012514
A_1578 -1.0283111 1.9543593 -3.9024212 0.88128656 3.110513 -0.44411963 1.8892696 3.199565 0.66872644 0.4957088 1.7920799 -0.686033 0.020804431 0.18969874 -1.8646659 0.61771035 -1.9830371 -1.2956384 -0.5675325 0.9981812 1.2604048 -0.48785013 -1.3115602 1.0095414 0.77124655 -1.4994291 -0.72196704 1.3642557 2.0189488 -0.40812597 1.6039422 -0.16689786 -0.94457036 1.9521567 0.53146416 -0.2603979 3.3556204 -0.74991816 1.3867134 -0.03727627 -0.66297203 -0.8184363 -2.2415435 1.7093519 -1.8358611 -0.040965226 -3.0887992 -1.3563358 0.054704078 -0.65895474
A_574 -0.0354003 -1.6016443 -0.49928975 -0.14090647 -1.152937 0.5718728 0.67547625 -0.7184669 -1.7896236 1.1255453 0.10144483 -1.4397327 -0.90017754 0.16738845 -1.8871078 0.90211266 0.49791855 1.8641107 0.7238537 3.378275 -1.6045431 -1.8707112 0.08355496 1.7868625 -1.8113921 -1.7923794 -0.8713145 0.14764455 -1.8456832 0.16924214 0.22570965 -0.77217495 0.30270845 -0.5151434 -0.665085 1.7135098 -2.2591915 0.8502644 0.6229912 1.511487 -1.7659956 0.9216757 2.2040553 -0.8532834 0.18384913 -0.8949132 1.81732 0.98829705 0.06410097 1.6898688
A_2113 1.7373483 -1.8610232 2.12711 0.28731257 -1.867128 -1.7625995 2.1398454 2.445257 -0.1369676 -0.9190628 -1.0807446 -2.6667223 -1.3698562 2.083606 1.2073478 0.1972776 1.1355579 2.9301848 -1.7193612 1.0131099 0.8513006 -1.2112442 1.8084024 -0.35922712 -0.17639011 0.012789838 -1.0056374 1.0507733 0.82057744 0.019553792 -0.1389834 0.12507594 1.1833719 0.0781094 1.5728108 0.82165176 -0.2749372 0.37782884 -1.2389365 1.9944447 0.18362902 -0.10537419 -2.9151533 -1.9844384 -0.03793377 0.11191023 -6.4731708 0.6691289 -2.5287743 3.351791
A_69 3.7014725 0.45891193 3.0316117 2.7250297 -0.037205003 -2.38084 -0.3469722 1.6645155 1.1456363 1.0277892 -0.61849767 0.080583654 0.875751 -0.020617947 0.4594356 -0.91323215 -0.3831126 -0.025231486 1.3289355 -0.17907095 -1.6021609 1.5025971 -0.86314124 -1.0039233 -1.3902338 2.7735946 -2.3412547 -2.2835772 -0.72764564 0.035469092 -2.0560904 -1.7624035 -2.2790852 1.2396437 -1.4370482 -1.1056753 -0.8270488 1.3251086 -0.45266 1.0189698 3.1935165 -1.3398601 1.1938457 0.45842627 3.73786 -0.97807884 -1.8686335 0.44273943 -1.3962582 3.5122137
A_593 -1.8440803 1.9658535 1.6540064 -1.2776406 -1.2637901 -0.9346602 2.7860613 3.501369 2.9808767 -2.2501013 1.5166098 1.6229595 -0.1749362 -0.6205528 1.2485577 -0.61242896 -2.2612765 -3.055526 0.76957417 0.2689804 4.0449414 4.5445566 -2.128203 -1.3141918 3.2539327 -1.0656521 2.3264763 -4.5614324 1.6370395 0.17437328 4.114129 0.8470347 1.4420472 1.6516423 -1.5186541 3.157304 -0.12862048 -1.3469042 1.4322969 1.8161124 2.999558 3.9219234 1.1914716 1.0384121 -1.1959887 2.7032914 -3.383722 -1.940082 -0.254107 -2.230743
A_1943 0.19578907 -1.0180095 1.009286 -0.18224978 -0.1811094 1.0381567 0.060554978 -2.0185704 -2.5482976 2.185091 1.2502556 0.15993007 -0.5311967 1.3718072 -0.6441492 -1.3529245 1.0468204 -1.2248136 -1.0733148 -0.018796775 0.73854566 0.9998081 -2.3981392 -3.1423724 -0.69914025 3.8590767 2.4449492 0.35259908 -0.6395757 -1.583697 -1.8573703 -1.8248414 2.4824162 -2.360287 -0.8221437 0.4518055 -2.0853152 0.34531435 1.7347485 -1.1637365 1.075572 -0.85783005 -1.4570642 -1.0692165 -1.052518 -2.383309 0.19558676 -0.08883909 -0.27649507 0.5135211
A_73 2.4719353 0.43657714 -0.9432204 2.689714 -0.076593675 -2.3914135 0.05342616 1.877248 -0.56155604 2.9795046 -2.1211205 0.5996274 -2.7719486 -0.30713573 1.8712157 -0.55782294 0.4116687 1.0426673 -1.4155757 -0.74615717 -1.4493749 2.689776 1.1572866 -1.284939 1.3983185 1.4325031 -0.12592104 -2.0294926 0.63462746 0.4177218 -0.88544524 -0.3466805 0.31752437 0.39602834 0.5174384 -0.74010956 -1.4460207 0.38485122 -4.052222 0.47735086 1.0967544 0.9146012 0.25585422 1.2053343 -1.653925 0.52367175 -1.1495055 1.3899598 -0.53505975 1.2057009
A_550 -0.5728209 0.1115028 -0.28269035 0.7920321 -0.17959617 0.3426014 -0.31048727 -1.4699676 -0.68891764 0.19663467 -0.71551764 -1.6736181 -1.00151 0.34834632 -1.4203452 0.9427233 1.0900615 0.19828708 0.66049564 3.7527564 -1.3005102 -1.317027 0.41467977 0.92746365 -1.4336563 -2.1052952 0.010174835 0.6538269 -1.6284164 -1.1046567 -0.35121372 -0.37501922 2.0173824 -0.58845085 0.5451841 1.063371 -1.4769658 1.8535914 -0.5910088 0.684858 -0.0067950236 0.14753306 0.82952803 -1.4820527 -0.041793857 -0.86438173 2.2206407 1.2742138 1.2682438 0.40817273
A_172 1.1723986 1.4293563 1.571713 0.51161456 -2.2772949 -2.3919914 -0.09176836 -2.365116 -1.1223838 0.067446455 3.9006531 0.77936095 -0.9892402 0.5863341 -1.8124065 -2.263229 -0.5398269 2.0613256 -0.28803328 0.3630802 -3.2150753 1.2562249 -1.1787924 1.9928818 4.014836 -3.4529495 0.94564253 -0.86982614 0.4744854 -0.36168835 -3.615343 -1.0521617 -1.0018067 2.5913258 -0.75666463 -0.9939199 -0.633445 1.5661588 -1.5701755 1.2774603 1.1925876 0.2512604 1.0230491 0.6145384 1.323916 1.8252786 1.0732154 -0.903658 -0.076017 -1.9643562
A_1785 -1.2223231 -1.9236894 0.7651219 1.4932257 0.90951955 -2.4449353 -0.13001892 1.299072 0.19199924 -3.2608705 0.38197997 -2.4005895 -2.611902 -1.5701729 0.4312598 0.585422 0.45749757 2.0975194 2.5196059 -1.84309 -3.702235 0.8448154 2.0796163 -0.46719718 2.843936 -0.46944442 1.2327517 -1.1576016 -1.9836615 -0.59222287 -0.20383625 -0.9390728 -2.2599564 -2.5890758 0.16464227 0.34962192 0.6202549 2.252007 2.4783635 -2.5792902 -1.4685006 1.4086536 0.014835981 -0.029926984 0.75851864 -0.3585661 2.0133965 0.81314766 -0.8670669 0.80581933
A_168 0.9139976 2.609458 0.036061052 2.8259823 -1.2462797 -0.3669287 1.5247982 -1.6698729 -1.6674057 0.5295097 0.26780668 -0.17186962 -1.2789365 0.71669257 1.5207114 -3.1063116 3.285522 0.9641021 1.5920639 -0.6168347 -2.6711671 -1.6673167 2.0120676 0.5558574 0.051379133 0.58306664 -0.02618525 -0.75971377 1.2432827 1.1321471 -2.6403275 1.3378582 -2.6339607 -2.5253198 0.3250942 2.1426885 -0.30058706 1.3570559 -0.30773485 1.4438677 0.5881457 0.8316709 0.12138592 1.4170024 -0.9156344 1.8894578 -1.0876948 -4.304539 1.9803141 0.039280828
A_2033 0.2930452 0.038366623 1.7018718 -0.69046026 -1.3406696 0.6997105 -1.6991357 -0.031553973 -1.5777177 0.5080157 -0.3095915 0.66076356 -0.33632937 2.6352873 -0.89375794 2.2721841 1.0375637 0.035456985 -0.19783853 0.12818791 0.0036306228 0.69663435 -2.2980845 1.829043 1.3397862 -0.62456435 -0.1106783 -1.8822807 -0.45053694 1.636645 -1.7948178 1.2502549 0.29572427 0.045142215 2.390126 0.5637849 -2.4346607 1.2359686 -1.6661336 1.2077026 -0.15892327 0.8072548 -0.61329556 1.5774343 -0.7307844 -0.2430124 1.2450169 -1.0222204 2.1124856 0.89918286
A_2189 -0.34236234 -0.17562927 1.6477325 0.6765449 -0.06884901 -0.17460695 -0.43323484 -0.552811 -2.3666744 0.16417 -0.354222 0.40085027 -1.3627373 -0.98058325 -0.8919518 0.94982564 1.1881188 0.7972675 -0.15990989 0.23208146 -1.1506742 0.057383664 -1.69295 1.354629 -0.512923 -1.5238959 -0.4669239 0.8968211 -1.3933897 0.011457972 -0.41596356 1.2520323 0.32596412 -0.77677363 -0.013999385 -0.41646063 0.90857214 -1.159406 -0.9281001 0.5808527 0.83255804 -0.31485108 1.1915253 0.4317874 0.8241935 -0.29686493 0.05974831 0.62066025 0.87848794 0.023571912
A_642 -0.72936743 1.7425396 -1.7289461 0.1554207 2.5293014 -0.63426447 0.45461324 1.4256836 0.87194264 0.45949757 1.16909 0.17352603 -0.13836706 0.5801981 0.35077238 0.10134619 -0.6566136 -0.5183081 0.54499984 1.1517016 1.9676323 1.4060076 -1.0586932 -1.2086546 0.7183671 -1.5616899 0.29490605 -4.3889894 0.31153652 1.6381054 3.0780847 0.64566606 0.5564291 0.5591874 -0.65621215 2.8645184 3.5698686 -0.42919385 1.6035477 1.0544811 1.1131176 2.0336046 0.042878114 -0.3592131 -1.8932964 4.159341 -3.4812891 -1.1950974 0.7864006 0.5673427
A_723 -2.3862133 0.46519464 0.09150031 0.018855684 -0.24050537 -0.42582324 -0.4715843 -1.1038898 1.4916782 1.6782846 1.1211555 -3.2802324 -3.282133 0.15651669 -2.5081177 -0.06637041 -0.93392897 -1.5993716 4.874344 -0.98436785 -1.5089363 -0.88938946 3.7151728 0.61925364 -0.98045945 -1.0326864 1.0576952 -1.2178566 -2.2212093 -0.8106981 2.279954 -3.7950625 -1.314944 -1.1885169 -3.6678958 -2.355477 -2.4559252 -0.6139154 -2.1142776 0.98619276 -2.2474234 -1.4316772 -3.2925172 -0.6245341 -0.56427497 -2.9567015 1.8735834 0.5391759 -2.561375 -0.6999438
A_1628 -2.0554786 -0.16153508 -2.399551 1.4591388 -0.088391826 0.28412473 0.12339855 1.62624 1.8758389 0.74570173 -2.1696033 1.6893433 0.76336634 0.60891646 -0.30147824 2.5348384 -1.2668186 1.3407805 0.13397114 -1.5824203 -1.0513735 -0.9148812 0.80933964 0.76489586 -0.4026668 -1.0861008 1.38899 1.5681977 -0.35106975 -3.525178 1.7101998 0.3586446 -1.599232 -1.015705 -0.004736183 -2.1527426 1.3855714 -2.132694 0.60440946 0.53308284 -0.83057123 1.7668959 -1.0227617 -2.1217904 -1.9471971 -0.8420602 0.79526997 -0.8685759 -1.2505766 0.5149814
A_91 2.2695658 1.348521 2.289042 1.4547236 1.2273895 -1.8937838 2.8549342 2.2444086 -0.1957035 1.2356458 -0.5216824 2.0402894 -2.0192082 0.9424639 0.6223112 -1.2737768 -0.21546589 -0.6632858 -0.962787 -0.69126105 -1.3798543 0.9553631 2.2645726 -0.06567819 1.4404691 1.7645354 0.20756714 0.34151432 -1.6020732 -0.26199472 1.6505543 -1.4123737 -2.3077364 -0.52273005 0.21333323 1.6368154 -2.383928 0.21698104 -3.842341 0.85659397 -0.11864318 1.6416761 1.2097288 0.3842687 -0.21246581 -0.7498219 -1.2139707 1.4654012 -3.5996819 -0.41945612
A_1100 0.16596971 -0.43569985 1.6353576 1.2850056 1.0758107 0.32921237 -1.0089211 0.2779469 -0.36752808 1.2250319 -0.5830562 0.9143143 -0.4162183 1.0290352 -2.4941869 1.6883745 2.0973954 0.66907233 0.76399463 0.008927077 -0.973022 0.44424996 -2.543251 1.224358 0.9144786 -1.3109202 -0.28086042 -0.39116603 -1.1623335 0.45657942 -1.4940732 1.6597052 -0.044469982 -1.2402971 0.3326841 -0.0024013955 -0.5360911 -1.1003615 -0.5271584 0.61207503 -0.42978454 -0.72581494 0.52549684 2.177442 -0.36251992 0.17306474 1.0893053 0.013424527 0.84285325 0.68033123
A_2164 0.11534494 -0.46527946 2.9953892 2.1633801 0.1434639 -3.501674 2.6016831 0.2770727 -2.083657 2.0426586 -0.054720998 -0.095228404 -1.0458868 -0.27005428 3.5183036 -0.6862717 1.6267815 -1.0477135 -0.5796333 0.5450745 -0.31810403 2.1868343 1.135933 -0.13679193 0.29400843 0.4128476 -0.79197216 0.35289577 -0.31379446 0.3433075 0.27134112 -1.733718 -0.96271265 1.5774719 -0.101942874 -0.032891523 -1.4071906 -0.54122347 -3.1050117 -0.31646958 -0.48570237 1.1656325 -0.2539822 0.4247475 1.3429599 0.70560205 -1.1523294 0.54837775 -1.9669187 1.7301863
A_585 -1.5453466 -1.5541725 0.46125117 0.1588198 0.9010081 -2.079221 -2.0363495 -0.34949908 -1.0953268 1.5912982 -0.38451505 1.0314813 -1.2612128 0.1423534 2.5691712 0.5522793 -1.5046759 -1.3357025 -1.2360859 0.29707646 -1.3280647 -0.4635635 1.2096813 -0.009265621 -1.5524205 -1.4095407 -0.80857027 1.0464875 -1.4471838 0.96955985 -0.749877 0.54446083 0.66047156 -1.2020035 2.0504038 -1.627406 -0.16508715 0.020354949 -0.3348049 1.5070637 1.8034471 1.8533536 1.8055962 -1.0065272 1.8466121 -0.90732867 1.8162438 -0.086510204 1.3253714 -1.100248
A_56 1.1745055 -0.18257749 0.10188334 2.336285 0.37429443 -0.9971058 1.2057648 1.6932219 -0.9983395 0.95369816 -1.1509954 1.5160588 -2.2480114 2.1370802 0.5428616 1.0145596 2.2095313 -0.85495675 -0.84870994 -1.9727328 -0.85424286 -0.72686625 0.20650685 0.5936906 -1.0800118 -1.6978343 0.18385129 0.29158074 0.38605404 -1.6926407 -0.22044592 -1.1872257 -1.6940511 0.03230888 -1.0176781 0.12906069 -1.0310057 0.5616385 -1.9923662 -0.002651585 1.2605567 -0.5073703 2.1271877 -0.9144471 -0.15096194 1.6299673 -1.1725068 0.23233216 -2.6609564 0.5021626
A_1639 -0.58736575 1.359423 -3.036961 -0.7185954 0.39218512 -0.20143801 0.45980522 0.094534054 2.2831485 -2.0911758 0.9780274 1.9808662 -1.9253192 0.4984764 1.5555478 -1.2498596 -1.8585898 -0.18795677 1.665312 1.5176333 1.2017127 1.6383688 -1.935088 0.19267575 0.17526373 -0.8012586 0.13515635 -5.0171027 0.53375864 -0.30439785 3.1979535 -1.6570445 2.532229 -0.43032736 -1.3408111 -0.4571643 1.9939324 -2.141933 -0.5180961 0.43844146 1.2876594 3.9788036 -0.45304164 0.8329479 -0.98628604 2.724726 -0.7349833 -1.9384897 -2.5782716 0.25789902
A_1024 0.64365435 0.59655976 -1.2657893 -2.0109382 1.6681573 0.27343 1.523522 0.7661794 0.40387997 0.93588805 1.7098459 -1.0718862 0.05030031 1.4334242 -0.16161415 0.10578789 -0.9803824 -0.77513486 -1.3560454 2.1350586 2.2310364 1.4727044 -1.0072471 -1.0897608 1.4949797 0.37268823 -2.4671397 -1.6904607 2.134389 2.4646235 1.2000403 -0.6106864 0.82864 1.2099884 -0.2425519 0.21299346 3.7797112 2.5690374 2.0065258 -0.6421852 -0.3668364 0.17880823 -1.3984036 -0.95539796 -0.79197645 0.7405754 -2.5573647 -1.3699892 -1.6342558 -0.17671199
A_2128 -1.2354778 2.158101 -1.6449044 -0.9087707 -0.103682406 1.8723766 -2.4317465 -2.7148333 -0.8775929 1.1856496 -1.4442713 0.6286425 -1.976432 -0.052462764 -1.8438287 -1.5047036 -1.669729 1.3046969 2.9623961 1.269681 -1.8695452 -2.801887 -0.6912135 1.1062311 -0.44641992 -1.3283677 1.0331573 -0.6143636 -1.4806321 -3.175002 1.015071 -1.6806267 1.2399292 -1.0718914 -0.7722275 2.7201023 -1.1370759 3.226551 0.3611051 -0.31696618 0.17614925 -1.575963 0.13370405 -0.6842499 -0.7959519 0.6622965 -0.6425949 1.5178568 -1.4274633 0.41586497
A_586 -2.3847613 -1.9791387 1.4283193 -0.17282052 0.32622525 -1.0049095 -2.8081532 -0.24751762 -1.4303993 0.86718976 -0.16340004 0.47365683 -1.772302 0.69610333 1.9381988 0.40067536 -2.799145 -1.4108778 -0.83820325 2.31445 -1.0337114 -1.293788 1.2012084 0.23382989 -1.6216023 -1.4955925 -1.6010607 1.1321658 -0.74316484 1.1278377 -1.4008331 1.4987543 0.8769746 -0.49046692 2.65273 -1.2777569 -0.44660673 0.64064735 0.45480052 0.72110903 1.6551826 1.422606 1.9687171 0.26669005 1.3932424 -0.7678172 3.586706 -0.9121326 2.832834 -0.9598191
A_1723 -1.2217715 -1.7116611 -0.43383828 -0.260919 0.1155577 -1.4850063 -2.1311853 1.1163745 1.1587281 0.3265119 1.0589234 1.6425203 -2.17706 2.1534922 2.18025 -0.4429147 -0.8011022 -0.8861716 1.6096658 1.5949656 1.9207213 -0.19527419 0.7645575 0.94229263 -1.9908985 1.3848299 1.0328299 2.9833126 -1.9997505 -0.2979462 -2.4263504 1.3099226 -2.4381084 0.5794577 0.9386828 0.13245115 0.28830734 -0.07363545 0.63087237 3.2720299 -0.040045094 1.2833055 1.5030177 -0.6624041 1.9004384 1.0883869 0.4385471 -1.7444675 2.5688038 0.846227
A_1929 -1.2415432 -0.10837613 1.5381564 0.9329728 -0.4072617 0.3656434 0.5971161 -0.35829684 0.092816636 3.0637803 0.90845615 -0.4774702 -0.22447203 3.7240467 0.5705213 -1.1278106 0.2322595 0.23751818 -0.70446765 2.2015705 -0.010177162 -0.4790179 -3.069761 -1.5656297 0.4257801 0.8393815 -0.270899 1.0971663 -0.2758778 -0.21602371 -1.1213145 0.42874664 0.6057879 -1.285825 -0.23417133 1.5324364 -1.999962 0.046122305 1.8321186 -0.32797885 0.7457945 -1.0851711 0.18708922 -0.41712424 -0.17000492 -1.7612555 0.25792846 0.23114564 -1.7977885 -1.0865839
A_1903 -2.0322654 0.10720088 0.35779533 0.14784072 0.0026194358 -1.9398513 -0.39847922 1.2768332 1.7653533 1.3974763 -0.89601797 0.029212115 0.00094472594 1.115484 0.88549066 -0.3272599 1.10547 0.2039754 -0.62986845 0.38327292 -0.19993843 -1.6046847 -2.292471 -0.64714134 -0.49407956 -0.13442566 0.16308169 1.0836173 -3.072316 -1.0146074 -1.6256018 -0.329604 0.8147405 -1.1827707 -0.32725886 1.9583448 -2.4575164 -0.22790858 1.8070527 -0.3260279 -0.7958315 0.22283107 1.1419597 -1.4195943 -1.1059678 -1.227773 -0.26826623 -0.107321955 1.4553349 -0.26589265
A_348 -1.7107304 0.754125 0.40687576 0.4024466 -1.6458595 -0.30190358 -0.0039891354 -0.9779454 -0.93414235 0.5780533 0.17018932 0.46329844 0.8654679 -0.3739152 0.12915184 2.367815 0.2019936 0.6602377 -0.21399894 -2.0690622 -0.2761742 -0.38072997 -1.2076873 -0.34923717 -0.37422156 -1.1409049 -0.12178743 1.1429758 -1.5561941 -0.9813587 0.24817154 1.2197932 -1.4413017 -0.90820205 1.2618845 -0.18190418 1.1339288 -1.8453618 0.19782075 1.3345324 -0.063263744 -0.5116271 1.721664 0.48100138 -0.24774545 -0.31103548 -0.6141538 1.1263661 -0.69919467 -1.8950117
A_1936 0.14319907 -0.87489325 1.0598675 0.3084172 -0.13510959 -2.2012408 -1.32556 -1.9684916 -0.72771364 3.168767 -1.6786789 -2.612481 -0.32277393 1.5160829 -0.32898045 0.5827189 0.055216685 0.85638237 -0.07712909 0.80303955 -1.0029306 -3.517661 0.3822444 2.7983763 -0.7300246 -0.19370048 0.22341926 0.95507514 -1.9884865 0.11422643 0.24202421 0.3074076 1.4099216 -1.6483752 0.8971309 2.4610524 -2.3230264 0.93033266 1.1604018 1.4998236 -0.33346626 -0.5071458 2.1551616 -0.1501581 -0.99786067 -1.3089869 1.9974653 1.8816578 -0.6482864 1.2265896
A_59 3.5938427 0.605251 1.6545607 2.5111587 1.423492 -1.1337993 -0.14996521 1.9128212 0.56051654 1.2600167 -2.1240675 1.3441484 -2.111072 -1.6652933 2.8141031 0.30934444 1.4005182 -2.3280203 -2.333878 -0.98054254 -1.4360722 0.7937207 1.4412328 2.850518 -0.4739849 0.6358526 0.6208945 -2.8727582 1.9737295 1.0589771 -0.87453395 -1.7140819 -1.4557189 -2.133349 -1.0388663 -1.734578 -1.292085 -1.5520837 -1.040856 0.7202997 -0.29372025 0.3627648 -1.306996 -0.38985917 1.1875677 1.3360159 -1.4187157 -0.0014444392 -1.4501929 0.3214312
A_740 -0.08413762 0.55455315 0.46804065 0.60710174 -2.1455698 2.8732646 1.3967419 0.42205796 0.38995722 2.4554737 1.5954015 0.48573345 -0.94095963 1.1953402 -1.9136757 -0.90537035 1.4171501 -0.11710364 1.6934947 1.2778498 -1.1252753 0.27718392 -1.837871 -2.9636538 0.052456185 1.9046553 -2.8575916 -1.008809 -1.1760446 1.8919436 -0.7188865 1.1542766 1.9924911 -0.7537541 -1.0154805 -0.3206405 0.34561235 -1.1460627 -0.5765406 -0.5469705 -0.074396625 -0.61461526 -0.82561046 1.2146221 -1.158442 -1.5126725 1.8038085 0.8475462 2.003893 0.12375217
A_1738 -2.8254895 0.44912115 0.03952658 0.7644159 -2.081284 -1.7742094 -1.4670836 -0.9523811 3.1742682 -0.23429541 0.6232852 -0.037792705 -2.603951 -0.123287715 2.9674165 0.9337496 -2.4819286 -0.063169844 -0.7493955 -1.0544263 -0.41638085 0.9279802 0.14960268 0.69209903 -2.1439896 -1.1345199 0.5235972 1.4034629 -1.886052 -0.19067347 -1.0144094 1.3915341 -3.3796585 -0.011356636 0.71085405 -0.5573312 -1.5081197 -1.0828288 1.6774002 2.4547322 0.4992816 0.32531068 0.92882884 0.40754732 1.8381519 0.31711376 0.5554672 -1.4589959 1.0064656 -1.6566586
A_1685 -1.2605693 0.23330426 0.19210394 0.034637704 0.6716804 -1.0429986 -2.5752714 0.21946327 1.5674465 0.8312003 1.1054455 0.5029106 -1.5531678 -0.22967198 2.0053856 0.28513816 -0.8905852 -0.063888006 0.9682785 -0.030532112 -1.0662869 -0.58506894 -0.13236855 -0.65430653 -1.6755862 -0.28564066 0.39187673 0.7297094 0.10262961 2.2267215 -2.244445 0.31443825 -0.5092833 1.1279445 1.5228198 1.679413 0.7483399 0.5452977 0.87692004 3.1969073 1.2854534 0.9731927 1.664868 -0.35466725 3.4144928 -1.2205354 2.32248 -0.8298123 0.4797571 0.58755744
A_82 -0.15692274 -0.55136704 2.0839632 1.9375833 2.104412 -3.4405296 1.7902614 2.4310975 1.4141061 -0.16552219 0.02022971 0.12102736 -0.6036633 1.0886612 1.1547492 -0.08616739 0.7324549 -1.1876341 -2.0401046 -1.5068378 -1.2445797 1.6703064 1.8727022 -0.9428176 -1.2341294 -0.91031873 -1.0129911 0.13319898 1.476886 0.1876179 -1.1727091 -2.1166456 -1.14514 0.698476 -0.6247546 0.48597786 -1.344031 -1.6493045 -2.6801567 1.0579584 0.91596144 0.82371116 0.48175326 1.1026654 -0.76285475 -0.6979226 -1.8959339 0.272181 -0.58361614 0.8038952
A_1731 -2.1657193 1.529809 -2.1551723 -0.63569623 -0.8433755 -4.9906206 2.195198 -0.22587772 0.03070682 -1.2575647 1.0688363 -3.7337735 -3.8417284 0.76633954 -1.2047929 -1.7758284 -0.13219738 2.6626315 0.6988778 -0.59043205 3.4943256 -1.3136326 4.2099867 -3.1294003 1.5657119 -2.035663 2.55464 -4.810154 -2.8627415 -1.0065868 4.0938187 -1.6098428 0.73077136 1.4050777 -0.2226843 -3.2876704 0.086382866 -3.1932664 0.666118 0.45096335 -2.3231037 1.1021786 -2.7147799 0.11008755 3.316713 1.0082208 0.6177593 0.8781258 -1.4037435 1.2647715
A_39 0.7101538 0.9061489 -1.6413974 -1.027487 -0.00493223 0.10225394 3.0730472 0.45902687 0.76227885 -1.5763001 1.7877606 2.9191124 -1.5858405 -0.8858663 -0.33502686 -1.0139451 -3.1595283 1.828969 1.4203504 2.0504963 3.974309 1.7894368 -1.5152625 -0.5314061 2.0045862 0.5897922 0.024872245 -3.717808 1.8479638 -0.96272826 2.569153 -2.761493 0.735018 -0.96527874 -1.1094345 2.5354743 3.1026487 -1.1666926 -1.2982188 1.9063894 1.1243185 3.7293222 1.1547399 -0.5567057 0.78959185 1.1612673 -1.4709086 -0.94388187 -0.8669129 0.0027000532
A_1856 -0.79323196 -0.3167589 1.2753978 1.4188011 0.84389025 -1.2780141 -1.1487178 -1.9581261 -0.14055198 -0.26812652 1.0188494 -0.15733103 -2.5997715 -1.8782873 0.0077022226 2.9043367 -2.6770213 2.151943 1.5084195 -3.4725435 -0.71207017 -5.3677845 2.3078775 0.2977969 -3.130234 0.653398 1.5362865 -1.93099 -1.2709674 -2.1455734 -0.007915084 -1.2320137 -0.0109018665 0.13014157 1.6045368 -1.8690997 0.29330483 0.37805733 -0.387204 0.4956866 0.3253757 1.2445492 -2.4261162 1.741592 2.3607478 -1.680557 2.9678829 2.476034 1.875553 -0.36359605
A_2195 0.6420411 1.7971795 -0.8274436 1.5814899 1.7707117 -1.0475687 0.3734402 -1.8385872 -3.3214493 1.5978532 1.844376 2.4527044 -3.1465533 0.09066655 -1.0724396 1.0288484 2.4975052 1.5762451 0.14333525 -2.2952445 -0.61747503 -0.6516388 -1.4860599 2.0161338 -0.06460874 -2.6701653 0.8527001 0.7578276 0.528645 -0.3074092 -1.28967 0.18485335 0.9697354 -1.0267221 -2.2945213 -0.3890332 0.55002254 -1.8677619 1.3786745 2.7417498 3.6007707 -0.92021453 -0.80339706 1.4340225 0.55942535 1.5345516 0.41354665 -2.857849 0.70589226 4.7691545
A_736 -0.4760102 0.8672947 -0.9126945 -0.5865753 1.257458 0.0010367341 1.2347175 1.5654002 1.5079464 -0.065566406 0.9785604 0.72452646 -0.2702413 1.2975075 -0.52462304 0.921031 -1.0531157 0.12694027 -0.347112 1.6118551 1.4023955 -0.16782004 -1.4773018 0.41460034 1.3490658 -0.8764783 -2.1039689 -1.6008337 2.0412269 1.9266928 2.6054235 0.9600115 1.1823348 0.1415374 -0.39768687 -0.3094394 4.25095 0.69126177 0.6939089 -0.4999834 0.16337568 0.72314864 -1.4742646 0.9791918 -0.20502813 1.4757316 -1.0429109 -0.3962049 -1.6738827 -0.51022303
A_2032 0.12478537 -0.11835693 1.9159911 -0.22175023 -1.1098962 0.707025 -1.0882674 -0.01931751 -1.0824275 0.65090954 0.03523576 -0.08271521 -0.20060956 2.6703706 -0.48144647 2.086367 1.1165183 -0.08535231 -0.5664072 1.248658 -0.10978338 0.5403155 -2.139305 0.5605502 0.81252134 -0.21206787 -0.53263634 -1.6165649 -0.66104424 1.3922887 -0.8561674 0.6439707 0.4183833 -0.74139017 1.4258397 0.99243486 -1.038396 0.5607455 -0.2754935 0.90732455 0.09185674 -0.022207985 -0.022414055 1.391681 0.0097309565 -0.58047724 0.7972244 -0.8294663 2.3867412 -0.48995063
A_375 -2.493674 -0.20105542 -0.17186992 -1.2408253 0.5073206 -0.92955005 -2.4200206 -0.16962382 0.4596257 1.1552163 1.6907475 0.2966855 -2.5303087 -1.2020879 2.0334768 1.0286947 -1.2757882 -0.5407562 1.0122353 -0.82355154 -0.56291026 -1.0838447 0.9297509 -0.68041056 -1.6620748 0.2225725 1.0998682 2.0135727 -2.031887 1.5412652 -1.3426073 0.5253227 0.42543218 -0.21845558 2.839468 -1.7542729 -0.53794795 -0.5319227 0.42056963 3.2931557 0.9988353 2.5363493 1.9970226 1.6749744 3.3628325 -1.8682215 1.5528904 -0.01587016 0.07141435 -0.56745243
A_1964 -2.2599864 2.4629533 -1.3333828 -1.3946302 -0.21974137 2.7013388 -0.42233074 -5.098498 1.2707155 0.9393252 -2.6663115 -1.8594377 -4.599606 0.5225601 -3.953954 0.8627532 -2.2183988 -0.8619583 0.42382067 1.4511223 1.6745387 -1.1321969 0.65620315 -1.1752673 -1.3002264 -2.6399117 -0.6844002 -0.17271797 -2.5660877 -4.0654273 1.0159322 -3.2980862 1.7206047 -1.071972 -2.1378155 1.6187387 -3.4784539 2.7450328 0.62970686 0.83125776 -3.8263826 -2.6383567 0.76840794 -0.51456743 -0.1141938 1.7865388 0.98576754 2.413272 0.084810495 3.2790046
A_1641 -0.28218484 -0.9805808 -0.25338668 -1.5124145 1.2004815 1.9754046 0.83819634 -0.24799994 1.057428 1.5158526 0.90139306 0.40968463 -0.13267289 0.6197407 -0.73250896 1.5008694 -0.4817949 -0.63192457 -0.45485798 2.0717838 1.6870135 -2.1483097 0.9361228 -1.6817498 3.1393437 0.008767024 -3.4571078 0.06848416 3.179547 1.6974418 1.8277336 0.27626824 0.30937475 0.66923153 1.4458764 -0.78916097 4.5113626 1.1396099 1.2764574 -0.36429173 -0.702832 -0.26531544 -1.1306276 -1.1843946 0.010006916 0.60720885 -2.928598 0.41158837 -3.2166667 0.17173624
A_1573 0.8058728 0.60842806 -1.2977028 -0.28653494 1.2466657 -0.0366421 1.4867336 0.75399816 1.9099274 0.74867016 2.3321688 -0.2802966 -0.31807795 1.6869069 -0.60980356 0.6683455 -0.44145712 -0.35412127 -0.5588938 0.8213691 1.3379059 0.32880878 -1.8480232 0.44178328 1.6013291 -0.6208725 -1.6931397 -1.7526222 2.2803292 1.7991414 2.0247347 0.08583889 -0.47587758 0.09580401 -0.39531508 0.42065996 4.3497705 1.243107 0.82038957 0.22964004 -1.0636415 0.18583284 -0.73267734 -0.19113739 -0.021230487 1.1948289 -2.2426984 -0.6333465 -1.8594465 -0.56937087
A_1944 -1.8972218 0.7573378 1.5784992 -1.4131123 0.5750757 1.0673982 0.62268966 -0.6302496 -2.3537278 2.347289 -0.53468424 0.32172838 -0.8190948 1.4345926 -1.0778643 -0.778652 1.7756922 -0.56406426 -1.2796307 -1.4126781 -0.5040878 0.22100466 -0.79838544 -2.2518296 -0.5146804 2.7067785 2.2362354 -0.39382893 -1.1403114 -1.239488 -1.1511716 -1.752145 3.0301874 -2.3617382 -0.73093545 1.1049162 -1.8723656 -0.69522244 1.631862 -0.8025977 -1.2679907 -1.3868108 -0.9346414 0.08853444 -1.5644116 -2.5689495 0.56484115 -1.0786254 -0.30369258 0.3180853
A_1014 0.92511946 -0.9460281 -0.6656753 -0.3877756 -0.66583115 2.612834 3.7922769 0.61788523 -0.006670058 -0.38829467 -0.5586833 -1.0537102 3.0348945 -0.76066023 -0.7834356 -1.5541759 -0.05701596 -1.4036716 -2.4631238 3.0685549 2.4309666 -0.10583965 1.0134964 -0.48802954 0.46646488 0.5599081 -1.5020196 0.49336964 1.3590778 -0.8824816 1.2201635 -1.3946908 -0.62082726 1.4485171 -0.9711648 -0.21281262 -0.85319453 1.9246632 2.0441463 -0.5626018 -0.16666679 0.2076054 -0.6819556 -0.72519505 -2.3397524 0.92203325 -0.45353553 0.16370076 -1.653148 -1.3552592
A_1498 -0.8090574 -0.4555298 -1.7149862 1.2185768 0.11035026 1.4179829 -0.6339081 1.2204878 1.7155191 0.4994703 -0.023098227 0.07199827 -0.15968424 0.055585567 -0.41795874 2.005045 0.09646143 0.29219598 -0.005376823 1.5100399 0.47998345 -1.1927696 0.73021203 1.3392099 2.9082897 -0.3732771 -0.77492326 -0.5410948 0.11231194 1.795889 0.15846133 0.9907303 -1.2315938 -0.26060888 -1.2973946 0.8042813 2.9254363 1.7257872 -0.7611349 -0.08351128 1.8046222 -0.09064164 -0.85802215 1.6123298 -2.4310007 0.85310775 -2.7272525 0.106244944 -0.75771886 -0.6267735
A_782 -0.38564345 -1.1732886 0.084654 -0.43643522 -1.9634588 1.3928918 0.0163493 -0.2518475 -0.8682959 0.31451946 -0.084828705 1.4720591 1.4567307 -1.3156166 0.5341356 -0.4270067 0.26861235 -1.1299629 -1.113459 3.042821 2.0440998 0.28904673 -1.8756022 -1.0958203 0.17927533 1.2649662 -0.39804092 -0.818645 -1.0764773 -1.1044582 -1.4326664 0.56981945 1.2062343 0.2316575 -0.708389 1.0605626 0.047808163 -0.3345809 -1.0125258 -0.93585396 -0.33791408 -0.27891508 -0.4150038 1.1211803 -1.2504342 -0.41416597 2.1415284 -0.13988245 1.4376739 -0.79936695
A_62 0.5181007 -0.12631376 0.72738326 1.8421344 0.39770097 -2.0587678 0.7262015 1.8235155 -2.1859949 0.35871452 -0.24978209 1.7904333 -0.91064703 1.8178056 1.7819554 -1.7053702 0.7127707 -0.12182405 -2.474944 -1.1113794 -0.9999067 1.2396967 1.493539 0.9742341 -0.47140387 1.3989704 -0.510152 -0.783647 1.2968662 0.5099399 0.62935513 -0.9108252 -2.1307185 -0.29112402 -0.17899363 -0.29770845 -0.5881354 -0.29022506 -2.7559369 2.217022 1.343902 -0.598595 0.21986271 -0.5149042 0.9407242 0.3902324 -0.06464696 -1.3773881 -1.6132913 2.2846274
A_1982 -3.2945938 2.4743836 -2.4320605 -2.2399054 -0.19152206 -0.22452128 -1.2645057 -1.6875972 -0.3525179 0.5972229 0.043226067 1.4116592 -1.7570759 1.7993853 -2.196726 1.2254287 -1.6073681 1.5550488 -0.25087342 0.46879163 0.61442304 -1.1377624 -0.29823396 -0.7226044 -0.74241096 -3.2955608 -1.4579071 1.1797715 -1.2928679 -4.024682 1.6745013 -1.3972621 0.040740047 2.9581769 -0.31955662 1.3046675 0.9948255 1.8486513 1.3252882 -0.39729026 -0.29340887 -1.4970016 0.3525187 -3.4528718 -1.4200078 0.37668678 1.4182658 1.0621861 -0.809845 0.9981588
A_347 -1.4192818 3.4102612 -0.8794659 0.26620576 -0.9832358 0.5100886 -0.56068087 -0.23506418 0.08597539 -0.26218784 0.30369702 1.191655 1.5752506 -0.36551037 -0.72271913 3.3377345 1.3695818 1.1796298 -0.39673856 0.46031293 -0.99076897 -0.21125941 -1.38381 -1.1336015 0.2949237 -2.872509 -0.9742364 1.9413756 -1.8056126 -1.2664934 -0.68035674 2.7659843 -1.7954779 -1.5312911 0.5518499 -1.6168816 1.3696113 -1.1254934 0.04377504 2.3516366 -0.3843206 -0.49317056 0.52978706 0.79992765 -0.19807334 -0.037504144 -0.6311225 1.2617902 0.1882254 -0.7292844
