17 50
AA_13 -0.58273816 -1.5027277 -0.70034134 -0.22470236 1.9353454 -0.6988792 -1.0585834 -0.022419987 0.23992325 -0.18706036 -0.11874631 -0.858076 0.9071689 0.83284754 1.5428282 -0.6934122 -0.5573892 0.28741884 -1.7070457 0.7419437 -0.95572317 -2.0928736 -0.33225906 0.45144573 -0.05493294 0.023578322 0.6434749 -1.0686151 -0.87413955 0.07540931 0.08934889 0.9223302 1.5563369 -1.5634372 -1.1489106 0.045593873 -0.6915076 1.4087832 -0.7616676 -1.4798919 -0.9916731 1.7877718 -1.2132071 -0.81971765 -1.0834287 3.8969505 1.2568521 1.9742031 1.939815 0.5790881
AA_2 0.01602196 0.38793162 -0.16644008 -0.3246148 0.08758639 -0.3020191 -0.44675502 0.055332147 -0.2151442 0.14817372 0.043783907 0.27284485 0.27644905 -0.69661903 0.15326035 0.17278081 -0.33208805 0.2741527 0.30183247 0.51243246 -0.1532075 0.06593979 0.10780639 0.13201584 0.2863196 -0.14371409 -0.5822131 -0.2170054 0.87521034 0.5602637 0.69153774 0.04263296 0.84705085 0.16525759 -0.18346828 0.28612754 0.117532864 -0.10727627 -0.17025197 0.14459936 -0.2826959 0.16830705 -0.32207257 -0.12154372 -0.16491735 -0.12261478 0.42770395 0.28021473 -0.16935304 0.22814567
AA_3 -0.44510087 0.42217812 -0.054688893 -0.34287608 -0.008832368 -0.24115412 -0.7305799 0.030057369 -0.46075624 0.24577835 0.41768876 0.58552927 0.20362298 -0.5860168 0.022238728 0.4506223 -0.24107786 0.2802211 0.13453385 0.54056805 -0.17730795 0.16169292 0.37782001 0.21330903 0.30911833 -0.28087682 0.0599742 -0.14768717 0.31122994 0.3635647 0.8765806 -0.028294072 0.7633593 0.24606581 0.03335647 0.71358764 -0.39243776 -0.2314891 -0.6518419 -0.32633865 -0.22300605 0.73055595 -0.08732637 -0.13266519 -0.24857876 -0.21687737 -0.2273178 -0.07989296 0.33067206 0.6895102
AA_1 0.43495888 1.6517609 0.48397434 1.040563 -0.8001666 0.08162454 0.41089046 0.56456935 0.0841173 -1.0916344 0.44168967 0.92207044 -0.008134727 -1.8401446 -0.47652775 -0.2565968 -0.34420595 -0.015749158 1.4091243 0.23423205 0.5039278 0.60919964 0.20284604 -0.06724983 -0.23577203 0.46778083 -0.2637989 0.35790592 1.0913315 0.7859407 0.85062796 -0.7182062 1.6761411 0.11019937 0.6490489 0.74526894 -0.08610812 -0.61897254 -0.2563753 -0.0597046 0.077872075 0.327882 0.6179864 -0.29116887 0.23323327 -0.5228382 -0.41061664 0.13523315 -1.2418417 -0.008338807
AA_9 2.3218095 0.889467 0.33104846 1.1937462 -1.4037983 1.314016 2.4172997 0.81698525 0.59375 0.18379043 -0.8187739 0.2277682 -0.16651572 -1.2850002 -1.7769495 0.51356554 0.78126687 -0.15571415 0.43011117 -1.3966087 0.38367963 1.5026442 0.88471663 -0.39026362 -0.23733684 -0.02702282 -1.2713337 -0.04491078 2.6377642 1.22837 1.0003107 0.62258184 -3.4056787 0.816634 1.2620971 1.2611966 1.5458062 -0.39648858 0.65230167 0.58206683 -0.024108594 -0.6093273 -0.27327845 1.9392233 -0.77869093 -1.1747986 -0.09461317 -0.38321906 0.5603465 1.2349976
AA_6 -1.7024221 0.6186906 -0.0064706546 -0.6813195 0.4864131 -0.60345644 0.2170745 -0.85002077 -0.6780621 -0.67936313 0.34621078 0.20391726 1.3380964 -0.17163016 0.63359845 -0.5105027 0.1465835 0.023425935 0.60737693 1.2507478 -0.6745218 -1.0881327 -1.3412489 -0.15634146 0.8327515 -0.34121224 0.94781554 -0.74342483 0.4689656 -0.22127709 1.3882757 0.34930658 3.0669777 -0.532337 -0.6430749 0.30041242 0.48695934 -1.6288077 0.056917895 -0.9471302 0.90288717 0.72755545 -0.5270481 -0.26916996 -1.3348869 0.47556928 -0.9819861 0.2891339 -2.5081694 -0.055478357
AA_15 -0.7735435 1.6019837 0.13702022 0.7091848 -1.4254076 -1.0804939 -0.19012438 1.5659158 -0.33998293 -0.14473973 0.1776319 1.293957 -0.61764675 -1.2106906 -1.3050524 0.24837436 0.8283302 0.22641739 3.7938907 0.3073949 1.3162941 1.2389008 -1.9128895 -1.1085644 0.220536 1.0810015 -0.22228497 1.9302504 0.21273577 -0.56840885 -0.15864244 -1.9718294 1.273994 -0.8247096 -0.09578752 -0.73026985 -0.21277374 -0.5073532 0.20140521 0.2778504 0.93645793 0.49164054 1.4591745 0.14936504 1.3063865 -1.4424741 -0.46141106 0.47161356 -1.4039351 -1.9638778
AA_10 -0.14826724 0.359898 -0.06576192 -1.4532001 1.4021467 0.6709495 1.2455269 -0.883232 -0.5687099 -0.36181056 -0.34481773 -0.9717137 -0.90375966 1.2436296 -0.95911866 1.11457 -0.70613444 -0.861042 0.70000607 -1.0661002 -0.13879476 0.7235421 -0.99758697 -0.6500172 0.3271743 0.33876535 -2.0443215 0.0010203905 -1.8698672 -0.8829213 -3.624328 -0.18098386 -0.6499129 0.014143008 0.3298471 1.5037649 1.8114427 -1.6867948 1.6435223 0.39573142 -0.20278993 -3.266346 1.4914038 0.049050692 2.2978544 0.42426196 2.3811638 -1.9007503 -2.5777774 -1.845901
AA_7 0.8901252 -0.48878735 -0.2392949 -0.3173671 0.8710296 0.37946057 0.4819758 1.1925489 -0.12010009 0.48647004 -0.55915064 -0.7599227 0.23270294 0.03324184 0.15178892 0.4655682 0.103297144 0.048600007 0.84753436 0.62832856 0.40977463 -0.33824193 -0.60442144 0.44338027 2.3458042 0.3200655 -0.518782 -0.17349999 1.1249397 0.014226088 0.44842473 -0.8096428 -0.24044648 -0.82482594 0.21054585 -0.29073587 0.39187503 -0.808635 1.7813911 0.066961624 0.3543062 -0.24838066 -0.030259375 -1.0221499 0.6930317 -1.3874062 2.5969214 0.15401801 -1.1106384 0.45797467
AA_12 0.5239663 1.6972969 1.1070049 0.31903815 0.7948601 0.13725623 0.21854092 0.20125052 -0.3026754 -0.74661064 1.0873944 0.60412353 -0.35495389 -1.2432454 -0.4265576 -0.13978666 -1.3829942 -0.506047 0.98258656 0.97651213 -0.010489002 0.35747907 -0.03337559 1.0169901 1.2194319 0.3138118 -1.2108127 0.0026630214 0.050148513 -0.15230122 -0.36895457 -1.8527489 2.382639 0.56096226 1.2674079 0.13119553 -0.8047691 -0.9741012 0.32683727 -0.4410573 0.6983801 -0.9785973 1.8187083 -2.617001 1.4352797 -1.9003799 0.29130358 -0.49380067 -2.6126776 0.4001061
AA_14 0.029528523 -0.11908391 0.23912421 0.51003504 -0.36853722 0.56924343 -1.8800246 0.89815813 -0.20127203 -0.18966794 1.2306122 1.0314314 -1.2182305 -1.0365312 0.39842954 0.29368803 -0.7913066 -0.6586797 -1.2335477 0.49786916 -0.31620085 0.9126528 2.2539823 0.9330736 -0.10172 -0.09984089 -0.18805152 0.99288464 -0.6014281 -0.4520889 -0.53269976 -0.58834857 0.33318964 0.71145487 0.8452937 0.19223988 -1.793376 0.67667216 -0.7830899 0.6067051 -1.9733254 0.025157085 0.8651067 -0.5883318 1.4599398 -0.1880441 -0.13580433 -0.47473282 1.2384565 0.16430126
AA_4 -0.04122244 2.1390724 1.3185092 0.66266644 -1.5224547 0.25562218 0.67688864 0.2459948 -0.16070905 -1.161221 0.7525019 1.0723841 -0.9087713 -1.9371579 -0.72337514 -0.39881632 0.023366021 -0.74791926 1.3541877 0.008643986 0.4290668 1.4433113 0.19050089 -0.10045491 -0.21714391 0.036048576 -0.7309055 1.0512143 1.1412324 0.114589795 0.67370963 -0.47565416 2.1560187 0.67713255 0.6250203 0.7414597 0.34818125 -1.6501807 0.09743377 0.96318436 0.26406053 -1.0591439 0.70391035 -0.4900061 0.6267838 -1.9177439 -0.4577724 -1.2509513 -2.4868534 -0.055273317
AA_5 0.21677937 1.7389328 1.1102253 0.40511036 0.5176188 0.19022514 1.1780211 0.57680327 -0.60194826 0.6282064 0.9557452 0.5088726 0.48708123 -0.6080828 -1.6409816 0.7759927 -0.60668933 0.049448036 2.0085454 1.0706521 0.37888646 0.3133677 -1.0251095 1.1290559 2.6379993 -0.15968649 -1.1172353 -0.6444668 0.68313575 -0.45452335 0.5913852 -2.0516696 2.1813111 0.9557076 1.0488055 -0.28662404 -0.02212106 -1.6614354 1.3528508 -0.45918986 1.2739886 -0.042012636 1.7324102 -2.6923566 1.4123905 -2.3052602 1.4662154 0.57326066 -2.3480928 1.1661227
AA_8 -0.37787753 -1.686037 0.2769105 0.61033654 0.35042104 0.5185283 -1.4574574 0.916267 -0.13574491 2.2641642 1.5150181 0.9695321 -0.9384772 1.3262484 -0.98511297 1.293263 -0.17258927 -0.462729 -2.875285 -0.012980712 -1.114372 0.7565857 1.8873445 1.2625892 0.26018697 -1.0049329 -0.20651783 0.38876784 -2.4712675 -2.1256912 -1.3231919 -0.46950784 -1.968158 1.2830665 1.2498673 -0.5841161 -2.4236486 1.8032175 -1.0532497 -0.43359256 -1.7255365 0.43601468 0.84978974 -0.109128594 0.830017 0.564727 -0.78905195 0.53788054 4.3602037 1.9275994
AA_17 2.9567063 1.391161 0.7781385 2.0835047 -1.6661738 1.3171829 2.6163108 1.349949 1.0296559 0.026413815 -0.65727365 0.6382429 -0.2975021 -1.952707 -2.1660411 0.2735041 0.4996673 0.0057284036 0.8304613 -1.5442247 0.81118697 1.6834651 1.1066095 -0.15257286 -0.48052144 0.2831559 -1.5139161 0.06776578 2.8769076 1.6827328 1.3363237 0.015867377 -3.1211374 0.9710959 1.6247754 1.3896347 0.88197047 0.26696894 0.03363549 0.3157298 0.106859006 0.23561054 0.036748312 1.6360275 -0.9842548 -1.0703905 -0.43992504 0.7322967 1.478846 2.2326834
AA_11 0.882006 -0.31788534 0.20703276 0.9333822 0.17080586 -0.80274755 -0.89875436 1.614062 0.54600334 -1.319507 -0.09453024 -0.58266336 -1.8340652 -0.91049147 0.7874426 -0.94977355 -0.5888366 -0.30370829 0.9344826 -0.41498223 1.4701045 0.06876248 -0.2873644 0.12444691 -0.05186495 1.6327842 -1.0317894 1.967452 -0.6088769 0.44512975 -0.6898984 -1.6032261 1.5564566 -1.145339 0.6714379 1.3864217 -1.540247 1.5114341 -1.4713557 -0.3052312 -0.5113681 -0.065789245 0.5046516 -0.53190446 1.5692217 0.16373552 1.9765059 0.5961791 0.8116713 0.8315698
AA_16 0.041045573 -0.03180493 -0.04296371 -0.15227188 0.22128367 0.09706342 0.115832075 -0.05235783 -0.052990697 -0.15865779 -0.04772178 -0.25881916 -0.07401195 0.0004297259 0.1961369 -0.050658993 0.074971825 -0.15497716 -0.10430669 -0.087870486 -0.17257828 -0.043438338 -0.055666942 -0.15181158 0.06827974 0.12564825 -0.00086083164 -0.010631195 0.22683184 -0.012751724 -0.06411554 0.19048163 -0.19023137 -0.035840176 0.034120057 0.22695033 0.1635054 -0.22299653 0.121772595 0.03538205 -0.1969749 -0.34797654 0.12198304 0.024867944 0.06679137 0.09209944 0.13941684 -0.15509838 -0.26334235 -0.20158808
