17 100
AA_13 0.30113968 -0.9531561 -0.88752544 -0.842549 0.63811904 -0.86236477 -0.4534735 -0.029913997 -0.05543141 0.55842066 0.44369513 0.5708112 1.1714035 -0.9192881 0.9609561 0.13762254 -1.2454537 -0.011322722 0.59842986 1.4932586 -1.651482 2.4581351 1.2838788 -0.5154734 -0.026216477 -0.72169447 1.0906788 -1.2581066 -1.0528376 -1.5166531 -0.10778124 -2.1942837 0.81358206 0.537627 0.36410666 0.5488115 -0.34759593 -0.92990226 -1.1743484 -0.096623205 0.1746047 -0.52408403 0.08297886 -0.9037195 -0.58618 -1.3816953 -1.570766 -0.5790091 1.2907212 0.6163332 -0.67631227 1.10899 -0.5186656 0.9103655 0.20483176 -0.30544525 -1.2677366 -0.42368433 0.25032422 -0.033685233 -0.42362094 -0.12455758 0.84302914 0.74551266 0.6610521 0.24399823 0.94748753 0.23248464 -0.22044373 -0.03363664 0.13680169 0.4343492 -0.4583731 -1.4176185 0.25857806 0.2857973 -0.08616885 0.572272 -1.7515569 -0.03143728 0.16340159 -0.6036498 -0.17831483 -0.34195015 -0.31795812 0.7472892 -0.24143688 0.86478233 -0.92838407 -0.13189043 0.6527896 0.69952303 0.41909462 0.5889695 -0.17285125 0.2768201 1.6125787 -0.01309748 -0.2577034 0.5368547
AA_2 -0.017329298 -0.07539632 -0.16074935 0.27222425 0.23398058 -0.16196615 -0.023791853 0.056775894 0.23406278 -0.15868233 0.104058504 0.23300055 0.10386122 0.017825507 0.47325474 -0.35841194 0.27144355 -0.25495976 -0.2649133 0.0792084 0.08156892 -0.10458788 0.17152986 -0.07303346 0.36107588 -0.06979214 -0.085565 0.056559365 -0.19052404 -0.5552682 -0.12606741 -0.33757743 -0.08313595 0.20633064 -0.4643299 0.20378296 -0.16020253 0.38116336 0.105786264 0.21700895 -0.0053271274 0.21509461 0.13406071 0.1679153 -0.13457349 -0.15079562 -0.22276466 -0.047931563 0.10245642 -0.072060585 -0.25933757 -0.094675615 -0.08895254 -0.11080126 -0.6092185 -0.21379392 0.49465483 0.39471117 0.18739107 0.57782173 -0.16684176 -0.45750043 -0.1376305 0.23428512 -0.06992695 -0.054623444 -0.3265074 0.3162293 0.34509194 0.1259572 0.37455773 0.07386168 0.34203634 0.05222951 -0.062472105 -0.29620004 -0.1869078 0.27926332 -0.3460313 0.16395272 -0.20292339 -0.06454193 -0.06882572 -0.09711902 0.12783048 -0.032725208 0.29087135 -0.2911963 -0.14071152 -0.2722463 -0.36106166 -0.009195405 -0.15598291 0.24119574 0.022384675 0.17259419 0.22575343 -0.3722727 -0.059082918 0.6753055
AA_3 -0.017146705 -0.0155788325 -0.18939969 0.062573425 -0.18214647 -0.5436254 -0.060569074 0.0400129 -0.040063832 0.22348438 0.06009547 0.13683562 0.18561234 0.27041352 0.29075938 -0.2431798 0.26555058 0.19427833 -0.26230887 0.19362229 0.07855143 -0.37606966 0.12881137 0.29713738 0.18126693 -0.30029663 -0.05796562 -0.15722407 -0.33868644 -0.6065738 -0.07596158 -0.2894093 -0.093230024 0.1416216 -0.38887164 -0.026972491 -0.19942501 0.37692037 0.0053377347 0.19557612 0.1365894 0.3873822 0.28981772 0.00104323 -0.046272688 -0.06025297 -0.5861046 0.3907974 0.20585409 0.2243721 -0.11642627 0.038529232 0.09307294 0.25357077 -0.36549294 -0.3845745 0.15689205 0.09344115 -0.020022945 0.5481635 0.015919995 -0.46204373 -0.004147991 0.16918826 0.26890543 -0.18415242 -0.77258474 0.23668212 0.7657856 -0.21597365 0.10641385 0.4388305 0.36419716 -0.0066994173 0.32624447 -0.31583178 -0.049098503 0.38720426 -0.31665224 0.08065247 -0.42178085 -0.19095074 -0.079525605 -0.009728341 -0.118087344 0.16509171 -0.01694195 0.30687496 -0.44596043 -0.38173574 -0.23618837 0.031335376 -0.45455882 0.32751223 0.3146678 0.13537416 -0.26024947 -0.2360513 -0.015188407 0.18750964
AA_1 -0.15072839 0.21895461 0.15075578 0.33458498 -0.5163605 -0.20994608 -0.08506289 0.6661118 0.14705664 -0.27975705 -0.19169152 -0.15711603 -0.7618355 0.47026312 0.50788116 -0.4948769 1.3563719 0.21840818 -0.5349785 -0.6753637 0.34363726 -0.7252798 -0.24516053 0.2831164 0.27396694 0.13933057 -0.20701326 0.6543907 0.41085538 -0.17402369 -0.020880181 -0.2370544 -0.24964765 0.09965168 -0.8403028 -0.73228234 -0.11598258 0.9793383 -0.10938 -0.35519695 0.14290006 -0.25913307 -0.4386374 0.589626 0.44405687 0.27018103 0.87031466 0.36724937 -0.9318667 -0.51461565 0.781787 -1.2515248 0.46380547 -0.49310514 -0.016449217 -0.3824857 0.43167228 0.45424062 -0.042952046 1.2155764 -0.9293035 -0.4681598 -0.72708845 -0.5579011 -0.21903363 -0.30224332 -0.451294 0.4686541 0.26067373 -0.08488864 0.65486664 -0.01429632 0.36820024 0.19860514 0.13513918 -0.012143757 -0.22342362 0.6343678 0.015463043 0.32747322 -0.48231882 0.36712888 -0.17219225 -0.5002515 -0.10467528 -0.2525472 0.5636363 0.2339907 -0.45895204 -0.2577916 -0.35853168 -0.05261351 -0.8623351 0.88973784 0.012559853 0.118645206 -0.6233316 -0.59568864 -0.7831563 0.76315624
AA_9 -0.008631823 0.47019663 -0.5164916 -0.57908905 -1.4758682 1.0767549 -0.2554021 -0.15992817 0.15931298 -1.9887263 -1.5888389 -0.9205272 -0.64684045 -0.6382649 -0.6672151 -0.23262012 1.4530165 -0.25114185 0.70462954 -1.5853592 0.26203382 -0.93357 -0.8550897 -0.34981707 -0.73118114 1.2683799 0.9583619 0.7891728 1.7515532 2.368768 -0.35350114 1.8686019 -0.8195181 0.20600605 -0.8231184 0.21353774 0.83683604 0.935069 1.0964396 -0.22236808 -0.38463274 1.1311345 0.032294374 0.8846066 0.15937357 0.8046348 1.6769693 0.050438862 -0.03542252 0.36539873 0.46636662 0.27801275 -0.18194492 -1.0566978 -0.20472771 -0.22282664 1.2213596 0.7044441 0.84058505 0.35644528 0.34822068 0.4720485 0.19883491 0.3913571 -0.6317515 0.2989408 -0.969058 1.1116333 -0.035582628 0.5363997 0.08124117 1.4620029 1.3496166 0.93669856 -0.40938187 -0.013081659 -0.5734567 0.27080533 0.437035 -0.3240996 1.2129122 0.25323766 0.2063991 0.1000469 0.7430617 0.31266648 -0.09138048 -0.66848236 -0.24180304 -0.85188466 -0.5490377 -0.47424346 -1.0214567 0.0068162996 0.28551507 -1.2231793 -0.110480994 0.69031966 -0.7263505 -0.73580545
AA_6 -0.48263657 0.1516206 0.039221846 1.0486596 -0.18967526 -0.027042357 1.2104805 -0.2766469 0.3774644 0.08803731 0.61394304 1.3526129 0.47526565 0.78132313 0.7038689 -0.6526248 0.7515526 -0.5461505 -0.86875993 0.6687608 0.2824754 -0.34863362 0.017815286 0.21918346 1.5035446 -1.3735015 -0.004978418 -0.044111513 -0.4218254 -2.201438 0.40157342 -0.6171481 0.0087095555 0.47525802 -0.5638796 -0.1916938 0.63927305 0.010669138 0.04550148 -0.012220605 1.0277857 -0.55260575 -0.057289165 0.03927227 -0.0131463725 0.13045758 0.4915092 0.28680524 -0.81878877 0.43509984 0.6482028 -0.6304538 -0.5823471 0.5112975 0.71319056 -1.259265 -1.2035192 -0.10742962 0.46592423 0.98571956 -0.7700647 -0.14206484 -0.041840885 0.057692092 0.713379 -0.51974905 0.75309515 0.12975962 0.9506163 0.023514772 0.5811894 -1.3053994 -0.38457412 -0.28834137 -0.26521105 -0.19136299 0.004204676 -0.01599404 -1.2111056 -0.087628014 -0.8303608 -0.9876194 -0.3585118 0.0038630797 -0.1698045 0.36592895 0.27685246 0.4732205 -0.33408573 -0.16900784 -0.18226755 0.286361 -0.095821485 0.11614859 -0.19876865 0.4540518 0.02053172 -0.90621823 -0.12351985 2.1689124
AA_15 0.10606662 0.97469383 1.390104 1.6670492 1.1463078 -0.7890947 -0.25180987 0.27908552 0.40137577 -0.19481637 0.22278406 -0.76397294 -1.5549521 0.7713419 0.354516 -0.4123162 0.9623965 0.16175011 -0.4907416 -0.7148408 2.3725548 -1.6432432 -1.1977425 1.1526684 1.045711 0.8240804 -2.241931 1.5256327 0.66250825 -0.053722877 0.53445476 -0.11111917 1.0524262 -0.7577202 -0.42188743 -1.113614 -0.3649728 1.7261811 -1.1838534 -0.4590639 0.30396312 -0.09346059 -0.1992617 -0.40861425 0.6897065 0.26662734 1.2074419 0.95627666 -1.0803808 -0.4391716 0.75408727 -2.2208662 0.42249054 -0.18629317 0.561085 0.83810234 0.52071285 0.11656572 -0.02105281 0.058384042 -1.1684005 -0.03026433 -1.07038 -0.48022068 0.16566776 0.23544301 0.2885406 -0.078428924 0.31253344 -0.50384027 -0.019218102 -0.9440326 -0.18058024 -0.31918243 -0.07364553 0.34494415 0.22495946 0.4011829 0.4055784 0.60805655 -0.55715233 0.7359773 -0.4258558 -0.29164338 -0.70537084 -0.78667176 0.84411114 -0.4263423 0.4708636 0.5969286 0.09321512 -0.39367837 -0.15620634 0.89600354 -0.7616928 0.8034318 0.18833841 0.21709555 -0.46264642 -0.10096572
AA_10 0.17764716 1.15354 1.4672279 -0.27331755 1.3382342 1.0815862 0.49291077 -0.12727293 0.990119 -0.9556326 0.18200439 -0.46383467 -0.35637653 0.28580043 -0.19043376 0.412613 -0.8054175 -0.8218215 -0.86586803 -0.78931826 0.6383894 -0.13525142 0.2240442 -0.72190726 0.9734481 0.71764475 -1.43059 -0.5067761 0.5290067 0.40959525 -1.2190894 1.9293531 -0.23249443 -1.6056584 1.6545506 1.1488965 0.21272393 -2.474641 1.7396849 1.0664574 -1.2233344 -1.3420447 0.013707716 0.21762559 0.99112463 0.5884659 2.1075315 -0.5980429 -0.97752327 -1.0297903 -0.1883404 1.0870461 0.08234159 -1.0613408 0.81304234 1.0717143 0.027696155 -0.86197513 -0.62124175 -1.8618194 0.2692571 1.2257689 -0.40894344 -1.3807704 -0.61512154 -0.45246673 0.19016337 -0.71720386 -0.7379393 -1.3308774 -0.51966244 -1.2195896 -1.1613822 1.3597696 0.58543 0.21692562 0.35061923 -0.80116636 1.8883 0.9112881 -0.1200923 -0.10355705 -0.6407383 0.37644517 -0.098441966 -0.13834868 1.0894972 -0.5441085 2.1257374 0.32372305 -0.747362 -0.17947261 1.1089935 -0.40458107 -1.5127108 0.009291821 -0.44534653 0.52249205 -0.22014226 0.8582985
AA_7 0.03102246 0.06963031 0.10709821 0.45014703 0.67381895 0.94555694 0.059189036 0.5682696 0.15735924 -0.4996727 0.6292529 0.43276402 -0.032388613 -0.18821558 -0.112609506 0.31257993 0.05868561 -0.87367904 0.4073866 0.5330253 0.88160217 0.02125416 0.15148042 0.13342622 1.7032008 0.41944948 -0.0076897526 0.47750002 -0.13314442 -0.26157752 -0.38827938 -0.33754295 0.011238671 -1.0100142 0.17702812 0.5788235 0.07723669 -0.55311143 1.4454081 -0.10512378 0.06901672 0.3899428 0.3729984 -0.2984731 0.05751328 -0.4365635 0.6585043 0.112760134 -1.093946 -0.6466911 -0.26001748 -0.97313744 -0.04579148 -0.53429204 -0.5090497 0.18629062 1.1758577 -0.072236024 0.35743502 -0.083289705 -0.76903945 -0.038851026 -1.4246343 0.42210314 -0.14266618 -0.31365332 -0.60512406 -0.118738845 -0.2864768 -0.17963618 0.85842717 -0.007156791 0.7174111 0.3022625 0.0020363505 0.63530475 -0.42364573 0.09630792 0.08122224 0.58338535 0.46591166 -0.013230888 -0.11197695 0.82245564 0.4154326 0.7799152 0.8969479 -1.3163688 0.31162837 -0.95443803 -0.51274544 0.34184057 0.6536716 -0.32220644 -0.6122912 0.025882598 0.9706485 -0.19419533 0.7570444 -0.33870488
AA_12 -0.275935 0.11174743 0.48496324 0.27392867 0.8361317 0.13440117 -0.13310666 0.81030416 -0.18390739 0.16800483 1.1252376 -0.3830135 -0.6264433 0.8988672 0.034547027 0.18763249 0.2717553 0.00084146793 -0.43690398 -0.08054889 0.4347743 -0.7675504 -0.12943591 0.314604 1.3322738 0.19859678 -0.7940666 0.046724215 -0.4752541 -0.48130828 -0.60811144 -0.79668707 -0.8067751 -0.517248 -0.14805958 -0.76463276 -0.5012158 -0.44365358 1.4046887 -0.002523491 0.07300625 -0.42834672 -0.34943897 0.8054844 0.79233515 0.398804 0.8786237 0.37599918 -1.9022931 -1.5232995 0.44360596 -1.6678874 1.1684175 -0.4526722 -0.567956 -0.22274852 0.5083634 0.18050951 -1.2551957 1.028026 -0.73089725 -0.8257063 -1.7052549 -1.358404 -0.6197442 -1.5718043 -0.84231436 -0.25472346 0.011823867 -1.0057085 1.4646362 -0.7964579 -0.22989106 0.7496934 0.57863796 0.11073551 -0.42068484 0.41665646 1.1451217 0.8243604 -1.4149308 0.44833264 -0.21086054 0.3604921 -0.58068424 -0.5012748 1.084563 -0.115705155 0.14344116 -0.48142326 -0.6890736 0.27003944 -0.45194507 0.25590077 -0.17214614 0.434672 -1.3922983 -1.1917772 0.20711721 1.120283
AA_14 0.39258084 0.1711948 0.6953356 -0.9011025 -0.8549546 -0.44951755 -0.6332409 0.69591874 -0.51122 1.0493177 0.10041074 -0.08008399 -0.94732696 -0.37123626 -0.51785123 0.40280727 -0.34611285 0.94660693 0.21374615 -0.18664011 -0.29107603 0.84063065 0.5081729 0.53438205 -0.6949976 -0.26938462 -0.5865234 0.047884468 -0.3272632 0.60641676 0.13691388 -0.66125685 -0.35810164 -0.25315818 0.1072571 -0.6558596 -1.2950108 -0.071040705 -0.38749942 -0.04825864 -0.6841795 -0.08141027 -0.12913784 0.27138665 0.20244546 0.017707013 -1.3050106 -0.04818425 0.8900622 -0.5746284 -0.47724777 0.39123866 0.9805756 0.01724662 -1.0443665 0.6394977 0.75917965 0.06400304 -1.0324861 -0.0942059 0.4337278 -0.73758715 -0.23617655 -0.66626436 -0.52696085 -0.69585603 -1.4440359 -0.34962958 0.10450479 -1.0018444 0.0444054 0.96415263 -0.004319026 0.3187868 1.1501251 -0.31368107 -0.020428408 0.34028417 0.92743826 0.40234897 -0.70862347 1.0473603 0.041805282 -0.44121605 -0.5500748 -0.30746356 -0.22372623 0.5296472 -0.39738357 0.3312867 -0.29087412 0.028458906 -0.57050204 0.8484021 0.82266754 0.16926451 -1.2508633 -0.09004009 0.17629412 -0.4959943
AA_4 -0.29599196 0.81948966 0.6549126 0.53776383 -0.744007 0.23118024 0.43699965 0.35954905 0.25074738 0.080319874 -0.3578357 -0.059591517 -1.1436439 0.98990273 0.41194716 -0.4505669 1.8608006 0.3802194 -1.0518681 -1.1626492 0.9261319 -1.2102462 -0.45404685 0.41833055 0.51670533 -0.23737176 -0.7306926 0.90143806 0.6634961 -0.020191677 0.19874409 0.668322 -0.8163988 -0.12952045 -0.9113366 -0.96008116 -0.09442563 0.92012846 0.45427623 0.00046304485 -0.16767992 -0.6026993 -0.78003746 1.3621686 0.5238183 1.0797149 1.6612124 0.15649848 -1.130104 -0.9369899 0.96266663 -1.1540619 0.53581095 -1.1246505 -0.107740216 -0.28018466 1.0240965 0.6482945 -0.1276517 1.1464119 -0.6443537 -0.53771555 -0.9752572 -1.1847085 -0.35817796 -0.9540732 -0.67841256 0.15858978 0.68426293 -0.69297755 0.760842 -0.48026058 -0.1537357 1.1174626 0.12211532 -0.32452983 -0.5152609 -0.119895644 0.9160442 0.32727963 -0.5059227 0.6463887 -0.19455484 -0.61480886 0.24877101 -0.06753143 0.35282 -0.13913359 0.3337498 0.40283924 -0.75535595 -0.39500675 -0.78606206 0.57254577 0.07949446 0.2549098 -1.3525575 -0.9275773 -0.29489043 1.5897452
AA_5 -0.31269848 0.5038174 -0.12480469 1.5647478 1.847411 0.8176584 -0.13844553 0.31134734 0.116724305 -0.118712574 0.74983656 0.13892663 0.054818418 1.233946 -0.35394537 0.7455128 0.71240324 -0.34596762 0.10101616 0.17436424 1.4207466 -0.9044763 0.116596654 0.43866187 2.0950363 -0.21077497 -0.7494929 0.008017055 -0.38897654 -0.7374364 -0.56217927 -0.55886227 -0.49026322 -0.7930176 -0.7320012 -0.67934316 0.2612157 -0.18235584 2.0519762 -0.22155602 0.6643642 0.7809254 0.10086721 0.44632912 1.1974862 0.1808214 1.4152675 0.6939031 -2.3879704 -1.206464 0.53078055 -2.2678406 0.9807427 -0.38501826 -0.50777 -0.26171833 0.9051618 0.018329274 -0.8297308 0.8375835 -1.1152636 -0.4831017 -2.0086498 -0.61774725 -0.35487902 -2.0351703 -1.0248423 0.15631266 0.3677001 -1.4171705 2.1722074 -0.6266813 0.4169124 0.4151427 0.51890814 0.3607037 -0.6256351 0.834652 0.9425869 0.7770647 -1.0520494 0.13832429 -0.19112791 1.3714391 -0.6816192 0.016522713 1.0306944 -0.68440175 -0.20087002 -1.199868 -0.65134966 0.31688747 -0.63435143 0.05503087 -0.17824534 0.37066102 -0.373066 -0.11992366 0.26618293 0.759103
AA_8 0.62753475 0.3839816 0.027714431 -1.2574244 0.19696282 -0.5096563 -1.155387 -0.9681595 -0.9738552 1.1651565 -0.14322121 -0.84892344 0.039664455 -0.71197605 -1.8252611 1.598281 -1.8967575 1.3829403 1.8787419 0.34509432 -0.23226278 1.3458111 0.3216852 0.6666105 -1.4070591 -0.44746965 -0.46932015 -1.2090023 -0.68244755 1.5990018 0.14649983 -0.572809 -0.07291423 -0.029739078 0.5311665 -0.64429694 -0.97373205 -0.64233863 -0.34512684 0.011387678 -0.47098395 1.2394477 0.59091765 -0.44900006 0.15846168 -0.12540805 -2.2122777 0.431753 2.1048589 0.7543223 -1.0762038 1.712441 0.81024015 1.3889856 -0.8358596 0.82779765 -0.45254895 -0.39936996 -1.3952602 -1.349611 1.9120173 -0.28304315 1.0016747 0.27518255 -0.26953235 -0.85721594 -1.5273417 -0.40964922 0.2630374 -1.5339879 -0.51287895 1.714116 -0.0037510425 -0.31062046 1.5102878 -0.56287926 0.19902138 0.40123886 0.89511776 -0.31203565 -0.6067261 0.5800414 0.29840818 0.75647664 -1.3533047 -0.30502993 -1.4325002 0.85852766 -0.85874605 0.29048783 0.40207872 0.0641492 -0.70462185 0.079238065 1.6325785 -0.22664578 -1.0558965 1.8052237 0.78721243 -2.2348504
AA_17 -0.01708714 0.44098142 -1.0856504 -0.65282106 -1.1378299 0.8213716 -0.8420057 -0.20498812 -0.08261054 -2.0580897 -1.8229398 -1.6750042 -0.7661467 -0.6727018 -0.5440175 -0.0497945 1.76106 0.21982495 1.3121905 -1.7354467 0.1927964 -0.85744894 -1.1191748 -0.3020051 -1.0837742 1.6261251 1.21048 0.67842484 1.8960798 2.7215643 -0.41122666 1.2557492 -0.748478 0.36658219 -1.3585349 -0.28721118 0.59436274 1.5601958 0.7100349 -0.64541405 -0.23972014 1.5349029 -0.116561 0.96560514 0.3312333 0.56421673 1.5497833 0.37230095 -0.15228637 0.41128296 0.75294673 -0.34875447 0.10419466 -1.0531349 -0.26774952 -0.31162706 1.3464054 0.95371306 0.7420238 0.9812631 0.11920168 0.10888441 0.040013663 0.46652398 -0.81444734 0.26890844 -1.3400819 1.492166 -0.14715232 0.6045071 0.45136264 2.0169005 1.766262 0.5964716 -0.27183285 0.033520866 -0.66199493 0.8699869 0.23270924 -0.32906717 1.1148436 0.5326434 0.27595103 -0.057859443 0.53403795 0.19759022 -0.19559738 -0.29816034 -0.94361585 -1.0292654 -0.35050318 -0.4240603 -1.6254847 0.4515099 0.6130513 -1.3792408 -0.36071587 0.73730886 -1.0346301 -0.95406634
AA_11 0.63475734 -0.6244261 -0.34256318 -1.3616087 1.4318137 -1.3849977 -0.8515264 0.7608917 -0.20268384 0.07817308 -0.45408633 -2.0336215 -0.37442997 -0.2361656 1.2379583 0.46305907 0.11137664 0.9383101 1.1070538 0.17412962 0.4610137 0.7200573 -0.5312585 0.03401412 0.3313041 0.91035235 -0.528709 -0.107106 0.18954194 -0.055241052 -0.05453482 -1.6342233 0.31407616 -1.3944355 0.4647155 -0.27804404 -1.59313 -0.12590165 -0.9204261 -0.52836686 -1.0081973 -1.0628015 -0.3048015 -0.27679035 -0.022971377 -0.6528159 -0.011811693 0.54569286 -0.08736652 -0.8476165 0.04061936 -0.765661 0.35405046 -0.6709161 0.0057508857 0.8248452 0.5955316 0.28823936 -0.08992536 0.14762276 -0.9724534 -0.6870476 -1.1477368 -0.42112574 -0.33324763 0.6040227 -1.0548077 -0.589133 -0.7849151 -0.6941033 -0.30653274 0.72998613 -0.051335476 0.06740836 1.1376841 0.512542 -0.281487 0.30892074 -0.10896169 0.8187156 0.15109201 1.0398371 -0.5322198 -1.055499 -0.11030799 0.37387866 0.7087427 0.032983065 0.071605034 0.67607903 -0.10239663 0.32713404 0.37830174 1.3599148 -0.3694108 0.32097077 -0.33415383 -1.0399089 0.059816748 -0.25114506
AA_16 0.017440742 -0.038887598 0.019457681 -0.24515742 -0.050341196 0.054125097 0.06763792 0.10184898 -0.02132699 -0.1249943 -0.11309734 -0.08982702 -0.062100783 -0.15724917 0.123357296 -0.014771708 0.0541503 -0.040972956 0.068273626 -0.021518027 -0.14180447 0.101864435 -0.09243884 -0.11273197 0.09396062 0.119785376 0.19928059 0.008934606 0.2418374 0.11104738 0.026524622 0.14069417 -0.023710119 -0.108199805 0.14412923 0.15997943 0.07047779 -0.22673771 0.1663828 0.050949365 -0.10949479 -0.1161087 -0.024654359 -0.0059048343 0.07786702 0.04350108 0.31978014 -0.1401128 -0.070914574 -0.06666136 0.046765298 0.17566797 -0.12766993 -0.20092285 0.17236173 0.03316204 -0.029489426 -0.07482439 0.12359479 -0.17502652 -0.06346566 0.22632895 -0.008468062 -0.06485947 0.050291285 0.052773375 0.16230054 0.0041982783 -0.12260042 0.019314306 -0.038336203 -0.06564965 -0.031488553 0.083090365 -0.08972957 0.09168133 -0.039130274 -0.121869035 -0.010353203 0.0602043 0.1660401 -0.12489422 -0.04524753 -0.10519339 0.16745932 0.18947265 0.04866604 0.034740403 0.101349905 -0.04393226 -0.058801465 0.00519645 0.14406927 0.03036217 -0.20470509 -0.10821199 0.09131196 -0.17358702 -0.025097517 0.2738255
