17 300
AA_13 -0.6239767 -0.790771 -0.72618306 1.355255 -0.097579725 -0.99304694 -0.9420032 -0.20168948 0.16959138 -0.65688145 0.108293526 -0.15138675 0.37262985 -0.19576964 0.8703238 -0.9658231 0.29768118 0.61639994 0.24983111 0.12856354 0.55015504 -0.92541236 -0.38417482 0.27930123 0.2664273 0.3725633 0.33196026 0.0044441214 -0.23846939 -0.11312149 -0.34456834 -0.58983064 0.07845566 0.56637317 -0.2635619 -0.8599094 0.111852266 0.35602382 0.3948496 0.25068748 -0.24371983 0.03102338 0.09093747 -0.10493007 -0.18982436 -0.39681154 0.15344004 0.060035773 -0.2087368 -0.6229061 -0.6922089 0.34731016 -0.06385491 -0.031829383 -0.32168496 -0.014708781 0.5494378 0.43719456 -0.07928059 -0.41312063 0.068314336 -0.34367922 -0.45604652 0.44004825 0.24633758 0.05269849 0.24381037 0.30769795 -0.37062725 -0.48947033 0.508867 0.20800121 0.37611666 -0.21438317 -0.52793974 0.1979154 -0.8663406 0.06740082 -0.055283993 -0.04274518 0.21352439 0.06369371 0.13316627 0.34659934 -0.01887225 -0.5597336 0.18481359 -0.17156464 0.014424336 -0.16466552 -0.056882877 0.28723916 -0.28932032 -0.29061234 -0.04553049 0.008025145 -0.15897714 0.03926916 -0.14696434 -0.291333 -0.21942316 -0.031677168 0.31175438 0.037453327 -0.30708793 -0.010814442 0.19174057 -0.7829203 0.03328404 0.06730887 0.12179177 0.14550145 0.40774965 -0.51173085 -0.47745082 0.47115815 -0.97931033 1.3639141 -0.18969087 0.79965216 0.10998603 0.087770246 -0.22014534 -0.014320155 -0.19161333 -0.5644155 0.45491347 -0.5361515 -0.558443 0.66246957 -0.68274665 -0.592248 -0.17869544 0.1937402 -0.39947706 -0.32161817 0.030508358 -0.9084821 0.56308085 0.56763536 0.58243394 0.9431002 0.5038434 0.5241996 0.41149172 0.34247243 -0.22797683 0.25586614 0.119124606 -0.3244233 0.031620905 0.64640075 0.22974283 0.8075644 0.038757615 -0.08871695 -0.57680655 0.14529334 0.15037256 0.39877984 -0.23103815 0.86131084 -0.1078029 0.6035285 -0.41600135 0.50329447 0.7060551 0.29249665 0.28730613 0.39160866 -0.4999065 -0.0041070883 -0.6035643 0.45165753 -0.051362984 0.628831 0.2350689 0.10293398 -0.32460395 -0.42147142 -0.34262523 -0.09383467 0.75878507 0.35384712 -0.0058041574 0.47767377 0.1400419 -0.67104083 -0.41669023 -0.10921682 -0.65805686 -0.39555383 -0.25766936 0.7365877 0.06457017 0.8027143 -0.3558421 -0.32883087 0.35216156 0.4091079 0.7954158 0.5915606 -0.06673067 1.2438737 0.54029745 0.05731999 0.30614865 -0.38136443 -0.33296743 0.6189921 0.30839968 -0.15883417 0.35717145 -0.7655318 0.8178206 1.1267807 0.3210773 0.21570298 0.18486375 0.028702786 -0.36111262 -0.10286608 -0.34291682 -0.4697378 0.25321883 -0.3146374 -0.523936 -0.021997914 0.98078597 -0.3091221 -0.06390258 0.35502523 -0.14883381 0.5813061 0.22693299 0.16019346 0.3154655 0.6458799 -0.07226797 -0.08728942 -0.3712326 -0.5608424 -0.07384185 -0.06478547 0.5033364 -0.039523028 0.14784926 -0.29155156 0.18090864 0.39933047 -0.29999226 0.26957637 1.5859357 0.4497652 0.49508634 0.11137988 -0.96185434 -0.23097436 -1.1164051 -0.12749451 -0.21581651 -0.19900301 0.5475401 1.0280211 -0.17250904 -0.53094125 0.4523666 -0.8536464 0.38867643 0.15614311 -0.9105665 0.5094931 0.28774524 0.944443 -0.17157736 -0.10570321 0.29590404 -0.89311504 0.5821132 -0.61277014 -0.38037208 0.3915904 -0.47562352 -0.49243435 0.17266178 0.103246555 0.13847563 -0.06565033 0.0483031 0.18353696 0.20294079 0.32541138 -1.2522423 0.12326017 0.3237941 0.40673018 -0.33049378 -0.5715426 -0.5566396 -1.6227125
AA_2 0.004386006 0.07740309 0.031111622 -0.14540067 0.13045433 0.107189655 0.07418785 0.38617453 -0.1579934 -0.1291813 -0.064227 -0.16362548 -0.09493786 0.0034214763 -0.0013211264 0.24238202 0.26423252 -0.1447915 0.06698615 0.050625224 -0.19401103 0.09744131 -0.023496496 0.22588493 0.2899558 0.0051254104 0.24237336 0.100944154 0.09199589 -0.22469257 -0.09339299 0.015646378 0.013380773 -0.02424428 -0.090457566 0.07310778 0.33538866 -0.06554733 -0.00818852 -0.26641503 0.023489542 -0.10042193 0.071759425 -0.16433322 0.18040459 -0.058735535 0.10953668 -0.18921061 0.020261418 0.05344796 0.04462888 -0.19340357 -0.07008875 -0.1590638 0.079847455 -0.0050131883 -0.0051838136 -0.12257391 0.11472208 0.065747455 -0.32124078 0.14467488 -0.21807027 -0.18466039 -0.19041169 0.12844892 -0.19418061 -0.025907246 -0.22807142 0.32269 -0.06572358 0.04139552 0.12975891 -0.13035071 -0.12296899 -0.0033693933 0.17999822 0.07389789 -0.07205444 0.0663662 -0.01180423 -0.10829033 0.08047542 -0.16556452 0.17453477 -0.09438522 0.072661676 0.21797802 -0.1437411 -0.10962372 0.2553793 -0.057311885 -0.15225674 -0.1705908 -0.055176027 0.044788327 0.13630109 0.12706068 -0.05988543 -0.13459294 -0.043746933 -0.05418353 0.067797884 0.02469677 0.13001715 -0.05987851 0.0038995235 -0.1364406 0.09186459 0.11127451 -0.029891351 -0.16408995 0.17220475 0.13011959 -0.024611086 0.08792026 -0.030422358 -0.095161974 0.06007295 0.22587195 -0.2457878 -0.091954075 0.18405725 -0.1107964 -0.08990897 0.05596174 0.03957387 -0.114020355 -0.12114288 0.03260075 -0.069379345 -0.14077891 -0.10270527 -0.095641255 -0.024958992 -0.07052398 0.12377168 -0.06815361 0.15243253 0.15180553 0.13384543 0.16687393 0.199112 0.046370234 0.22592373 0.25313362 -0.2809145 0.10913777 -0.07935577 -0.09261199 0.060146056 0.0686117 0.09687993 0.14486147 0.023817167 -0.057050202 -0.14290714 -0.027169066 0.0110843405 0.15211868 -0.029351847 0.1155434 -0.10473271 0.098573506 -0.09465154 0.038530115 0.09530226 0.084499896 -0.044732492 0.043339394 -0.14010738 -0.012886144 -0.041960947 -0.036833514 0.08271367 0.08473928 0.06603228 0.0049288175 0.09576114 0.061560344 0.046328183 -0.13721694 0.020865971 -0.012093859 -0.007392003 0.029056363 0.108644 -0.050010335 -0.112449214 -0.019024802 0.014196134 0.0036565633 -0.15172185 0.15351069 -0.06892846 0.021301344 0.1376357 0.058445487 -0.0848354 -0.2227284 0.18898483 0.19664167 -0.08053913 0.06296649 0.059226807 -0.05905274 0.18852086 -0.04148283 -0.011194459 0.07189392 -0.10011346 0.0647143 0.10986593 -0.14772034 -0.07221911 0.16882299 0.0949097 -0.018632753 0.16600353 0.326252 -0.0031600497 0.13005432 0.023405442 -0.20031764 0.10735688 0.21161823 -0.18497382 0.016260635 -0.3091258 -0.22271328 -0.1592585 -0.13367249 -0.13495019 0.3852801 -0.05343293 0.053344954 -0.05786264 -0.0068040136 -0.0115008885 -0.2560339 0.077530116 0.045430664 0.10055502 0.08547964 -0.13087793 0.1786735 0.12961495 -0.039905626 0.052492384 0.07254731 0.009590167 0.12316609 -0.027312173 0.059390385 0.083406925 0.05233537 0.25742996 0.18545529 0.24772671 0.015674978 -0.11403424 -0.03739634 -0.18809094 0.18590637 -0.019109244 0.2523142 -0.2651587 -0.12189761 0.013371443 -0.08435025 0.18282886 -0.28153002 0.14927398 -0.1057256 0.13224338 -0.06220414 -0.23057634 -0.058976956 -0.03886251 -0.10561615 -0.049379747 0.0097408835 -0.20779367 -0.056859706 -0.11046782 -0.08967312 0.05581392 0.048632547 -0.017654628 -0.045949504 -0.2672096 -0.09141245 0.07848077 0.05437455 -0.24241188 0.089598395 0.23091283 -0.22047387 -0.20420857 -0.2347182
AA_3 0.09382273 0.06418554 0.103767745 -0.52344024 0.26262906 0.06960947 -0.010356907 0.362418 -0.32873636 0.16231889 0.009014467 -0.19061512 -0.0048680343 0.0921017 -0.058111034 0.4318297 0.07294975 0.13900624 0.13700253 0.22425239 -0.17286465 0.009686592 0.098993585 0.42450345 0.36791104 0.024818784 0.22828935 -0.036993414 0.049486246 -0.07182474 0.055533655 -0.1171859 0.0031796969 -0.095230676 0.06277414 0.10083714 0.23092413 -0.23999843 0.1966514 -0.23006414 0.10473751 0.06623838 0.059245005 -0.16590294 0.10136064 -0.0430081 0.05951805 -0.032862417 0.1751562 0.25480744 0.068455875 -0.0891035 -0.016068105 -0.10158514 0.13532783 0.008143525 -0.036191218 -0.21765497 0.104190305 -0.083622485 -0.21635784 0.21679665 -0.26515472 -0.13647802 0.088239 -0.06689366 -0.15074076 -0.18020308 -0.0609507 0.1530839 -0.024249364 -0.037360854 -0.024177313 -0.14217226 -0.029081348 0.003198981 0.058372665 0.062417418 0.0852265 0.054157842 -0.11691346 -0.13677599 0.13162519 0.06185999 0.088146694 -0.029957324 0.12659733 -0.15225841 -0.015088894 -0.09480871 0.14894743 -0.16747926 0.031937405 -0.13727 -0.006961329 0.22178599 0.23570274 0.22282529 -0.06533406 -0.14383537 -0.16065942 0.09188148 0.12160527 -0.20116253 0.08200098 -0.0371579 0.054344207 -0.03676605 0.15282278 0.3170435 -0.15716472 -0.16796376 0.1747224 0.14689356 0.13947523 0.063136846 0.057146586 -0.14893116 0.18264244 0.17388111 0.01565331 -0.10922135 0.25772572 -0.22183444 -0.16668436 -0.008464491 0.10101755 -0.107375495 -0.13936642 0.057790555 -0.05883886 -0.3322844 -0.31300122 -0.23013636 -0.02406895 -0.06323013 0.29574877 -0.15421936 0.24981722 0.22235084 0.007745609 0.3521777 0.4736888 0.05232211 0.24768676 0.5020605 -0.37081838 0.1715105 -0.21385416 -0.1808035 0.055798292 0.10472867 0.25610572 0.104964234 -0.091391526 -0.1916743 -0.14586225 -0.012777671 0.066770345 0.25677165 0.01835743 0.33341855 -0.09978395 0.31400076 -0.27310583 0.062510036 0.095954336 0.16914861 -0.12911889 0.163556 -0.22728297 -0.06239045 -0.07923494 0.014871003 0.17504667 0.034163374 0.123080075 -0.03039457 0.12559983 0.12024332 0.16683799 -0.13521506 0.023355747 0.027346082 0.050904255 0.1372005 0.1589739 -0.14850645 -0.116438404 0.051333126 0.027542563 0.08157627 -0.025135353 0.20692807 -0.23017214 -0.07295501 0.06795166 -0.02550707 0.06531844 0.012018498 0.22744681 0.268551 0.0014185603 0.10173286 0.049319576 0.04971606 0.27638718 -0.029202694 -0.22721028 0.16235313 0.07531226 0.06253217 0.098463394 -0.15287335 0.08030122 0.32228124 0.021879554 0.1890398 0.15716952 0.21595654 -0.07140547 0.09503981 0.030056788 -0.13175817 0.30510405 0.11902229 -0.3348483 0.17395468 -0.1708461 -0.11696031 -0.12559614 0.21616365 -0.0576565 0.19033179 -0.03648582 0.17536834 -0.088176705 0.10959451 -0.07497294 -0.23216346 -0.026955534 -0.067236744 -0.07721184 0.047748033 -0.087217666 0.08477277 0.035293825 -0.17725867 0.12603696 -0.0039931606 -0.052460372 0.14685443 0.031410314 0.25475952 0.21600755 0.12411788 0.05472623 0.03839959 0.14371254 0.019028159 -0.02059625 -0.12991247 -0.079669334 -0.01774829 -0.054476168 0.17221293 -0.036225434 -0.03621363 -0.016106186 0.10038822 0.07710097 -0.4654456 0.22414911 0.05523348 0.04902422 0.025969513 -0.23220779 -0.30385906 -0.09910088 -0.1936875 0.018196682 0.17162059 -0.2513151 -0.058395125 0.19235218 -0.081978865 0.12111847 0.037333287 -0.15340428 0.16570106 -0.3135381 0.031572733 -0.009433335 0.019133553 -0.11264198 0.11321373 0.13888772 -0.17655772 0.07165125 -0.03870565
AA_1 0.30552083 0.85752845 0.37769246 -0.8555194 0.11068636 0.6838506 0.56778157 0.73636514 -0.25670853 0.20696831 -0.32828456 0.036553305 -0.30399412 0.059844945 -0.47773418 0.569658 0.65926576 -0.2086339 -0.07518772 0.13607246 -0.22770326 0.41189 0.30756027 0.6001094 0.545362 -0.43076482 0.029250404 0.19780715 0.30879596 -0.27876955 0.31493977 0.3628659 -0.19844042 0.006067751 -0.19725043 0.28147244 0.47118694 -0.1669669 -0.16737907 -0.30387327 0.08092074 0.09324972 0.006817585 0.059633683 0.37802982 0.24482624 -0.09226466 -0.32711804 0.52565825 0.52806455 0.33960855 0.020300964 0.012476548 -0.24834776 0.16804062 -0.101475075 -0.07126856 -0.37357235 0.09640658 0.2923122 -0.31563485 0.3307419 0.079544224 -0.6344505 -0.39177367 -0.31733027 -0.22276212 0.032737624 0.1609529 0.4923511 -0.18735272 -0.04036062 -0.31295127 -0.14579482 -0.08121834 -0.14825547 0.7555664 0.14114314 0.04379655 -0.06671858 -0.35825914 -0.024277227 0.121259585 -0.61873627 0.10214725 -0.1177234 0.047001448 0.56053835 -0.26176226 -0.09338293 0.11867112 -0.26877525 -0.24826309 0.2016195 0.015709681 -0.09631648 0.12191743 0.33524886 -0.16489743 0.021105744 0.020667875 -0.38518384 -0.06079045 0.07331633 0.18629785 -0.059939466 -0.08241999 0.36691505 0.0011454369 0.124240346 0.052000202 -0.5398703 0.16535953 0.21155253 0.07700178 -0.015515372 0.40669996 -0.687866 0.039425917 0.4435016 -0.3919781 0.57643044 0.6277604 -0.14406003 -0.34655586 0.6526667 -0.26856494 0.02692039 0.056756977 -0.18343596 0.3087706 -0.20535362 -0.09666067 -0.10485868 -0.11518792 -0.2642396 -0.047656212 0.11604736 -0.17421578 0.20330971 0.15719664 0.06355798 0.061637346 0.012487623 0.030132856 -0.07964497 -0.048792813 0.10258742 0.052164108 -0.17148839 -0.11101686 -0.5005273 0.082511805 -0.2613719 0.07673801 -0.11843766 0.08854744 0.09635173 -0.16145535 0.14790569 0.0064158672 0.044790305 0.123047695 0.07801214 -0.013177778 -0.15743396 -0.25113916 0.16429916 -0.2263528 -0.11098257 0.04333252 0.15735781 -0.046021044 -0.16388607 0.27199835 -0.08688059 0.11352737 0.12654172 0.30130485 0.3147697 0.30539408 -0.39740068 -0.12737375 -0.40483636 -0.09593677 -0.11720846 0.3463474 -0.1510748 0.42428482 -0.106348775 0.49258566 0.16187757 0.004306001 -0.071262136 -0.48976865 -0.58040476 0.38704434 0.21809669 0.017649556 -0.27391973 -0.16178103 0.035643384 -0.028024308 -0.627057 0.12920284 0.034527272 0.43758345 0.02769711 -0.053695768 -0.17457974 -0.19818993 0.14703691 0.17021236 0.29587215 -0.42050245 -0.06762523 -0.11063656 -0.06254864 0.13805969 0.229799 -0.06589542 0.114286646 0.177439 0.026888434 0.2925036 0.2760657 -0.21028015 0.030558668 -0.41962844 -0.08808155 -0.11136821 -0.046954833 -0.30038512 0.71737343 -0.6966533 0.059911937 -0.5115548 -0.40860236 -0.5554999 -0.54671884 0.08171944 0.2951674 0.0444729 -0.12781243 -0.4485702 0.045404967 0.0052169315 -0.048780583 -0.3013755 -0.26162815 0.014009925 -0.1814077 -0.53927505 0.007842697 -0.32469863 -0.2500059 -0.018112322 0.26827067 0.31765628 -0.033036634 0.4437887 -0.15506431 -0.25906402 -0.42248547 -0.075424805 0.072763 0.24522635 0.0362262 -0.11135729 -0.16055062 0.05441313 -0.5266254 0.25152165 -0.35025352 -0.47540647 -0.0758153 0.066909425 -0.08949277 0.4814925 -0.15945537 -0.1005994 -0.2399312 0.11818891 -0.4423331 -0.18402372 0.03398768 -0.015302914 0.05642936 -0.49092948 -0.05347456 0.11583328 0.44233054 0.054005735 -0.24360497 0.008144009 0.14794038 0.13609675 -0.4220584 -0.5552965 0.52622235
AA_9 0.04427545 0.5350034 0.20285177 -0.458806 -0.16438083 0.44448894 0.5925369 -0.04633773 0.55612975 0.020423124 -0.7894537 0.22964765 -0.005117493 -0.16121383 -0.10373828 -0.42820033 0.75019896 -0.39662474 0.07522707 -0.41035336 0.46345556 1.112522 -0.37675172 -1.4220508 -0.30328575 -0.2996327 -0.54750353 0.33234435 1.405859 0.6126301 1.3778087 1.4950243 -0.09361776 -1.0196351 0.4166035 0.974066 0.32182047 -0.65187055 0.2612907 -0.14376508 0.28480178 -0.009693668 -0.47736472 0.707855 0.26313043 0.68786067 0.92866725 -0.49108344 -0.5326539 0.03967313 1.1151125 -0.5927435 -0.23036878 -0.8835249 0.20858267 -0.10181331 0.43326488 -0.26914525 0.35177022 0.8630767 -0.17601474 0.33788857 0.50101054 -0.52131253 -0.6406196 -0.28649688 0.21069732 0.28182286 0.22111337 0.4636946 -0.02530851 -0.18147634 -0.17127453 0.5380804 0.06548821 0.25706974 0.12687945 -0.16891286 -0.3661083 -0.035129867 0.47140822 0.14618142 -0.40934268 -0.23629434 0.14244533 1.0256709 0.15826054 -0.05601786 -0.007039302 -0.27338484 -0.26048407 0.19316565 0.38560742 0.5416814 -0.5174365 -0.5459162 -0.21127549 0.118740454 -0.72082597 0.22884694 -0.39351133 -0.18188345 -0.48956588 -0.22549418 -0.34291604 -0.4431631 -0.19889978 0.08261193 -0.24122398 0.10172873 -0.2766339 0.11966786 -0.13993958 0.2779104 0.28463498 0.17742208 0.5022376 -1.2557955 -0.08658685 0.35641354 -0.56114846 -0.23332943 0.12770882 0.37834814 -0.11078849 0.3346057 0.29322806 -0.039406173 0.55856764 -0.9211464 0.10836132 0.53913075 0.71223485 -0.45027965 0.40443364 -0.08362027 -0.45062017 1.1173885 -0.32027245 -0.24549857 0.34273127 -1.2428979 -0.9009417 -0.45210195 -0.11909845 -0.7252539 0.21307124 -0.3092686 -0.22661602 0.016522205 -0.17104077 -0.9630041 -0.14464712 -0.09989204 0.33517638 0.32410917 0.5883019 -0.16767573 0.046341397 0.3381735 0.21975361 -0.25142443 -0.66209203 0.20370673 0.14214297 -0.20339994 -0.18055803 -0.07501664 0.29077715 -0.36358494 0.26758337 0.45759088 0.18520485 -0.31927755 0.5512346 0.15584771 -0.13730572 0.36004546 0.2011666 0.61445653 0.0073011485 -0.0073310765 -0.013410841 0.18775038 -0.19255498 -0.6128268 0.07962144 0.3064015 -0.35839793 -0.18798617 0.2789847 -0.15794893 -0.09368174 -0.032851096 0.04586533 -0.36405393 0.23136024 0.73561054 0.0707442 -0.34971824 -0.30023167 -0.4068415 0.32555702 -0.17272496 -0.8589882 -0.06264887 -0.1988572 0.61247027 -0.23340003 -0.33987814 0.20068084 -0.07866203 -0.57133436 -0.5464384 -0.78830636 -0.16028057 -0.24877283 0.12544306 0.013762127 -0.37952858 0.26712048 0.014105049 0.27045128 0.13022472 -0.35284388 0.22258666 0.41361228 0.119741574 -0.6045075 0.3789136 -0.16669948 0.10260465 -0.15327202 -1.3014472 -0.36825824 -0.08613585 0.027700385 -0.5132234 0.22064789 0.12786779 0.30240873 0.23909996 -0.19682956 -0.20759152 -0.13072236 0.7285939 -0.21882638 0.19765124 0.055469383 -0.28072837 0.3492414 -0.0151920235 -1.4855816 0.20656174 0.1558142 0.267799 0.47825983 -0.27034456 0.79370123 -0.5399435 0.4485932 0.055136696 0.1483908 -1.4120407 0.3069545 0.4653375 0.35708553 0.6776684 -0.8823967 -0.10820642 0.5115231 -0.53482246 0.057766777 -1.1550084 -0.4587078 0.3144554 -0.040098473 1.2773453 -0.60529757 0.38102663 -0.18737608 -0.44993582 0.34224853 0.14341502 -0.6192166 -0.23859578 0.056527033 0.03019403 0.19617 -0.2743841 -0.43247393 -0.46045634 0.57530004 0.24348354 -0.13065346 -0.17009082 -0.22164786 0.40982696 0.73403966 0.126832
AA_6 -0.17807625 1.1416612 -0.75874656 -0.12628303 0.011444423 0.6366823 0.64020777 -1.2871679 -0.40344524 -0.6790486 -0.13145724 -0.4903169 0.73433626 0.508062 -1.0923337 0.8290393 -0.08062054 -0.30453026 0.4354503 0.16560224 -0.9031235 -0.8047182 -0.13993765 0.7625194 0.18479276 -0.12794666 0.94048905 -0.64188147 -0.36830434 -0.53200686 -0.9986646 -0.09191525 -0.21508671 0.66805685 -0.34054255 0.05185904 0.64686334 0.018741887 -0.33618367 -0.47756487 -0.020182766 -0.29486877 0.48982343 -0.5620283 0.2568338 -0.22825326 -0.5142728 0.14440443 0.6911147 0.7879235 -0.106819 0.22514026 0.042622216 0.36964428 0.24857002 -0.40934795 -0.8974648 -0.2637851 0.0061992565 -0.059915554 -0.28786787 0.34241074 0.15135527 -0.23200774 -0.051886167 -0.2043237 -0.23017311 -0.18015103 -0.36696723 0.57520014 -0.27149302 0.13227391 -0.27595305 -0.5664289 -0.034404296 -0.1996532 0.63997185 0.08739307 0.04665274 -0.13761671 -0.32642037 -0.43468654 0.40170464 -0.053722218 0.2013657 -0.42830017 0.14030384 0.52911246 -0.23101225 0.03814684 0.41564065 -0.092407815 -0.2730946 -0.47087288 0.37727013 0.052872255 0.37954402 0.13751091 0.12222491 -0.5867398 0.07384295 -0.49649304 0.47928193 0.06941424 0.15465735 0.13681981 0.15329346 0.34843156 0.5121046 0.1824387 -0.13368914 -0.50423414 0.50162804 -0.33119386 -0.41901773 0.45117435 -0.09389217 0.39611843 -0.042143505 0.21057843 0.103242405 -0.2069106 0.45003647 -0.24112564 -0.1130625 -0.17772771 -0.122307315 -0.043927602 -0.5107414 0.08471241 -0.32784718 -0.4896632 -0.55991024 0.1094782 -0.4418296 -0.3137986 0.13522425 -0.6416147 0.39094812 0.65231436 0.27076876 0.6628733 0.5044394 0.42856106 0.3161341 0.6489861 -0.8530836 0.33886984 -0.02260201 -0.66995484 0.21778372 0.24959922 0.08534494 0.12942398 -0.18575923 -0.20160025 -0.27860647 0.27554464 -0.16037497 0.17056839 -0.08141223 0.43758643 -0.07268837 0.5221979 0.0108154435 0.431554 0.32652748 0.28449696 0.1173546 0.050406683 0.013790877 0.13655171 -0.32977173 0.12985814 -0.030051712 0.25955424 0.33811635 -0.17732137 0.11405744 0.023731176 -0.22350694 -0.14221856 0.092587344 -0.10533675 -0.01775923 -0.081584886 0.0010860586 -0.13064416 0.22857834 0.07746432 0.26682714 0.23873216 0.266635 -0.05137883 -0.39526826 -0.13358973 -0.027853355 -0.0046609356 -0.048700966 0.121137656 0.44610748 0.13202779 -0.025897428 0.24095003 0.418002 0.078324616 0.49979985 -0.107313536 -0.6114548 0.1574163 0.29036173 -0.058610234 0.30993623 -0.3062125 0.3048186 0.60653067 -0.0011556009 0.3778851 0.31949028 0.08981628 -0.08238468 0.13454534 0.05510172 -0.16331874 0.09377696 0.21034308 -0.3231034 0.16416982 -0.07866493 -0.25860894 -0.017852755 -0.08753346 -0.7331331 0.80041385 -0.1661005 0.17734137 -0.121526875 0.06754151 -0.6486237 -0.5383202 -0.22066808 0.067807905 0.525751 0.19267319 0.1845251 0.23197247 0.67154056 -0.07413711 -0.36750165 -0.038113773 -0.007701621 0.08021909 0.23964444 0.022008974 -0.07911276 -0.15264852 -0.51581943 0.1969037 -0.20647742 -0.35404515 -0.2505799 0.15320888 -0.06210256 0.50086075 -0.33337536 -0.14236018 0.20173189 -0.687085 0.25076315 0.29596296 -0.28037563 -0.07459064 0.22087917 0.34556076 -0.1591142 0.014830272 0.53129715 -0.3928119 0.26479456 -0.67141426 0.3736534 -0.3695124 0.30841118 -0.09170784 0.07768076 -0.024234617 -0.39871988 -0.0025668154 -0.19515395 0.42337447 -0.0467411 -0.20688935 0.35845178 -0.33786115 -0.086576924 -0.0839446 0.7302708 -0.1403235 -0.7244615 0.44528717
AA_15 0.2777293 1.935648 0.24358314 0.17443992 0.03614003 1.3273135 1.0600374 0.13385366 -0.16263166 0.05532675 0.23818369 -0.09511969 -0.97235066 0.12557188 -1.1216058 0.94865465 -0.29426 -1.0892887 -0.0325604 -0.4345311 -0.6937749 0.35588917 0.18743409 0.33811384 0.1605362 -0.4836299 -0.2823161 -0.0096679935 -0.37268248 -0.4070098 -0.41980672 0.027553866 -0.16581713 0.17228559 -0.44898072 0.2731012 -0.27858603 -0.106259875 -0.79037464 -0.6444075 0.07396129 0.51178646 0.20174727 -0.29762864 0.7609958 0.18331477 -0.7960577 -0.27991655 1.2199022 1.1289961 0.36783653 -0.15857986 0.1899007 0.22002132 0.35244802 0.035335127 -0.37791672 -0.7081308 0.0005597492 0.019214392 -0.18714689 0.41942224 -0.1170675 -0.68762344 -0.029207764 -0.24127038 -0.21580423 -0.15591295 0.25121623 0.69445986 0.07021438 -0.33580425 -0.080741495 -0.2991388 -0.025683967 0.003638944 0.9672151 0.3892145 0.2871481 0.2808131 -0.7295745 0.025909744 0.23252831 -0.7667173 -0.025454316 -0.31304187 -0.019049052 0.63391334 -0.27567363 -0.20337401 -0.03008195 -0.41204304 -0.45431605 0.28550363 0.1703333 0.06680133 -0.034254916 0.13392481 -0.1493928 0.533569 0.17288253 -0.25017443 -0.26093945 -0.038622063 0.5439733 -0.07675126 -0.43731555 0.42488745 -0.15213206 -0.06732895 0.2996135 -0.4218381 0.14560443 0.397611 0.17007306 -0.25633186 0.63453364 -1.022462 0.259062 -0.43025202 -0.5332295 0.14709428 0.5904168 -0.1554905 -0.15970492 1.036434 -0.39937177 0.5836207 0.1695625 -0.2625505 0.9392806 0.30213866 -0.21799442 0.06827473 -0.0045904857 0.09469692 0.64852375 0.3930566 -0.41374636 -0.36778536 -0.69792664 -0.13645262 0.19763252 -0.09404237 -0.4046085 0.18692559 0.6602153 -0.33028242 0.12164381 0.24887657 -0.34594563 -0.5828639 0.3463021 -0.31917074 -0.38918823 -0.4304685 0.6787505 0.020120842 0.29643998 -0.1603455 0.096638665 -0.36368492 0.6586539 -1.0121086 0.0593031 -0.32091862 -0.21249767 -0.27822804 -0.7445401 -0.11433968 0.0018790521 -0.37279597 0.5972 -0.2042157 -0.301325 -0.6387253 0.20219864 -0.22296333 0.10073477 -0.21971387 0.5861745 -0.19948103 -0.8448748 -0.53723794 -0.028487839 0.03809239 0.16670428 0.4467538 0.8526582 0.14250621 -0.13458054 0.2939167 0.1357849 -0.60169506 0.09650623 -0.47137776 0.32774955 -0.35699862 -0.49580747 0.057007093 -0.5864655 -0.17003739 -0.49852198 -1.397086 0.2727518 -0.106796175 -0.3127642 -0.3030195 0.37561134 -0.088253096 -0.5956805 0.3558628 0.44413447 1.2381132 -0.26582807 -1.0408813 -0.07993481 -0.2821832 -0.238402 0.37351772 -0.20460275 0.1445764 -0.21259645 0.3708219 0.626714 -0.18713799 0.5523672 -0.6456517 -0.10202302 0.018964253 -0.14356233 -0.116841756 -0.36318934 1.4224527 -0.19958562 -0.2892125 -0.6102855 -0.2817051 -0.37702644 -0.4137719 0.06886451 0.25100702 0.27457705 0.25483766 -1.0548042 -0.025124177 -0.287654 -0.41633236 0.028002158 -0.15754375 -0.06212255 -0.1940786 -0.12628199 -0.14952376 -0.57333475 -0.39098433 0.28959867 0.11218078 0.227405 0.5483062 0.13346143 -0.23304644 -0.4529493 -0.07926932 0.15859984 -0.22864373 0.012611272 0.7884361 0.12966423 -0.31939802 0.09025575 0.072725415 0.2426643 -0.2130082 -0.30988044 -0.8186078 0.06199417 -0.36058274 0.68892103 0.042631965 0.38361886 -0.4797101 0.84118843 0.016502282 0.11171885 0.1748963 0.2914005 0.026075792 -0.43913612 0.13544258 0.34977457 0.36073065 -0.2398497 -0.51672333 -0.06164346 0.2620486 0.54731315 0.33130625 -1.2109057 0.06510384
AA_10 -0.7350152 0.2528344 0.41875255 1.7084037 -0.51015437 0.53743035 0.48477638 0.11274679 0.37974295 -0.115544446 0.088144355 0.6366714 0.39797828 0.25064775 -0.4299255 0.4335481 -0.76472414 -0.081331685 -0.6382832 0.18229522 -0.2978161 0.6098016 0.3483997 -0.2763022 -0.0010589941 -0.01628691 -0.097682424 0.105561174 -0.9606488 -0.6752407 -0.8264671 -0.86650217 -0.049684275 -0.011024849 -0.03414864 0.07622927 -0.57047766 -0.7227587 0.10592354 0.38451356 -0.5007653 -0.25288758 0.21369427 0.030213505 0.103890724 -0.06448248 -0.38034543 -0.45239758 0.36666986 7.663581e-05 -0.37531683 0.49474746 0.110472985 -0.024640758 -0.20413752 0.41088924 0.2507468 -0.05274779 -0.3412439 0.050024983 0.14643411 -0.2095092 0.17155503 -0.32236335 -0.2607283 0.7997663 -0.37283346 -0.094565384 -0.4065991 0.27110064 -0.3246329 0.27252474 0.22505401 0.13848579 0.29641715 -0.2621932 0.43023795 -0.17656712 -0.2973661 0.2226585 -0.10201908 0.030384434 -0.055445373 -0.68816024 0.26662123 -0.16597667 -0.19034752 0.69480103 0.2747388 0.5880699 0.05708946 0.35266566 -0.11810583 -0.5135499 0.11893901 -0.13825914 -0.33463207 -0.78590983 0.6214096 0.621976 0.34317857 0.15520549 -0.26151797 0.010661429 -0.21803215 0.18679069 -0.253212 0.6577855 -0.25038472 -0.868604 0.64020586 0.092614785 -0.45029274 -0.3506271 0.030836971 -0.96659756 0.15661994 0.2725619 -0.272505 -0.62946784 -0.22160414 0.16071299 -0.5393026 0.6052865 0.39505172 0.35983184 -0.16120808 0.4549409 0.8669486 0.788073 0.6553689 0.35590717 -0.04558427 0.10567223 -0.37252125 0.032798994 -0.34922686 0.056700625 -0.6266533 0.0816551 -0.17623048 -0.17197369 -0.16960675 -0.29889244 -0.39870274 0.022796782 -0.026638221 0.43005306 -0.061037492 0.3830459 0.7754265 0.41620278 -0.19706555 -0.7495955 -0.5306314 -0.19397756 -0.050657097 -0.20397538 -0.19112995 -0.52879626 0.23961459 -1.1730344 1.0451888 -1.3691903 0.7122702 -0.12871677 -0.3194881 -0.24731517 -0.115861006 -0.4563167 1.085028 0.024687104 0.40595 0.18293315 -0.34901106 -0.666112 -0.6668484 -0.493259 -0.45975924 0.040047992 -0.5096277 0.8103475 -0.64150876 -0.2310789 0.14130756 0.10672478 -0.6920967 0.93320143 -0.07640122 -0.28933513 -0.11593019 0.18009797 -0.18866765 -0.97216815 0.16757883 -0.21920113 -0.37666562 0.06698897 -0.82137376 0.023387186 -0.50364536 -0.9483155 0.5516267 -0.66165316 -0.6054855 0.16831042 -0.61113757 0.5939898 -0.21131833 -1.05065 0.31684312 -0.05336147 -0.3970681 0.4338171 -0.042786717 -0.81566054 -0.1986731 0.022888748 -0.7765578 -1.6130563 0.7570451 -0.2213246 0.04051303 1.055561 -0.24624349 -0.2937718 2.1196897 -0.56638676 0.21259588 0.9797193 0.41858754 -0.49292836 0.3720515 -0.21688154 -0.41606826 -0.21330276 -0.36929622 -0.8241322 -0.6694502 0.5848756 -0.21008171 0.5501969 -0.18063246 -0.12043497 0.24177384 -0.71190363 1.3804448 1.4491192 -0.560227 -0.036643513 0.059297744 -0.595997 -0.44315082 -1.7544872 -0.9464801 -0.28767404 0.21107498 0.28014067 0.37213576 -0.089818 -0.08723961 1.2512038 0.37181574 0.4251118 0.14447565 -0.33401024 -0.83669364 -0.24406359 0.44044438 -0.4005939 -0.048162177 1.0932713 -1.9299564 -0.13108514 0.6260611 0.8253585 0.47602528 1.2739861 -0.19267432 0.8473752 -0.1848927 -0.33677384 0.47442257 0.5835302 -0.7674724 -0.13523117 -0.5507455 0.04102023 1.1507592 -1.0608863 0.48180643 -0.56055766 0.062678576 0.6517375 -0.081879474 -0.35147652 -1.1117971 0.20971878 0.7350319 0.90158445
AA_7 -0.24701464 -0.040231887 -0.3565784 0.23533313 0.69955534 0.09483818 -0.10572381 0.1114666 -0.121441275 -0.5701776 0.26815823 -0.4271884 -0.4456599 -0.21571146 0.24881582 0.13166654 0.14299156 -0.644063 0.5307112 -0.060829844 -0.29579413 0.14644912 -0.5783279 -0.407062 0.38184747 0.29699206 0.24957043 0.1365355 0.030299032 -0.45403045 -0.4715541 -0.15003954 0.12629347 -0.5967133 0.19216374 0.26176074 0.06346519 -0.62639976 0.622604 -0.37560344 -0.071157664 -0.42259538 0.38040128 -0.35441577 0.6881043 -0.12962587 0.4579626 -0.4116258 -0.8926116 -0.51367825 0.024915723 -1.0473379 -0.14525819 -0.29095602 0.036727697 0.16197643 0.13113119 -0.23594303 0.11139849 0.18122695 -0.6287452 0.12441281 -0.6650131 -0.21376835 -0.6758271 0.19177997 -0.7211193 -0.26971465 -0.5610798 0.3788853 0.088892035 0.018629072 0.4689968 0.089360416 0.35235527 0.17818704 0.4584989 0.14793716 -0.326155 0.49346438 0.03963862 -0.08732868 -0.2342279 -0.07267285 0.35066128 0.4431383 0.377985 0.3253021 -0.22106588 -0.44330126 -0.047487125 0.21453506 0.18900208 0.18055588 -0.2558917 -0.16845365 0.23582955 -0.5064402 0.20051652 0.12779604 0.18046956 0.20952004 -0.3361007 -0.11546753 0.08362696 -0.31133303 -0.3523391 0.53679365 -0.06717321 -0.31661645 -0.17836681 -0.28006694 -0.3104285 -0.10637321 -0.3469661 -0.12264891 -0.08576016 -0.17249677 0.16741863 -0.31263423 -0.80441916 -0.85913306 0.09784868 0.26305118 0.3487863 0.40346995 0.18885368 0.11393894 0.32086164 -0.26700723 0.21816263 -0.18654847 0.11005987 -0.066774145 -0.18783553 -0.08562982 0.17514609 0.33202994 0.06998076 0.14934033 0.09696774 -0.034766253 -0.13861923 -0.16821413 -0.031962603 0.5095267 -0.56817764 0.3042522 -0.5213626 -0.16998914 0.10109313 -0.06314279 0.012421768 -0.05753144 -0.2195813 -0.10740272 0.005005979 0.10214064 -0.07953314 0.20675935 0.07939796 -0.14161661 -0.28722763 -0.15807231 -0.06446971 -0.09630845 0.007063685 -0.10426503 -0.08149275 -0.025936086 0.08215317 -0.0093193585 0.16373743 -0.09584739 0.29173034 -0.12429219 0.030616494 -0.15551996 -0.029713674 0.24288909 0.0746129 0.12795688 -0.30407238 0.15273947 -0.19196874 -0.017507011 -0.15476401 0.7039314 -0.4397719 0.23570453 -0.1607492 0.16126446 -0.4313113 -0.12622975 0.076907806 -0.05449071 0.09618228 -0.10848829 -0.8155818 -0.32962766 -0.10292237 -0.27559233 -0.2563172 -0.18842445 -0.40660852 -0.14107545 -0.4676064 0.14122908 0.013477641 -0.14296043 -0.42068633 0.12784414 -0.13625978 -0.09502535 0.04670459 -0.23708427 0.13324273 -0.022334214 -0.1987185 0.1887518 0.036016796 0.16961741 -0.4277237 0.25249925 0.300442 -0.02865809 0.5615017 -0.28853446 -0.095522545 0.19003005 -0.2146274 -0.18960498 -0.012968539 1.0557259 -0.05108911 -0.1617354 -0.37192145 -0.14452359 -0.29677218 -0.44208866 -0.05703351 0.1445203 0.2264259 0.15684076 -0.10792904 -0.04277999 0.62477046 0.39703023 0.22044145 0.0645482 -0.008882525 -0.058866262 0.23780778 -0.5425501 -0.48671243 -0.12123999 0.57603073 0.67506874 0.002713624 0.4755099 -0.4174703 -0.17714946 -0.35147968 0.58885807 0.06762935 -0.08238462 -0.6018271 0.04979847 0.35574073 -0.107332274 0.50343704 0.4686736 -0.06766829 0.19208556 0.1618258 0.071640916 0.09651888 0.15917341 0.1153813 -0.054081287 0.34838563 -0.40608418 0.33316603 0.4475238 0.03232448 -0.110810764 -0.05963173 -0.10581683 0.039904088 -0.11900859 0.088235006 -0.08508999 0.5749094 -0.20879643 -0.22170262 -0.26623747 0.50229126 0.34862444 -0.7301559 0.12674552
AA_12 0.08715646 0.3169336 0.6490357 -1.2063415 0.5905524 0.3692552 0.02748434 1.3188192 -0.71200925 0.84684277 -0.062925294 0.24236658 -0.1262447 0.14921205 -0.34200636 1.252173 0.21427016 0.22529432 0.19632722 0.8509894 -0.60545284 0.4428319 0.44929296 0.92784786 1.07596 -0.30249435 0.34499568 -0.069731705 -0.27262613 -0.61305344 -0.20937605 -0.35675174 -0.034574807 -0.05801152 0.115655355 -0.13323073 0.45852304 -0.5933227 0.5903658 -0.11183901 0.020483308 0.25202638 0.53170437 -0.36774477 0.5299122 0.108626865 -0.15101564 -0.2881975 0.07820332 0.24876975 -0.25978485 0.102004886 0.02355668 0.17715526 0.097918466 0.28294927 -0.24627964 -0.44613114 -0.14264838 -0.23791943 -0.016915124 0.30478823 -0.12729044 -0.3555762 -0.24118365 -0.0847777 -0.98641866 -0.28089464 0.18485925 0.058051296 -0.33294883 0.4451201 0.0793882 -0.15622757 0.4211364 -0.37244737 0.9914275 0.12864947 0.11251289 0.045089636 -0.509437 -0.40923664 0.06989802 -0.1785777 0.32011342 0.22497591 -0.3477072 1.1352499 -0.55775076 -0.4516252 0.33991912 -0.2303571 -0.06122647 0.019061098 0.23736589 -0.1291564 0.42910227 0.081090964 0.47862548 -0.13590993 0.5907957 0.06402364 0.03144764 0.13934289 0.2635323 0.22683504 0.077375405 0.9955949 0.01381476 -0.20217508 -0.09777444 -0.9101368 -0.24961844 -0.32580948 -0.23135416 -0.42101344 0.4814428 -0.30481702 0.032408535 -0.025844134 -0.33670273 0.14495961 0.49841398 -0.076529 0.12334082 0.46354526 -0.42982563 -0.035616275 0.35909903 -0.023196168 0.19730663 -0.59475875 -0.0647462 -0.07098172 -0.26736224 -0.00035427292 -0.19053277 -0.10155503 -0.07510305 0.38984114 -0.12511891 0.54152125 -0.02170552 0.104837954 -0.22580223 0.00833016 -0.94916594 0.4222857 -0.045302358 -0.14174318 -0.048101828 -0.34226733 -0.45251897 -0.67979425 -0.15701282 -0.041030873 -0.4493482 0.2922071 -0.66031015 -0.24331476 -0.15912361 -0.438184 0.4512644 -0.57213825 0.20128487 -0.45228583 -0.787321 0.116339386 -0.3311992 -0.23673348 0.4645862 0.03366148 0.32700694 -0.5170277 0.041769493 -0.444389 -0.17859568 -0.29310828 0.35616902 0.5606102 0.39471096 -0.26460248 -0.7020148 -0.70075965 0.079834715 -0.18544856 -0.059997525 0.30637425 0.54493475 0.2674639 0.90481067 0.5964407 -0.14044549 -0.5964279 -0.5112923 -0.73329145 0.25941598 0.008088591 -0.53950703 -0.14324936 -0.123592585 -0.26771015 -0.016516423 -0.9730144 -0.06460708 -0.01820338 0.39176473 0.18573414 -0.22427756 -0.55357385 -0.45193714 0.26232436 0.17152831 0.5463058 -0.09029335 -0.32569006 0.02658092 0.16999075 -0.09735125 -0.022013597 0.12061236 0.3346309 0.0015876665 0.33649704 0.33927682 0.3058286 0.4429637 -0.12293975 -0.4615753 0.151265 0.35004303 -0.6788345 0.1705984 1.423985 -0.46719146 0.1449531 -0.7585732 -0.570219 -0.9464556 -0.72625715 0.21860377 0.66107845 0.43576917 0.1657829 -0.4630828 -0.56127167 0.8497721 0.51515675 -0.41721925 -0.27345583 0.07489596 -0.4443117 -0.15507993 -1.1610425 -1.0736567 -0.5384467 0.33405972 0.74779314 0.31183454 0.7739925 0.06421392 -0.08805198 -0.7197485 0.38929012 -0.10787813 -0.15695047 -0.6127367 -0.039399337 0.7330679 -0.29551914 0.2636102 0.20017979 -0.47023067 0.2641107 0.3157049 0.01482031 0.09965149 -0.11649233 0.69329274 0.06110678 -0.012414508 -0.17862976 0.07259431 -0.17144622 -0.07652321 0.19164948 -0.34710634 0.34876966 -0.17341818 -0.37798592 0.50905675 0.6195029 0.35257804 -0.1848746 -0.23010607 -0.10336454 0.38081846 -0.08230807 -0.90208924 1.1773161
AA_14 0.4681512 -1.11766 1.2590966 -1.5195372 0.14876741 -0.80791724 -0.67109925 1.8014365 -0.44269824 1.542919 0.15845802 0.3997535 -0.40884715 -0.13465174 0.3712133 0.25830838 0.06885545 0.89132917 -0.27271152 0.5053217 0.37121743 0.7678267 0.62245923 0.70403284 0.29392478 -0.29221016 -0.3202285 0.23769368 -0.35877514 0.08788406 0.61860293 -0.3311225 0.075523175 -0.053983286 0.115989216 -0.14626436 0.022909224 -0.0816652 0.13249797 0.27601466 0.041100897 0.1756074 -0.17515455 0.32248005 -0.478236 0.18657139 -0.0201281 -0.08351717 -0.16863656 -0.32135424 -0.08872202 -0.05221726 -0.055615894 -0.09370152 -0.3485896 0.2968298 0.8967716 0.10475586 -0.009032233 0.00070067943 -0.017984608 -0.39378467 -0.5575006 0.007372885 0.008703838 0.055810317 -0.18151565 -0.31909075 0.3271271 -0.33383146 0.07682439 -0.17850576 -0.2082521 0.18997993 0.06250083 -0.0849241 -0.16816106 -0.024390861 0.21507248 -0.02211178 -0.2796095 0.2769762 -0.0993484 0.09347052 -0.30168572 -0.03373007 -0.12563133 -0.49200734 0.14516725 -0.014295199 -0.20880315 -0.21521798 0.16251747 0.13766019 -0.044727053 0.3213153 -0.038912337 0.17960839 0.15556899 0.2547303 0.06876217 0.503913 -0.007919954 -0.16127527 0.11882795 0.20286201 -0.0026741896 -0.11051306 -0.17612228 0.118965685 0.060955737 0.009614004 -0.2665178 0.10622446 0.3274704 -0.46481675 0.07414713 -0.028702721 0.3093954 -0.19647945 0.2943688 0.39651078 0.09790297 -0.21197261 -0.1393821 0.21234557 0.082879744 0.0037979896 0.23438172 0.18921511 0.30299455 -0.06310232 -0.063301675 -0.14105427 0.15211548 0.3148692 0.029533343 0.08273605 -0.35711932 -0.39515314 -0.30434856 0.04521803 0.17444646 -0.18637276 -0.04093341 -0.024950108 0.4143371 0.09283799 -0.050145436 0.38158354 -0.111001804 0.33383325 -0.03024152 -0.14732602 -0.046670385 0.04608695 -0.3310155 0.24843948 -0.038930487 -0.38875204 -0.22195134 -0.11429863 0.96102816 -0.30325437 -0.33742717 -0.18941894 -0.49436584 -0.062457915 -0.24392277 0.24621977 -0.2538493 -0.10314027 0.1387796 -0.097942814 0.0117330775 -0.24307247 -0.32084483 -0.111513756 0.116512164 0.14011572 0.58568394 -0.13198346 -0.13152948 -0.40954813 0.28816202 0.47414103 0.15625611 -0.41753927 0.16518553 0.25264046 0.023957571 0.1003937 0.10893736 0.26618066 -0.3570409 -0.017018897 0.105590165 -0.12907882 -0.02990581 -0.14710587 -0.06927588 0.30627725 0.2600519 -0.12020969 0.29632735 0.17504413 0.26438576 -0.083673485 0.13709784 -0.120039314 -0.20806648 0.02321039 0.027971348 0.46983698 0.15849948 -0.1333224 0.037039366 -0.06919123 0.0013438795 0.2956051 -0.13006996 0.12127462 0.09505571 0.058919463 0.44995803 -0.20266026 -0.6092248 0.049270682 0.2707967 -0.48036575 0.17738071 -0.019382048 0.8630479 -0.258223 -0.11895176 -0.048286155 0.0035860585 0.110833846 0.28268027 0.28167808 0.09276177 -0.1731985 -0.25229463 -0.18797849 0.091663875 -0.65661466 -0.477699 0.10571444 -0.22354671 -0.04484908 0.0005123272 -0.05150665 0.1529768 0.15496922 0.1252905 -0.099436715 0.19114156 0.31198096 -0.14795896 0.56794226 0.2416588 -0.4374969 -0.32745272 -0.062379934 -0.018303964 0.12420994 -0.08897047 -0.08804415 0.11351295 -0.26981208 0.005149178 -0.1804616 -0.0058426876 0.18626153 0.2953381 0.13612846 -0.5740697 -0.4342492 0.15362495 0.16638997 -0.55228555 0.79472154 -1.0605468 -0.41483912 -0.023437735 0.18247028 0.14935711 0.05215622 -0.31801176 -0.23302674 0.31036228 0.7949953 -0.6003583 -0.18048751 0.3126874 0.21710981 -0.41047698 -0.88104737 -0.07381904 0.050451614
AA_4 0.43397507 1.170176 0.67974406 -1.4430199 -0.07515334 1.0549383 1.1338084 0.45355293 -0.40519553 0.42803985 -0.34471294 0.17017125 -0.10895484 0.26704335 -1.1711489 1.0273302 0.39394623 -0.37152058 0.008346936 0.3021642 -0.66817874 0.6050601 0.39839536 0.7501079 0.3700178 -0.77711177 0.14934283 -0.039107632 -0.18671983 -0.43735656 0.029161127 0.5080753 -0.12919272 -0.007988149 -0.090420805 0.4845832 0.72773355 -0.09703708 -0.48979205 -0.43543184 0.26793748 -0.07086981 0.22177525 -0.17615215 0.2407797 0.34122604 -0.50217175 -0.16101879 0.603651 0.8491488 0.39050284 -0.15561391 -0.083057925 -0.041371964 0.24273917 -0.11661078 -0.295145 -0.4430671 0.16063714 0.34773573 -0.43744785 0.24088955 0.02077416 -0.70554155 -0.37400946 -0.23474321 -0.5897168 -0.31209424 0.44789967 0.6061288 -0.5956555 -0.000618382 -0.6404536 -0.081389606 0.18066405 -0.3044967 1.2899297 -0.11698001 0.10112776 -0.044021312 -0.5043788 -0.10003161 0.079060785 -0.7170044 0.25868508 0.22257814 -0.102112494 0.8004635 -0.20634252 0.1937381 0.1924579 -0.3646812 -0.03737057 0.118678294 0.18093231 -0.0024894585 0.21446139 0.01806001 0.20676509 0.14912589 0.14102815 -0.3565568 -0.084406585 -0.08615801 0.35681984 0.04559521 -0.20442444 0.94409317 0.17565043 -0.24342166 0.20620665 -0.6119769 0.11224355 0.19323163 0.25604725 -0.25571555 0.7134982 -0.78973407 -0.0071744327 0.02653028 -0.29131913 0.33805674 0.5725475 -0.080503836 -0.14059006 0.50238705 -0.47125426 0.0832806 0.27072555 -0.2184478 0.40863267 0.11566383 -0.13776171 -0.17410961 0.006004739 -0.14197205 -0.22900741 0.3368524 -0.41908425 0.15051672 0.06662137 -0.22636002 0.029803907 -0.08858635 -0.000119155084 -0.3509937 -0.07725951 0.11297287 0.04489135 0.12814045 0.081688814 -0.30793616 -0.022263769 -0.39074612 0.03494257 -0.017960383 0.029676778 0.066152945 -0.15922344 -0.10690235 0.07292663 -0.5177763 0.30340075 0.007887989 0.27463663 -0.071943305 -0.40727046 -0.043173373 -0.16225074 -0.32043105 0.38950762 0.19507606 0.055931352 -0.17455342 0.10986389 -0.24146548 -0.2472268 0.02470147 0.44482246 0.5109297 0.22105636 -0.2752108 -0.21058539 -0.43668917 0.07137073 -0.25859308 0.25714257 0.08879441 0.51521623 -0.24925578 0.5650578 0.3499993 0.11345017 -0.3475347 -0.55698556 -0.6575829 0.48734045 0.39318392 -0.20245461 -0.6830768 -0.39917034 -0.19394784 0.104741596 -1.0471215 0.10916989 0.037201364 0.3030118 0.2087725 0.39543408 -0.43770084 -0.38699383 0.25598624 -0.06355837 0.6051162 -0.7070018 -0.52023315 -0.14063868 -0.33512697 0.1765079 0.26231834 0.24607055 0.23873526 0.5092187 0.15065049 0.031735975 0.51196253 -0.0187769 0.048281215 -0.7816833 -0.0868673 -0.04169153 -0.43805647 -0.19237912 0.5172669 -0.9048372 -0.025396269 -0.58504176 -0.7529127 -0.6043951 -0.27785033 0.09570348 0.4920239 0.014233169 -0.050368223 -0.28997454 -0.34270954 0.12948161 0.369426 -0.6695107 -0.38455403 0.033223175 -0.33133662 -1.0535958 -0.52278006 -0.47969833 -0.30056033 0.34621683 0.7183857 0.74656445 0.051030695 0.41244754 0.08984903 -0.528424 -0.3486174 -0.20767882 0.44464773 -0.19258794 -0.29061815 -0.10361469 -0.2274041 0.3356785 -0.87770456 -0.12924555 -0.5258233 -0.08471736 0.33839044 -0.120375104 0.14909936 0.13421053 -0.023365783 -0.102355294 -0.19880685 -0.13957268 -0.40280068 -0.36415878 -0.087755956 -0.32110816 0.03630191 -0.54295677 -0.28150967 0.12622413 0.43546912 0.65424204 -0.29028234 -0.023153428 -0.10175973 -0.023138251 -0.65774834 -0.17987593 1.4401695
AA_5 -0.021674631 1.2051917 0.08595725 -0.99981856 1.1543555 1.2961686 0.49432522 0.6894591 -0.7819015 0.32105637 0.14833197 -0.14644222 -0.43799928 0.10455564 -0.5368594 1.5879787 0.2476727 -0.5051338 0.72124803 0.61555135 -1.0304102 0.52832556 0.11650561 0.46648204 1.4349377 -0.38254037 0.35447514 -0.2684876 -0.010540379 -0.85282445 -0.438075 -0.02961333 -0.2192226 -0.460277 0.38785836 0.13075991 0.46406263 -1.4057391 1.3755605 -0.47723046 0.102256715 0.3402661 0.8139972 -0.6429156 1.3931664 0.16123264 0.12265162 -0.50478476 -0.09781549 0.3494002 -0.02486795 -0.3362013 0.14427777 -0.108868785 0.32269225 0.2824271 -0.3855804 -0.9729716 -0.19326934 -0.43491215 -0.2130932 0.8146818 -0.4321062 -0.69626373 -0.46202716 -0.56084645 -1.3257818 -0.43874502 -0.07403815 0.16788553 -0.0049891765 0.3813132 0.25679514 -0.098792136 0.5783528 -0.13530888 1.0803622 0.17010112 0.33970672 0.279408 -0.4673557 -0.5674704 0.10276809 0.1207563 0.5833565 0.6902544 -0.095194206 1.2179468 -0.69042015 -0.8964833 0.34139624 -0.13291846 0.009190475 -0.021840235 0.14316186 -0.2551417 0.6228403 -0.2028002 0.4301544 0.027310496 0.44739366 0.08312317 -0.19427274 -0.17561781 0.38052654 -0.09661494 -0.06895654 1.6211447 0.28597373 0.05595101 -0.5414814 -1.0249059 -0.49569988 -0.44583842 -0.18204248 -0.48285568 0.48142576 -0.5851344 0.1796663 -0.32225725 -0.60983396 -0.47799516 0.5316366 0.104564175 0.2851018 0.64724797 -0.29070047 0.2335125 0.53179425 -0.45533967 0.22371708 -0.47630408 -0.24008411 -0.17566699 -0.5044363 0.18512222 0.2004688 0.20501359 0.07223075 0.45372137 -0.34458593 0.4747341 0.108775906 0.047849953 -0.34278795 0.36513177 -1.3340921 0.30802622 -0.3472964 -0.5032997 -0.13264503 -0.6514605 -0.36261794 -0.64511 -0.45246893 -0.19674328 -0.17096433 0.26444796 -0.41753763 -0.0363692 -0.07734389 -0.1739245 -0.20369644 -0.40723974 0.046165586 -0.30625382 -0.40726978 0.108771786 -0.26769763 -0.3129556 0.47650436 0.061893728 0.38426095 -0.43778437 0.16901477 -0.18276605 0.020614691 -0.38628617 0.29859778 0.5713955 0.20181228 -0.1925789 -0.80324364 -0.41121572 -0.014950812 -0.198266 -0.07188699 0.7304655 0.22734427 0.33135122 0.5499138 0.5827429 -0.18592978 -0.6797163 -0.19982138 -0.72015196 0.36028862 -0.051828045 -0.82039285 -0.10463861 -0.15173142 -0.3112243 -0.17165248 -0.96843874 -0.1966201 -0.05231894 0.14760214 0.11012332 -0.30917826 -0.25808704 -0.48856673 0.27352828 0.09987562 0.16507019 0.062471993 -0.29741222 0.031714737 0.3062668 0.08965052 0.27760196 0.12335623 0.64119154 -0.20055835 0.37607023 0.27211013 0.20898597 0.4703753 -0.124677144 -0.4676799 0.06339698 0.27357823 -0.58852464 -0.14004833 1.410436 -0.27171168 -0.09038773 -0.6748887 -0.48441085 -0.6029705 -0.862328 -0.06189312 0.5916794 0.4884771 0.28657112 -0.38887244 -0.2381465 0.7464774 0.33045185 -0.13960733 -0.1724665 0.093991816 -0.34224236 0.11633165 -1.1570587 -0.83135355 -0.3505094 0.6427565 0.810033 0.13769275 1.0334731 -0.2627581 -0.5267626 -0.70856595 0.5336753 -0.09151925 0.04044314 -0.6923334 -0.17624648 0.62994736 -0.2632262 0.3828697 0.35446957 -0.2576363 0.3909243 0.45567316 0.064693615 -0.0019843923 -0.20401745 0.32277495 -0.046626378 0.2124774 -0.21700256 0.1274999 0.30075362 -0.0007297444 0.13288209 -0.3305722 0.2752913 -0.29712582 -0.21427271 0.4619288 0.37211356 0.59655833 -0.27204993 -0.36777577 -0.17553864 0.59428763 -0.13957448 -0.8734921 0.8513569
AA_8 0.0029093379 -1.0196333 1.1175071 -0.9787548 0.012774955 -1.1474966 -1.0744523 0.9231749 -0.08561903 2.1975932 0.14211759 0.7915285 0.19586861 -0.050882716 0.4501254 -0.11738997 -0.660558 1.4799547 0.28804842 0.58086056 0.8809277 0.7770445 0.22472537 -0.37742123 0.034316514 -0.2975377 -0.71948403 -0.3336093 -0.20816165 0.8816613 1.1594303 -0.1917301 0.16761792 -0.3889675 0.7535869 -0.43281126 -0.4527393 -0.6227793 1.1004303 0.68531907 0.26924446 1.053326 -0.16731352 0.44607556 -0.5928834 0.4001297 0.31738627 0.2905171 -0.455267 -0.38659462 -0.15867542 0.27922052 0.025636528 0.0756676 -0.3853387 0.5688824 1.2332734 0.037783567 -0.20490551 -0.6954449 0.99984527 -0.39325985 -0.4487634 0.67096215 0.9502998 -0.34606776 0.11956824 -0.33711928 0.7973419 -1.4393486 0.68880415 -0.09764336 0.16562864 0.4941922 0.26438406 0.27867493 -1.3949069 -0.14744094 0.5556461 -0.05045667 0.11660851 0.15193775 -0.26195568 1.4716337 -0.50232077 0.7832369 -0.42973742 -1.3178321 0.24833654 -0.6757594 -0.5300738 -0.016965957 0.6717535 0.22535835 -0.07019793 0.31094792 -0.14102454 0.24770266 -0.077436924 0.20029424 -0.04597528 1.2391056 0.11532173 -0.5617085 -0.29466963 0.3460397 0.33463302 -0.3977504 -0.2199515 0.5516257 -0.5546649 0.56907696 -0.6347389 -0.3867296 0.45705256 -0.4107691 -0.1258478 0.3879977 0.39233315 -0.68013287 1.0864288 -0.5990726 -0.4945972 -0.07088722 0.2260021 -0.6795483 0.65618855 -0.08614438 0.38205746 -0.103638954 -0.25598174 0.16856785 0.119910486 -0.3352817 0.43513194 1.0495993 0.2175837 0.21949247 -0.08410296 -0.8158462 -0.9346916 -0.06247986 0.05688603 -0.14416873 -0.37813592 -0.17599635 0.34995666 -0.39052436 -0.14254801 0.46548837 -0.4993184 0.35199493 -0.2949826 0.19536175 -0.26308632 0.2517712 -0.41087058 0.26459244 0.23280053 -0.44851944 -0.38211206 0.05799538 0.82274354 -0.5568122 -0.613894 -0.122548915 -0.36536083 -0.191862 0.032891605 0.36716554 -0.38122383 -0.25286487 0.5570836 -0.30224168 -0.34799853 -0.0030615246 -0.46214995 -0.3141571 -0.11604576 0.025976697 0.62835616 0.15749921 -0.2703074 -0.070868514 0.64009035 0.49197295 -0.15663446 -0.45491862 -0.1938692 0.61137646 -0.5217388 -0.038758047 0.2961208 0.25113496 0.3943479 0.63837254 -0.25277892 -0.36540717 0.0942311 0.569311 0.13397773 0.2904197 0.39717233 0.52898645 0.118475646 0.18407653 -0.049229022 -0.05192965 -0.17348212 0.22547041 0.11345947 -0.16549796 -0.16321684 0.03483738 0.86241204 0.037302274 0.10335091 0.47505865 -0.01845491 -0.0050817593 -0.25982344 0.26983014 -0.14123681 0.061479174 0.15696487 -0.70971507 -0.530738 0.17561753 0.9181658 -0.38110182 0.66613585 0.36280409 1.4482701 -1.8718143 0.9603314 -0.07893244 0.74973476 0.7024843 1.3249391 0.95126027 0.05319129 -0.6453763 -0.43809232 -0.0096647395 0.47898024 -0.5892011 -1.1203669 -0.2312282 0.33983883 0.041500315 0.13591498 0.20836373 0.8384643 0.3811512 0.8728337 0.39072442 0.13973376 -0.5390286 -0.66610813 0.92727625 -0.088447474 -0.8486092 0.043369014 -0.19872852 0.20437273 0.05011271 0.21281871 0.30129656 0.03538995 -0.047755845 -0.25116035 0.408686 0.054301232 0.6700543 0.7744898 0.055392228 -0.8275878 -0.55087674 -0.5089435 0.36124745 -0.6971496 1.4459116 -1.4111092 -0.07049372 0.38929135 0.3900335 0.39786902 0.27313402 0.01517308 -0.021091295 0.3013677 0.730493 -1.3167263 0.0778808 0.50633013 0.34570485 -0.657884 -0.40536043 0.72845095 -1.1807486
AA_17 0.10457527 0.9590111 0.41447744 -0.80472624 -0.02152243 0.4947049 0.5068499 0.40256834 0.59832835 0.2978421 -1.0288966 0.40585977 -0.22394474 -0.3422424 0.028363464 -0.5859329 1.1278088 -0.28640604 0.29586405 -0.3133723 0.69536585 1.3613999 -0.45096728 -1.5266646 0.053263526 -0.40717095 -0.8008213 0.41417298 1.9306338 0.8111484 1.944647 1.7630312 -0.04562736 -1.1885564 0.52168846 0.91255003 0.42714408 -0.8347317 0.54983276 -0.12968236 0.42962784 0.4318538 -0.5111467 0.8099206 0.4479984 0.89081097 1.1067021 -0.58282864 -0.4763124 0.18212374 1.2373567 -0.49346775 -0.24921818 -1.0169293 0.29759768 -0.010295721 0.5760356 -0.44239944 0.37303337 0.8312877 0.01421755 0.49292508 0.6130075 -0.61229134 -0.58740985 -0.52328134 0.22120006 0.47105265 0.5374402 0.28378972 0.05183721 -0.113450855 -0.062584996 0.549575 -0.0045862794 0.30884552 0.11133093 -0.0735069 -0.35472757 -0.080093496 0.46606597 0.12299354 -0.47319108 -0.2385365 0.13943954 1.2099715 0.0602649 0.14813733 -0.23356499 -0.6588252 -0.30971685 0.10726595 0.3698866 0.86277026 -0.63166255 -0.6993194 -0.17897248 0.4084468 -1.0049777 0.21284084 -0.37345123 -0.16325562 -0.5838236 -0.21404766 -0.36737943 -0.47749048 -0.14689484 -0.030856276 -0.41534808 0.1737425 -0.3602397 -0.064864464 -0.10402631 0.31874058 0.2608214 0.28502712 0.6357964 -1.5500014 -0.097612046 0.74319804 -0.77407116 -0.10005989 0.32875624 0.34215003 -0.20972638 0.446493 0.2808145 -0.26878923 0.52936363 -1.1018319 0.077422425 0.29562914 0.90591073 -0.48167533 0.5181089 -0.15649195 -0.48966601 1.1530409 -0.21158826 -0.16413334 0.4020584 -1.1064656 -0.9940021 -0.3804172 -0.16670139 -0.98871285 0.21005039 -0.37571087 -0.12477018 0.092663564 -0.485912 -1.3151386 -0.19196281 -0.024768744 0.511495 0.3851957 0.6095176 -0.19732477 -0.04780066 0.55001104 0.14221841 -0.19177853 -0.81784683 0.2004386 0.056130797 -0.40337476 -0.35664618 0.008875909 0.23113893 -0.36247984 0.16001281 0.41838533 0.20907733 -0.57606584 0.61204165 0.1546982 -0.079733804 0.53606504 0.36535236 0.70941734 0.22216094 -0.2468421 -0.024201132 0.07832865 -0.24665414 -0.83050334 0.21588895 -0.00027249497 -0.18360767 -0.17478792 0.55370885 -0.17346743 -0.1720205 0.09480299 -0.06968701 -0.39690894 0.3521613 0.70147604 0.33398014 -0.21712732 -0.20154776 -0.26471478 0.2038036 -0.31546494 -0.8265299 -0.15345453 0.063671686 0.58534366 -0.2710673 -0.28840727 0.032352027 -0.010427683 -0.33776662 -0.45336473 -0.8675483 -0.011298535 -0.18299814 0.22119081 0.05016417 -0.21344404 -0.0018543069 0.029771512 0.22610125 -0.050419245 -0.1225158 0.29092845 0.12189899 0.1396918 -0.6187706 0.28435925 -0.11856402 0.17506593 -0.12309739 -1.1683064 -0.38861096 0.037881266 -0.030805256 -0.47608566 0.21095563 -0.06743066 0.59047335 0.22154982 -0.20833305 -0.24605508 -0.4905715 0.8605177 -0.65698457 -0.22087067 0.19061089 -0.36667114 0.39478517 0.03113731 -1.4953912 0.5857425 0.26709765 0.26641873 0.3574856 -0.48387632 0.72850376 -0.3687059 0.7457627 -0.26860064 0.08408804 -1.7975131 0.3868543 0.3853735 0.73808604 1.0360639 -0.96556056 -0.20484552 0.37965277 -0.6746985 0.45325363 -1.2369066 -0.78698987 -0.06791618 -0.10814206 1.0346156 -0.21534577 0.37428755 -0.4816443 -0.33238712 0.2715723 -0.32927042 -0.5796 -0.060998876 0.3453015 0.18826531 -0.0026409323 -0.24181928 -0.32633823 0.017752383 0.080738686 0.23058993 -0.025809761 0.109500945 -0.1828038 0.36025608 0.40707877 -0.30611348
AA_11 -0.00853143 0.012846385 0.83941734 0.48618835 0.048644703 -0.58459294 -0.53134024 1.6075082 0.19882526 0.55218697 -0.019700607 0.5579678 -0.86374044 -0.49795935 0.4522024 -0.69821507 0.50739384 0.1403893 0.10516494 0.2702793 0.9516807 0.32292125 -0.34453997 0.20642944 0.84538615 0.09497862 -0.80001056 0.8014789 0.30018044 -0.06940062 0.80069375 -0.523219 0.3786478 -0.042984676 -0.28553018 -0.44646454 -0.21661043 0.28375548 -0.1446673 0.07355218 0.15030731 0.4966344 0.03447954 -0.0517272 0.022689497 0.11570919 -0.056029335 -0.11384255 -0.0042207153 -0.009170224 -0.09198516 -0.2635706 -0.15991284 0.114152655 -0.04062384 0.23413217 0.43251994 -0.046698555 0.082999036 0.1309223 -0.078492165 -0.15707082 -0.3352182 -0.046337746 0.077983886 0.3690956 0.013820899 0.14982843 0.44061723 -0.013757208 0.047929466 -0.0767868 0.4411533 -0.25886482 -0.20605035 0.08637735 0.16410622 0.3668712 -0.5433944 0.24270679 -0.31936663 0.14008509 -0.22785798 -0.56036824 -0.09452631 0.020764591 -0.09107074 0.38669425 -0.38079646 -0.6368012 -0.26895732 -0.10722236 -0.018106736 0.94108456 -0.3132464 0.08802546 0.19333056 -0.1933235 -0.18184876 0.38064715 0.37703997 0.44979265 -0.29552448 -0.0136681525 -0.018421961 0.060049098 -0.35035267 -0.20298652 -0.4980152 -0.6767159 0.49654475 -0.41346842 0.027700132 0.22511075 -0.2250165 -0.25904024 0.03577904 -0.29232854 0.47658968 0.19675471 -0.8525781 -0.25339088 0.5624574 -0.08796797 0.09318238 0.6272107 0.057949897 -0.29652447 -0.040041465 0.28792647 0.7729062 -0.40098092 -0.28141767 0.32562035 -0.105493024 -0.20894969 0.3917116 -0.12105898 -0.10888021 0.16164052 -0.22165029 0.7159664 0.64818466 0.083662055 -0.14979377 -0.11425521 0.9143675 0.14750579 0.27502778 1.0408275 -0.46979377 0.2540525 0.86727774 0.15799646 -0.34046844 -0.658576 0.09309223 -0.16244413 -0.028760137 0.5551068 0.12479985 -0.42048338 0.56146103 -0.28649113 -0.16371235 -0.18635239 -0.15846151 0.08973468 -0.52588 0.19543573 -0.10192333 -0.44839624 -0.20900704 -0.063582264 0.0914198 -0.54330105 -0.011520871 0.12293712 0.14183912 0.14537829 0.34551796 -0.35182634 0.0816205 -0.1444394 -0.2930496 -0.13869728 0.08848835 -0.5614428 0.1196604 -0.10665624 -0.40972012 0.06398923 -0.5972855 0.4377414 -0.60770583 0.2868557 0.15833698 -0.48453945 -0.06130562 -0.028785277 0.058077436 0.14088435 -0.27646747 -0.42682022 0.04446771 -0.08140924 0.13561286 0.08405849 0.43733734 -0.30888912 -0.8858172 0.4060635 0.50712574 0.9856333 -0.033620372 -0.14822023 0.33022895 -0.31964692 -0.5576817 0.11672331 -0.6027049 -0.26748648 -0.4917283 0.10951567 0.86684453 -0.16109166 0.1343511 -0.3284882 0.29073521 0.14575918 0.0602324 0.2780827 0.6434285 0.9533594 -0.29239133 0.3427458 -0.5666052 -0.07769682 -0.5239601 -0.22759306 0.4446459 -0.05680554 -0.2951122 -0.10295155 -0.650188 -0.9021163 -0.25346768 -0.06583423 0.05932795 -0.09738437 -0.08736232 -0.10637033 0.37379876 0.021520192 -0.45728302 -0.37078667 -0.13724597 0.46902525 -0.21279685 0.53333277 0.25026974 -0.095662326 -0.24196504 0.3925698 -0.0061722943 -0.43913105 -0.14898609 0.2081639 0.5617031 -0.23447436 0.019039273 0.20867991 0.044137135 0.37128264 -0.3093337 -0.15513903 0.0671169 -0.45178467 1.0872611 -0.09157349 -0.3478031 0.028747646 0.0044466318 -0.7713402 0.35476577 0.19187808 0.29135665 0.0020427152 -0.39660284 -0.56189746 0.721412 1.4076624 -0.68377036 -0.25660977 0.4336135 0.254797 -0.42857227 -0.26740968 -0.7978024 -0.048906535
AA_16 -0.044497985 0.027055245 -0.09902801 -0.043720055 -0.039196655 -0.012045143 0.061323978 -0.15755996 0.058358457 -0.099135764 -0.017083805 -0.05055032 0.06896959 0.011630798 0.016349781 -0.06975579 -0.006426648 -0.05528726 -0.009806988 -0.058010355 -0.06110431 0.033115894 -0.041464143 -0.14749815 -0.10791595 0.01027004 0.04763356 -0.045599982 -0.0074469335 -0.00613562 -0.03161639 0.08023992 0.014933476 -0.006058256 0.042091038 0.13127053 0.06981069 -0.024921058 -0.08265424 -0.028534438 -0.044757735 -0.16691792 0.02348704 -0.008474493 -0.047399368 -0.0149059985 0.017415129 -0.013853671 -0.07156426 0.0032319855 0.04630492 -0.042847864 -0.07538282 -0.029257737 0.020001046 -0.028940888 -0.00036608457 0.038833134 0.06261668 0.10419545 -0.087876365 -0.029198326 0.033265322 -0.01978668 -0.072198614 0.1430467 0.005455059 -0.02274208 -0.07464547 0.14344203 -0.09706164 0.0031290492 -0.05691572 0.015813865 0.013126027 -0.009241134 0.08837431 -0.06249299 -0.11176577 0.01169135 0.040932294 -0.013859072 -0.034048524 -0.12945859 0.068097755 0.04932234 0.042967737 0.08182462 0.033254962 0.08744106 -0.017670903 0.04974206 0.09776706 0.011454498 -0.029062089 -0.063680574 -0.0390562 -0.087376155 -0.039845955 0.034398913 -0.072683975 -0.08622237 -0.07269243 -0.056308366 -0.09154311 -0.0630213 -0.060906745 0.0584343 -0.010868224 -0.15375307 0.076340176 0.009448938 0.10628904 -0.062285963 -0.023984972 0.066832535 0.045159172 -0.014888614 -0.113567196 0.07291173 -0.10918069 -0.057163857 -0.044302136 0.124646336 0.006104523 -0.03915843 0.020232348 -0.05551471 0.062345993 0.019711398 0.0011394802 0.0052989414 0.084904365 -0.03533344 0.03196599 -0.11755312 -0.12577698 0.032736175 -0.00068880565 0.11180106 0.15622386 -0.06880373 -0.05262256 -0.05881175 0.041550048 -0.05082186 -0.06258633 0.09076628 -0.038787656 0.050998222 0.060212355 0.01951622 -0.022977376 0.0013479651 0.018920936 0.040533226 0.011436819 -0.025613217 -0.005910267 -0.010939903 0.034892775 -0.06844753 -0.07677747 0.054126374 0.070521936 0.02458915 0.020148208 -0.003594078 0.05825902 -0.041853093 0.090784304 0.03551049 -0.026466127 0.038563598 0.040370606 0.0038027198 -0.0315744 0.002466822 -0.015432164 0.056427937 -0.101164944 0.10206 0.015000102 0.090741694 -0.024264675 -0.07173898 -0.07673846 0.11142777 -0.11667978 -0.086818576 0.01105145 0.0326019 -0.0059343046 -0.043000676 0.00537848 -0.017031107 -0.06036865 0.048352864 0.013121612 0.015921505 -0.002923598 -0.08520603 0.02281956 0.013860004 -0.12922075 0.00043831434 -0.088955924 0.075939775 -0.042309072 -0.021959348 0.10717439 -0.012270745 -0.057672728 -0.10719395 -0.042081434 0.031199545 -0.03228598 0.0025814984 -0.060043704 -0.17224392 0.09445252 -0.0845414 0.0062697246 0.050332252 0.008546292 0.042338982 0.22360091 -0.022386868 -0.037157726 0.16481903 -0.054231044 0.016049583 -0.09901377 0.083572455 -0.08566039 0.040648237 -0.09739474 -0.07550235 -0.12199781 -0.01752038 -0.017964285 0.03657215 -0.010779633 -0.023979912 0.02213105 0.008895018 0.22475322 0.0770433 0.026657552 0.033241525 -0.03168064 -0.034493707 0.0033981507 -0.07464912 -0.05838117 0.007917108 -0.04563228 0.031401392 0.0736218 -0.13198012 0.008324867 0.15551354 0.077428944 0.03077836 -0.020864835 -0.056415994 -0.04964688 -0.066719405 0.03572329 0.04227347 0.0066845743 0.031719603 -0.10843644 0.0023972457 -0.038831532 0.10893626 0.13751787 0.13521066 -0.00014425708 -0.013242582 0.05004352 -0.11501895 0.12673037 0.053480007 0.017816044 -0.07465248 -0.07395885 0.021348735 0.10940871 -0.045061275 -0.042125113 -0.10657699 0.11347761 0.06454966 -0.034675185 -0.07288965 -0.031411164 0.18325622 0.06098353 0.02730314
